{"learner":{"attributes":{"scikit_learn":"{\"_estimator_type\": \"classifier\"}"},"feature_names":[],"feature_types":[],"gradient_booster":{"model":{"gbtree_model_param":{"num_parallel_tree":"1","num_trees":"600"},"iteration_indptr":[0,4,8,12,16,20,24,28,32,36,40,44,48,52,56,60,64,68,72,76,80,84,88,92,96,100,104,108,112,116,120,124,128,132,136,140,144,148,152,156,160,164,168,172,176,180,184,188,192,196,200,204,208,212,216,220,224,228,232,236,240,244,248,252,256,260,264,268,272,276,280,284,288,292,296,300,304,308,312,316,320,324,328,332,336,340,344,348,352,356,360,364,368,372,376,380,384,388,392,396,400,404,408,412,416,420,424,428,432,436,440,444,448,452,456,460,464,468,472,476,480,484,488,492,496,500,504,508,512,516,520,524,528,532,536,540,544,548,552,556,560,564,568,572,576,580,584,588,592,596,600],"tree_info":[0,1,2,3,0,1,2,3,0,1,2,3,0,1,2,3,0,1,2,3,0,1,2,3,0,1,2,3,0,1,2,3,0,1,2,3,0,1,2,3,0,1,2,3,0,1,2,3,0,1,2,3,0,1,2,3,0,1,2,3,0,1,2,3,0,1,2,3,0,1,2,3,0,1,2,3,0,1,2,3,0,1,2,3,0,1,2,3,0,1,2,3,0,1,2,3,0,1,2,3,0,1,2,3,0,1,2,3,0,1,2,3,0,1,2,3,0,1,2,3,0,1,2,3,0,1,2,3,0,1,2,3,0,1,2,3,0,1,2,3,0,1,2,3,0,1,2,3,0,1,2,3,0,1,2,3,0,1,2,3,0,1,2,3,0,1,2,3,0,1,2,3,0,1,2,3,0,1,2,3,0,1,2,3,0,1,2,3,0,1,2,3,0,1,2,3,0,1,2,3,0,1,2,3,0,1,2,3,0,1,2,3,0,1,2,3,0,1,2,3,0,1,2,3,0,1,2,3,0,1,2,3,0,1,2,3,0,1,2,3,0,1,2,3,0,1,2,3,0,1,2,3,0,1,2,3,0,1,2,3,0,1,2,3,0,1,2,3,0,1,2,3,0,1,2,3,0,1,2,3,0,1,2,3,0,1,2,3,0,1,2,3,0,1,2,3,0,1,2,3,0,1,2,3,0,1,2,3,0,1,2,3,0,1,2,3,0,1,2,3,0,1,2,3,0,1,2,3,0,1,2,3,0,1,2,3,0,1,2,3,0,1,2,3,0,1,2,3,0,1,2,3,0,1,2,3,0,1,2,3,0,1,2,3,0,1,2,3,0,1,2,3,0,1,2,3,0,1,2,3,0,1,2,3,0,1,2,3,0,1,2,3,0,1,2,3,0,1,2,3,0,1,2,3,0,1,2,3,0,1,2,3,0,1,2,3,0,1,2,3,0,1,2,3,0,1,2,3,0,1,2,3,0,1,2,3,0,1,2,3,0,1,2,3,0,1,2,3,0,1,2,3,0,1,2,3,0,1,2,3,0,1,2,3,0,1,2,3,0,1,2,3,0,1,2,3,0,1,2,3,0,1,2,3,0,1,2,3,0,1,2,3,0,1,2,3,0,1,2,3,0,1,2,3,0,1,2,3,0,1,2,3,0,1,2,3,0,1,2,3,0,1,2,3,0,1,2,3,0,1,2,3,0,1,2,3,0,1,2,3,0,1,2,3,0,1,2,3,0,1,2,3,0,1,2,3,0,1,2,3,0,1,2,3,0,1,2,3,0,1,2,3,0,1,2,3,0,1,2,3,0,1,2,3,0,1,2,3,0,1,2,3,0,1,2,3,0,1,2,3],"trees":[{"base_weights":[-4.8938385E-1,-5.213637E-1,1.2685051E0,1.1224165E0,-5.490978E-1,-4.0000003E-2,1.3028065E0,1.1751227E0,-4.6153847E-2,-5.6660044E-1,1.1156813E0,-3.529412E-2,1.3293413E0,-3.529412E-2,1.2026578E0,1.0232558E0,-5.8149564E-1,1.5384616E-1,1.1590296E0,-3.529412E-2,1.3566009E0,-3.529412E-2,1.23102866E-1,-3.529412E-2,1.0686567E-1,-5.221027E-2,-6.647284E-2,5.8823533E-2,-3.529412E-2,1.2093023E-1,4.0000003E-2,1.378882E-1,2.6086956E-2],"categories":[],"categories_nodes":[],"categories_segments":[],"categories_sizes":[],"default_left":[1,0,0,1,1,0,0,0,0,0,0,0,0,0,0,0,0,0,1,0,1,0,0,0,0,0,0,0,0,0,0,0,0],"id":0,"left_children":[1,3,5,7,9,-1,11,13,-1,15,17,-1,19,-1,21,23,25,27,29,-1,31,-1,-1,-1,-1,-1,-1,-1,-1,-1,-1,-1,-1],"loss_changes":[2.7072778E2,2.157439E2,5.450226E0,7.1063156E0,1.358695E2,0E0,4.1871796E0,3.63797E0,0E0,1.0937732E2,1.84906E0,0E0,4.3079834E0,0E0,3.7555466E0,3.063839E0,2.2153564E1,9.230769E-1,1.2858772E0,0E0,1.6513977E0,0E0,0E0,0E0,0E0,0E0,0E0,0E0,0E0,0E0,0E0,0E0,0E0],"parents":[2147483647,0,0,1,1,2,2,3,3,4,4,6,6,7,7,9,9,10,10,12,12,14,14,15,15,16,16,17,17,18,18,20,20],"right_children":[2,4,6,8,10,-1,12,14,-1,16,18,-1,20,-1,22,24,26,28,30,-1,32,-1,-1,-1,-1,-1,-1,-1,-1,-1,-1,-1,-1],"split_conditions":[1.4093484E-1,1.6511591E-1,1.6324773E-1,5.1526118E-2,1.9012089E-1,-4.0000003E-2,1.885776E-1,1.377731E-1,-4.6153847E-2,4.3087113E-1,1.9880405E-1,-3.529412E-2,1.8432136E-1,-3.529412E-2,2.0300706E-1,2.0766984E-1,3.6973006E-1,1.00618035E-1,2.1919641E-1,-3.529412E-2,1.2402384E-1,-3.529412E-2,1.23102866E-1,-3.529412E-2,1.0686567E-1,-5.221027E-2,-6.647284E-2,5.8823533E-2,-3.529412E-2,1.2093023E-1,4.0000003E-2,1.378882E-1,2.6086956E-2],"split_indices":[1011,2695,332,4457,211,0,423,568,0,759,407,0,3451,0,2247,3003,4457,162,208,0,4381,0,0,0,0,0,0,0,0,0,0,0,0],"split_type":[0,0,0,0,0,0,0,0,0,0,0,0,0,0,0,0,0,0,0,0,0,0,0,0,0,0,0,0,0,0,0,0,0],"sum_hessian":[4.803E3,4.717875E3,8.5125E1,7.7625E1,4.64025E3,1.5E0,8.3625E1,7.5375E1,2.25E0,4.592625E3,4.7625E1,1.125E0,8.25E1,1.125E0,7.425E1,4.2E1,4.550625E3,2.25E0,4.5375E1,1.125E0,8.1375E1,1.125E0,7.3125E1,1.125E0,4.0875E1,2.659875E3,1.89075E3,1.125E0,1.125E0,4.2E1,3.375E0,7.95E1,1.875E0],"tree_param":{"num_deleted":"0","num_feature":"5000","num_nodes":"33","size_leaf_vector":"1"}},{"base_weights":[-2.0885764E-1,1.9087774E-1,-2.3782761E-1,5.284281E-1,1.4667816E-1,1.03896104E-1,-2.6979008E-1,2.0560747E-1,6.8E-1,-3.5789475E-1,1.6763783E-1,7.906977E-1,8.394404E-2,-3.575015E-2,-3.114807E-1,4.5783132E-1,-5E-2,1.1764706E-2,7.015707E-1,6.896552E-2,-4.864865E-2,1.1724138E-1,1.5384616E-1,-3.529412E-2,9.6103895E-1,1.1724138E-1,7.3129825E-2,8.3081156E-2,-3.5502958E-1,-3.2878742E-1,1.971831E-1,7.5E-2,2.3728814E-2,4.5783132E-2,8.275863E-2,1.1764706E-2,-0E0,9.4736844E-2,1.3944954E-2,1.1864407E-1,1.5384616E-2,1.304348E-1,6.338503E-3,6.858099E-3,1E-1,4.6153847E-2,-3.6881562E-2,-3.452349E-2,1.4176664E-2,1.304348E-1,1.674009E-2],"categories":[],"categories_nodes":[],"categories_segments":[],"categories_sizes":[],"default_left":[0,0,0,0,0,0,0,0,0,0,0,0,0,1,1,0,0,0,0,0,0,0,0,0,0,0,0,1,0,1,0,0,0,0,0,0,0,0,0,0,0,0,0,0,0,0,0,0,0,0,0],"id":1,"left_children":[1,3,5,7,9,11,13,15,17,19,21,23,25,27,29,31,-1,-1,33,35,-1,-1,37,-1,39,-1,41,43,45,47,49,-1,-1,-1,-1,-1,-1,-1,-1,-1,-1,-1,-1,-1,-1,-1,-1,-1,-1,-1,-1],"loss_changes":[5.583795E1,4.7881374E0,4.9099365E1,1.6889658E0,3.1242986E0,5.2093234E0,4.007901E1,2.6092782E0,2.2071934E-1,6.853781E-1,3.6841516E0,2.4333858E0,4.3313084E0,2.3642649E1,3.076529E1,4.905553E-1,0E0,0E0,3.5442448E-1,1.2170386E-2,0E0,0E0,3.023779E0,0E0,1.5686693E0,0E0,4.3880653E0,5.9725523E0,2.0726929E0,2.6153992E1,3.5860057E0,0E0,0E0,0E0,0E0,0E0,0E0,0E0,0E0,0E0,0E0,0E0,0E0,0E0,0E0,0E0,0E0,0E0,0E0,0E0,0E0],"parents":[2147483647,0,0,1,1,2,2,3,3,4,4,5,5,6,6,7,7,8,8,9,9,10,10,11,11,12,12,13,13,14,14,15,15,18,18,19,19,22,22,24,24,26,26,27,27,28,28,29,29,30,30],"right_children":[2,4,6,8,10,12,14,16,18,20,22,24,26,28,30,32,-1,-1,34,36,-1,-1,38,-1,40,-1,42,44,46,48,50,-1,-1,-1,-1,-1,-1,-1,-1,-1,-1,-1,-1,-1,-1,-1,-1,-1,-1,-1,-1],"split_conditions":[4.5329267E-1,1.21391386E-1,2.4179609E-1,1.3450976E-1,1.3677956E-1,1.2799421E-1,2.229698E-1,1.1275367E-1,2.2540578E-1,1.24613695E-1,2.1860169E-1,1.8868077E-1,2.12746E-1,1.2735492E-1,1.2288875E-1,1.261347E-1,-5E-2,1.1764706E-2,1.1257439E-1,1.1930968E-1,-4.864865E-2,1.1724138E-1,1.7111558E-1,-3.529412E-2,2.0881774E-1,1.1724138E-1,2.4039347E-1,2.1409492E-1,9.511157E-1,1.2845756E-1,2.4416846E-1,7.5E-2,2.3728814E-2,4.5783132E-2,8.275863E-2,1.1764706E-2,-0E0,9.4736844E-2,1.3944954E-2,1.1864407E-1,1.5384616E-2,1.304348E-1,6.338503E-3,6.858099E-3,1E-1,4.6153847E-2,-3.6881562E-2,-3.452349E-2,1.4176664E-2,1.304348E-1,1.674009E-2],"split_indices":[2583,1082,104,0,454,112,869,1509,417,453,1458,2173,4941,924,2288,0,0,0,2240,453,0,0,3181,0,104,0,145,2941,4764,472,749,0,0,0,0,0,0,0,0,0,0,0,0,0,0,0,0,0,0,0,0],"split_type":[0,0,0,0,0,0,0,0,0,0,0,0,0,0,0,0,0,0,0,0,0,0,0,0,0,0,0,0,0,0,0,0,0,0,0,0,0,0,0,0,0,0,0,0,0,0,0,0,0,0,0],"sum_hessian":[4.816875E3,3.25125E2,4.49175E3,3.6375E1,2.8875E2,3.84E2,4.10775E3,1.2375E1,2.4E1,1.0875E1,2.77875E2,9.75E0,3.7425E2,6.21375E2,3.486375E3,9.375E0,3E0,1.125E0,2.2875E1,2.625E0,8.25E0,2.625E0,2.7525E2,1.125E0,8.625E0,2.625E0,3.71625E2,4.53375E2,1.68E2,3.372E3,1.14375E2,3E0,6.375E0,9.375E0,1.35E1,1.125E0,1.5E0,3.75E0,2.715E2,6.375E0,2.25E0,1.875E0,3.6975E2,4.47375E2,6E0,2.25E0,1.6575E2,3.258375E3,1.13625E2,1.875E0,1.125E2],"tree_param":{"num_deleted":"0","num_feature":"5000","num_nodes":"51","size_leaf_vector":"1"}},{"base_weights":[3.7695077E-1,-2.556158E-1,4.2256042E-1,-6.4688426E-1,-1.1691023E-1,-4.892368E-2,4.8332492E-1,1.1764706E-2,-6.586467E-2,-1.3025211E-1,1.20000005E-1,-1.9228414E-1,5.1566267E-1,5.277391E-1,-1.0281627E-1,4.1584158E-1,-1.6013253E-1,1.3846155E-1,-2.044335E-1,6.453674E-1,1.1320755E-1,-5.966229E-1,5.483224E-1,-1.170117E-1,1.304348E-1,-2.5E-2,6.4935066E-2,-1.7371938E-2,9.565218E-2,-2.1668743E-2,7.272728E-2,7.132867E-2,-6.451613E-3,4.0000003E-2,-2.736842E-2,-6.4092666E-2,6.0869563E-2,5.748848E-2,-1.0157618E-2,1.07692316E-1,-1.30671505E-2],"categories":[],"categories_nodes":[],"categories_segments":[],"categories_sizes":[],"default_left":[0,1,0,0,1,0,1,0,0,0,0,0,0,0,1,0,1,0,1,1,0,1,1,0,0,0,0,0,0,0,0,0,0,0,0,0,0,0,0,0,0],"id":2,"left_children":[1,3,5,7,9,11,13,-1,-1,15,-1,17,19,21,23,25,27,-1,29,31,33,35,37,39,-1,-1,-1,-1,-1,-1,-1,-1,-1,-1,-1,-1,-1,-1,-1,-1,-1],"loss_changes":[1.3829773E2,1.7440374E1,1.280296E2,8.3512115E-1,4.3643284E0,4.1459167E1,1.0309265E2,0E0,0E0,3.9501572E0,0E0,8.1044445E0,5.342724E0,8.547925E1,5.7382174E0,2.1252732E0,3.600687E0,0E0,4.792919E0,3.8188248E0,3.049851E0,3.9479141E0,6.244214E1,4.6705246E0,0E0,0E0,0E0,0E0,0E0,0E0,0E0,0E0,0E0,0E0,0E0,0E0,0E0,0E0,0E0,0E0,0E0],"parents":[2147483647,0,0,1,1,2,2,3,3,4,4,5,5,6,6,9,9,11,11,12,12,13,13,14,14,15,15,16,16,18,18,19,19,20,20,21,21,22,22,23,23],"right_children":[2,4,6,8,10,12,14,-1,-1,16,-1,18,20,22,24,26,28,-1,30,32,34,36,38,40,-1,-1,-1,-1,-1,-1,-1,-1,-1,-1,-1,-1,-1,-1,-1,-1,-1],"split_conditions":[4.5329267E-1,1.2227123E-1,1.1118165E-1,1.0482851E-1,2.1172127E-1,1.19720355E-1,1.03376225E-1,1.1764706E-2,-6.586467E-2,1.0831815E-1,1.20000005E-1,1.2155348E-1,1.0873252E-1,1.6323565E-1,2.1511655E-1,1.2678634E-1,2.0383315E-1,1.3846155E-1,2.127387E-1,2.0761913E-1,9.434162E-2,5.1526118E-2,7.229759E-2,1.4697927E-1,1.304348E-1,-2.5E-2,6.4935066E-2,-1.7371938E-2,9.565218E-2,-2.1668743E-2,7.272728E-2,7.132867E-2,-6.451613E-3,4.0000003E-2,-2.736842E-2,-6.4092666E-2,6.0869563E-2,5.748848E-2,-1.0157618E-2,1.07692316E-1,-1.30671505E-2],"split_indices":[2583,2586,869,104,2031,4457,104,0,0,1509,0,1174,869,2695,1363,0,688,0,4917,162,4558,4457,4457,453,0,0,0,0,0,0,0,0,0,0,0,0,0,0,0,0,0],"split_type":[0,0,0,0,0,0,0,0,0,0,0,0,0,0,0,0,0,0,0,0,0,0,0,0,0,0,0,0,0,0,0,0,0,0,0,0,0,0,0,0,0],"sum_hessian":[4.78875E3,3.2175E2,4.467E3,8.325E1,2.385E2,5.1E2,3.957E3,1.125E0,8.2125E1,2.37E2,1.5E0,4.0725E2,1.0275E2,3.678375E3,2.78625E2,1.1625E1,2.25375E2,2.25E0,4.05E2,7.725E1,2.55E1,6.5625E1,3.61275E3,2.7675E2,1.875E0,3E0,8.625E0,2.235E2,1.875E0,4.005E2,4.5E0,7.05E1,6.75E0,1.4625E1,1.0875E1,6.375E1,1.875E0,3.471E3,1.4175E2,2.25E0,2.745E2],"tree_param":{"num_deleted":"0","num_feature":"5000","num_nodes":"41","size_leaf_vector":"1"}},{"base_weights":[3.3937535E-1,-6.590258E-2,3.577576E-1,3.684478E-1,-6.532663E-2,-6.511628E-2,3.7783837E-1,-6.495177E-2,3.8645396E-1,-6.4918034E-2,3.95038E-2],"categories":[],"categories_nodes":[],"categories_segments":[],"categories_sizes":[],"default_left":[0,0,1,0,0,0,0,0,0,0,0],"id":3,"left_children":[1,-1,3,5,-1,-1,7,-1,9,-1,-1],"loss_changes":[8.845111E1,0E0,5.125879E1,4.4975525E1,0E0,0E0,4.1229126E1,0E0,4.1076782E1,0E0,0E0],"parents":[2147483647,0,0,2,2,3,3,6,6,8,8],"right_children":[2,-1,4,6,-1,-1,8,-1,10,-1,-1],"split_conditions":[3.3884782E-1,-6.590258E-2,1.8792753E-1,4.3087113E-1,-6.532663E-2,-6.511628E-2,1.8627214E-1,-6.495177E-2,4.0876305E-1,-6.4918034E-2,3.95038E-2],"split_indices":[1011,0,4518,557,0,0,675,0,215,0,0],"split_type":[0,0,0,0,0,0,0,0,0,0,0],"sum_hessian":[4.805625E3,8.625E1,4.719375E3,4.670625E3,4.875E1,4.2E1,4.628625E3,3.7875E1,4.59075E3,3.7125E1,4.553625E3],"tree_param":{"num_deleted":"0","num_feature":"5000","num_nodes":"11","size_leaf_vector":"1"}},{"base_weights":[-4.773294E-1,-5.0766206E-1,1.0715146E0,8.935006E-1,-5.374008E-1,-3.4832817E-2,1.0933355E0,9.4245535E-1,-4.881197E-2,-5.5452126E-1,9.328707E-1,1.1822059E0,6.938253E-1,-4.3317407E-2,9.72085E-1,8.836815E-1,-5.686125E-1,1.0227611E0,8.99884E-2,4.4890216E-1,1.2293755E0,-5.252678E-3,7.691376E-1,-3.844372E-2,9.9501885E-2,-3.6519375E-2,9.2703894E-2,-5.101673E-2,-6.506585E-2,-3.986037E-3,1.0614556E-1,-3.5461E-2,2.6352692E-2,8.74747E-2,-4.2392068E-2,6.8401233E-3,1.2501733E-1,8.915081E-2,3.495927E-2],"categories":[],"categories_nodes":[],"categories_segments":[],"categories_sizes":[],"default_left":[1,0,0,1,1,0,1,0,0,0,1,0,0,0,0,0,0,0,0,0,0,0,1,0,0,0,0,0,0,0,0,0,0,0,0,0,0,0,0],"id":4,"left_children":[1,3,5,7,9,-1,11,13,-1,15,17,19,21,-1,23,25,27,29,31,33,35,-1,37,-1,-1,-1,-1,-1,-1,-1,-1,-1,-1,-1,-1,-1,-1,-1,-1],"loss_changes":[2.181272E2,1.8978491E2,3.1469498E0,6.871681E0,1.1251294E2,0E0,2.3102036E0,4.1665726E0,0E0,8.9647095E1,3.8164558E0,1.8937988E0,1.0783062E0,0E0,3.190651E0,2.670765E0,2.0559082E1,1.9550133E0,5.616049E-1,2.5445921E0,1.5046387E0,0E0,5.527153E-1,0E0,0E0,0E0,0E0,0E0,0E0,0E0,0E0,0E0,0E0,0E0,0E0,0E0,0E0,0E0,0E0],"parents":[2147483647,0,0,1,1,2,2,3,3,4,4,6,6,7,7,9,9,10,10,11,11,12,12,14,14,15,15,16,16,17,17,18,18,19,19,20,20,22,22],"right_children":[2,4,6,8,10,-1,12,14,-1,16,18,20,22,-1,24,26,28,30,32,34,36,-1,38,-1,-1,-1,-1,-1,-1,-1,-1,-1,-1,-1,-1,-1,-1,-1,-1],"split_conditions":[1.4093484E-1,1.6511591E-1,1.6171591E-1,5.1526118E-2,1.905463E-1,-3.4832817E-2,1.1436728E-1,2.0163111E-1,-4.881197E-2,2.1381274E-1,1.856263E-1,1.5409291E-1,1.7565246E-1,-4.3317407E-2,2.0098156E-1,2.1951981E-1,3.6973006E-1,2.236489E-1,1.0254522E-1,1.5406053E-1,1.757152E-1,-5.252678E-3,1.5406053E-1,-3.844372E-2,9.9501885E-2,-3.6519375E-2,9.2703894E-2,-5.101673E-2,-6.506585E-2,-3.986037E-3,1.0614556E-1,-3.5461E-2,2.6352692E-2,8.74747E-2,-4.2392068E-2,6.8401233E-3,1.2501733E-1,8.915081E-2,3.495927E-2],"split_indices":[1011,2695,332,4457,211,0,2583,4079,0,557,407,322,332,0,2707,2310,4457,1452,162,407,3467,0,407,0,0,0,0,0,0,0,0,0,0,0,0,0,0,0,0],"split_type":[0,0,0,0,0,0,0,0,0,0,0,0,0,0,0,0,0,0,0,0,0,0,0,0,0,0,0,0,0,0,0,0,0,0,0,0,0,0,0],"sum_hessian":[4.6303525E3,4.5420728E3,8.8279915E1,9.379536E1,4.4482773E3,1.1097237E0,8.717019E1,9.089264E1,2.9027216E0,4.397692E3,5.0585625E1,6.970524E1,1.7464954E1,1.629287E0,8.926335E1,4.2071117E1,4.3556206E3,4.551789E1,5.0677342E0,4.848385E0,6.485685E1,1.628537E0,1.5836416E1,1.2219677E0,8.804138E1,1.1625298E0,4.090859E1,2.5478708E3,1.8077496E3,1.5982025E0,4.391969E1,1.1298072E0,3.937927E0,3.257074E0,1.5913107E0,1.2168767E0,6.3639977E1,1.13894615E1,4.4469547E0],"tree_param":{"num_deleted":"0","num_feature":"5000","num_nodes":"39","size_leaf_vector":"1"}},{"base_weights":[-2.012137E-1,1.6956419E-1,-2.2938974E-1,-4.366864E-1,2.0716329E-1,3.660427E-2,-2.6807126E-1,-3.434121E-1,-5.7041824E-2,2.2311231E-1,-5.691268E-2,-3.1032938E-1,1.18668996E-1,-2.8553563E-1,2.4323106E-1,-4.6126905E-1,3.9026886E-2,2.3848583E-1,-5.6234777E-2,1.08037055E-1,-3.3483434E-1,1.0846483E-1,1.23505294E-1,4.834888E-2,-3.0959433E-1,1.3096754E-1,2.1704724E-1,-3.1198323E-2,-5.6432843E-2,2.5592972E-2,-4.5830857E-2,7.84816E-2,-3.584933E-2,1.11850716E-1,9.732685E-3,1.23805664E-1,2.8913952E-3,1.9312935E-2,-3.2365363E-2,1.8989736E-2,9.973707E-2],"categories":[],"categories_nodes":[],"categories_segments":[],"categories_sizes":[],"default_left":[0,0,0,0,1,1,1,0,0,1,0,0,1,0,0,0,0,1,0,0,0,0,0,0,0,0,1,0,0,0,0,0,0,0,0,0,0,0,0,0,0],"id":5,"left_children":[1,3,5,7,9,11,13,15,-1,17,-1,19,21,23,25,27,-1,29,-1,-1,31,33,-1,35,37,-1,39,-1,-1,-1,-1,-1,-1,-1,-1,-1,-1,-1,-1,-1,-1],"loss_changes":[4.97128E1,7.758152E0,4.548172E1,5.3158045E-2,4.0569525E0,1.6036713E1,3.4523956E1,1.4143507E0,0E0,3.89853E0,0E0,4.034724E0,5.0514903E0,2.998938E1,3.2893872E0,2.0215511E-2,0E0,3.8423004E0,0E0,0E0,3.107153E0,4.9779353E0,0E0,5.7833414E0,2.4664703E1,0E0,2.4823575E0,0E0,0E0,0E0,0E0,0E0,0E0,0E0,0E0,0E0,0E0,0E0,0E0,0E0,0E0],"parents":[2147483647,0,0,1,1,2,2,3,3,4,4,5,5,6,6,7,7,9,9,11,11,12,12,13,13,14,14,15,15,17,17,20,20,21,21,23,23,24,24,26,26],"right_children":[2,4,6,8,10,12,14,16,-1,18,-1,20,22,24,26,28,-1,30,-1,-1,32,34,-1,36,38,-1,40,-1,-1,-1,-1,-1,-1,-1,-1,-1,-1,-1,-1,-1,-1],"split_conditions":[4.5329267E-1,1.4041659E-1,1.13490835E-1,1.3714989E-1,1.5816477E-1,4.7530055E-2,1.4147818E-1,1.3903189E-1,-5.7041824E-2,1.6233759E-1,-5.691268E-2,1.6263509E-1,2.1494587E-1,2.4380574E-1,2.4369651E-1,1.2596309E-1,3.9026886E-2,1.22301385E-1,-5.6234777E-2,1.08037055E-1,2.3468883E-1,1.2978786E-1,1.23505294E-1,2.2823028E-1,1.6564146E-1,1.3096754E-1,1.2799713E-1,-3.1198323E-2,-5.6432843E-2,2.5592972E-2,-4.5830857E-2,7.84816E-2,-3.584933E-2,1.11850716E-1,9.732685E-3,1.23805664E-1,2.8913952E-3,1.9312935E-2,-3.2365363E-2,1.8989736E-2,9.973707E-2],"split_indices":[2583,1442,869,3081,2695,4457,3085,489,0,407,0,2898,2705,460,710,2583,0,1082,0,0,4764,877,0,2739,0,0,2353,0,0,0,0,0,0,0,0,0,0,0,0,0,0],"split_type":[0,0,0,0,0,0,0,0,0,0,0,0,0,0,0,0,0,0,0,0,0,0,0,0,0,0,0,0,0,0,0,0,0,0,0,0,0,0,0,0,0],"sum_hessian":[4.753826E3,3.353835E2,4.418443E3,1.8965658E1,3.1641788E2,5.609711E2,3.8574717E3,1.327478E1,5.690878E0,3.1074612E2,5.671745E0,1.06778206E2,4.5419293E2,3.730492E3,1.26979614E2,1.1757393E1,1.517388E0,3.0546378E2,5.282349E0,1.1028297E0,1.0567538E2,4.5116626E2,3.0266695E0,2.5067233E2,3.4798198E3,1.8682654E0,1.2511135E2,6.4465346E0,5.310858E0,2.9862067E2,6.843109E0,1.5210315E0,1.0415434E2,3.8364563E0,4.473298E2,3.0212948E0,2.4765103E2,9.432329E1,3.3854963E3,1.22106255E2,3.0050988E0],"tree_param":{"num_deleted":"0","num_feature":"5000","num_nodes":"41","size_leaf_vector":"1"}},{"base_weights":[3.3889377E-1,-2.2993438E-1,3.7876856E-1,-1.1312708E-1,-6.426304E-2,-1.2706044E-1,4.2555246E-1,-1.2825881E-1,1.0916301E-1,9.246665E-1,-1.3987716E-1,6.267914E-2,4.8761252E-1,-1.4330348E-1,1.0276301E-1,1.3543108E-1,-5.756181E-4,-1.5120508E-1,9.45016E-1,-1.124066E-1,5.624784E-1,-5.569954E-1,5.073228E-1,9.1405794E-2,-1.5824756E-2,1.0728363E-1,-1.6132208E-2,1.1636019E-1,3.609411E-2,1.2238657E-1,-1.20942695E-2,7.5056874E-3,6.2068697E-2,-6.296784E-2,6.056978E-2,5.3348828E-2,-1.5668994E-2],"categories":[],"categories_nodes":[],"categories_segments":[],"categories_sizes":[],"default_left":[0,0,0,1,0,0,0,1,0,1,1,1,0,0,0,0,0,0,0,0,0,1,1,0,0,0,0,0,0,0,0,0,0,0,0,0,0],"id":6,"left_children":[1,3,5,7,-1,9,11,13,-1,15,17,19,21,23,-1,-1,-1,25,27,29,31,33,35,-1,-1,-1,-1,-1,-1,-1,-1,-1,-1,-1,-1,-1,-1],"loss_changes":[1.1114197E2,1.5418789E1,1.0833942E2,4.728207E0,0E0,5.3615723E0,9.4298035E1,4.485292E0,0E0,1.9284625E0,4.866426E0,5.3695698E1,7.39267E1,4.0495925E0,0E0,0E0,0E0,4.89423E0,1.04693174E-1,5.3348036E0,4.4693604E0,6.0194016E0,6.1085693E1,0E0,0E0,0E0,0E0,0E0,0E0,0E0,0E0,0E0,0E0,0E0,0E0,0E0,0E0],"parents":[2147483647,0,0,1,1,2,2,3,3,5,5,6,6,7,7,9,9,10,10,11,11,12,12,13,13,17,17,18,18,19,19,20,20,21,21,22,22],"right_children":[2,4,6,8,-1,10,12,14,-1,16,18,20,22,24,-1,-1,-1,26,28,30,32,34,36,-1,-1,-1,-1,-1,-1,-1,-1,-1,-1,-1,-1,-1,-1],"split_conditions":[4.5329267E-1,1.5006462E-1,5.1160175E-1,2.052246E-1,-6.426304E-2,2.511484E-1,2.229698E-1,2.0350176E-1,1.0916301E-1,1.01702616E-1,2.1277869E-1,1.531286E-1,1.712816E-1,2.6498008E-1,1.0276301E-1,1.3543108E-1,-5.756181E-4,1.5665768E-1,1.0228634E-1,1.5814449E-1,1.4650145E-1,1.1471414E-1,1.1032339E-1,9.1405794E-2,-1.5824756E-2,1.0728363E-1,-1.6132208E-2,1.1636019E-1,3.609411E-2,1.2238657E-1,-1.20942695E-2,7.5056874E-3,6.2068697E-2,-6.296784E-2,6.056978E-2,5.3348828E-2,-1.5668994E-2],"split_indices":[2583,1509,104,4204,0,4917,869,688,0,3068,1363,168,2695,901,0,0,0,3030,3068,2151,705,705,2808,0,0,0,0,0,0,0,0,0,0,0,0,0,0],"split_type":[0,0,0,0,0,0,0,0,0,0,0,0,0,0,0,0,0,0,0,0,0,0,0,0,0,0,0,0,0,0,0,0,0,0,0,0,0],"sum_hessian":[4.895188E3,3.203608E2,4.574827E3,2.5068297E2,6.967786E1,3.8715686E2,4.1876704E3,2.484559E2,2.2270622E0,3.8046622E0,3.833522E2,6.118884E2,3.5757817E3,2.461284E2,2.3275032E0,2.291105E0,1.5135573E0,3.802425E2,3.109683E0,4.5371994E2,1.581685E2,6.5715645E1,3.5100662E3,2.5916543E0,2.4353674E2,2.2559404E0,3.7798657E2,1.5408266E0,1.5688566E0,1.9762435E0,4.517437E2,1.7117863E1,1.4105063E2,6.2280743E1,3.4348998E0,3.3771843E3,1.3288177E2],"tree_param":{"num_deleted":"0","num_feature":"5000","num_nodes":"37","size_leaf_vector":"1"}},{"base_weights":[3.1299707E-1,-6.425975E-2,3.2926264E-1,-5.8574194E-1,3.446845E-1,5.733257E-2,-6.215703E-1,3.546394E-1,-6.364802E-2,-6.46383E-2,2.509217E-2,-6.344765E-2,3.634119E-1,-2.2002142E-2,3.665482E-2],"categories":[],"categories_nodes":[],"categories_segments":[],"categories_sizes":[],"default_left":[0,0,0,0,1,0,0,0,0,0,0,0,0,0,0],"id":7,"left_children":[1,-1,3,5,7,-1,9,11,-1,-1,-1,-1,13,-1,-1],"loss_changes":[7.676547E1,0E0,6.854816E1,3.7055855E0,4.6755615E1,0E0,1.8662262E0,4.1156494E1,0E0,0E0,0E0,0E0,8.636353E0,0E0,0E0],"parents":[2147483647,0,0,2,2,3,3,4,4,6,6,7,7,12,12],"right_children":[2,-1,4,6,8,-1,10,12,-1,-1,-1,-1,14,-1,-1],"split_conditions":[3.3884782E-1,-6.425975E-2,1.6588981E-1,1.098524E-1,1.8880454E-1,5.733257E-2,1.2178166E-1,4.3087113E-1,-6.364802E-2,-6.46383E-2,2.509217E-2,-6.344765E-2,2.2596008E-1,-2.2002142E-2,3.665482E-2],"split_indices":[1011,0,2695,4660,4518,0,2807,759,0,0,0,0,813,0,0],"split_type":[0,0,0,0,0,0,0,0,0,0,0,0,0,0,0],"sum_hessian":[4.9242144E3,8.1769745E1,4.842445E3,7.965086E1,4.762794E3,1.9384614E0,7.77124E1,4.715588E3,4.7205845E1,7.581545E1,1.896956E0,4.082801E1,4.6747603E3,2.4625149E1,4.650135E3],"tree_param":{"num_deleted":"0","num_feature":"5000","num_nodes":"15","size_leaf_vector":"1"}},{"base_weights":[-4.6526912E-1,-4.9448237E-1,9.3089265E-1,8.628594E-1,-5.244725E-1,-3.9051205E-2,9.564015E-1,-4.4921722E-2,8.945283E-1,9.383896E-1,-5.4282457E-1,-4.054327E-2,9.803004E-1,-4.5268495E-2,9.242454E-1,3.6792246E-1,1.029833E0,8.147692E-1,-5.576923E-1,-3.9234415E-2,1.004005E0,9.525102E-2,-4.245737E-2,6.213809E-2,-4.527397E-2,1.0730945E-1,-7.0145424E-3,-4.1116495E-2,8.6605005E-2,-5.7383038E-2,-2.6655992E-2,1.0380965E-1,1.20141E-2],"categories":[],"categories_nodes":[],"categories_segments":[],"categories_sizes":[],"default_left":[1,0,0,0,0,0,0,0,0,0,0,0,0,0,1,0,1,0,1,0,1,0,0,0,0,0,0,0,0,0,0,0,0],"id":8,"left_children":[1,3,5,7,9,-1,11,-1,13,15,17,-1,19,-1,21,23,25,27,29,-1,31,-1,-1,-1,-1,-1,-1,-1,-1,-1,-1,-1,-1],"loss_changes":[1.8362915E2,1.795437E2,3.4876938E0,4.369362E0,1.1608569E2,0E0,3.3568573E0,0E0,4.1643753E0,2.4226875E0,8.628516E1,0E0,3.311058E0,0E0,3.9071198E0,2.148227E0,2.2514381E0,3.2776146E0,1.9612427E1,0E0,2.5393448E0,0E0,0E0,0E0,0E0,0E0,0E0,0E0,0E0,0E0,0E0,0E0,0E0],"parents":[2147483647,0,0,1,1,2,2,3,3,4,4,6,6,8,8,9,9,10,10,12,12,14,14,15,15,16,16,17,17,18,18,20,20],"right_children":[2,4,6,8,10,-1,12,-1,14,16,18,-1,20,-1,22,24,26,28,30,-1,32,-1,-1,-1,-1,-1,-1,-1,-1,-1,-1,-1,-1],"split_conditions":[1.4093484E-1,1.6511591E-1,1.6324773E-1,1.1655585E-1,4.6457142E-1,-3.9051205E-2,1.851967E-1,-4.4921722E-2,1.9652906E-1,2.2113687E-1,4.3087113E-1,-4.054327E-2,1.2088564E-1,-4.5268495E-2,1.2692574E-1,1.0584618E-1,2.2048803E-1,2.1951981E-1,1.1985315E-1,-3.9234415E-2,1.792322E-1,9.525102E-2,-4.245737E-2,6.213809E-2,-4.527397E-2,1.0730945E-1,-7.0145424E-3,-4.1116495E-2,8.6605005E-2,-5.7383038E-2,-2.6655992E-2,1.0380965E-1,1.20141E-2],"split_indices":[1011,2695,332,2726,211,0,4916,0,2785,526,759,0,4553,0,4451,162,2709,2310,454,0,4657,0,0,0,0,0,0,0,0,0,0,0,0],"split_type":[0,0,0,0,0,0,0,0,0,0,0,0,0,0,0,0,0,0,0,0,0,0,0,0,0,0,0,0,0,0,0,0,0],"sum_hessian":[4.4899287E3,4.3985396E3,9.138905E1,9.448331E1,4.3040566E3,1.459803E0,8.992925E1,1.9160128E0,9.256729E1,5.270578E1,4.2513506E3,1.2756251E0,8.8653625E1,1.690619E0,9.087668E1,7.975335E0,4.4730446E1,4.547155E1,4.205879E3,1.240989E0,8.7412636E1,8.929922E1,1.5774581E0,6.2789383E0,1.6963971E0,4.3061306E1,1.6691382E0,1.5439342E0,4.3927616E1,3.984063E3,2.2181601E2,8.399825E1,3.4143844E0],"tree_param":{"num_deleted":"0","num_feature":"5000","num_nodes":"33","size_leaf_vector":"1"}},{"base_weights":[-1.9442281E-1,-2.2241385E-1,1.7816186E-1,5.899079E-2,-2.5180608E-1,-2.824492E-1,2.0767954E-1,1.1163192E0,4.6241846E-2,-2.6519826E-1,2.9730058E-1,5.2841872E-2,-3.7220258E-1,1.3437662E-1,1.9464932E-1,1.3327225E-1,3.8842365E-2,1.1514526E-1,3.4666978E-2,-6.1994907E-2,-3.0201977E-1,5.0823075E-1,1.8071137E-1,-2.0255192E-1,3.9996017E-2,-5.0342645E-2,-1.1091119E-1,7.152851E-1,1.7263424E-1,1.1455965E-1,2.4393788E-3,-3.346523E-2,3.3933471E-3,-3.11036E-2,5.767077E-2,3.8024392E-2,1.4234528E-1,-2.1674145E-2,2.557288E-2,1.1724314E-2,-3.9504793E-2,4.5017015E-2,-5.0949384E-2,6.09246E-3,8.9399435E-2,1.6115693E-2,1.2491985E-1],"categories":[],"categories_nodes":[],"categories_segments":[],"categories_sizes":[],"default_left":[1,0,0,0,1,0,0,0,0,0,0,0,0,0,0,0,0,0,0,0,1,0,0,0,0,0,0,0,1,0,0,0,0,0,0,0,0,0,0,0,0,0,0,0,0,0,0],"id":9,"left_children":[1,3,5,7,9,11,13,15,17,19,21,23,25,-1,27,-1,-1,-1,29,31,33,35,37,39,-1,-1,41,43,45,-1,-1,-1,-1,-1,-1,-1,-1,-1,-1,-1,-1,-1,-1,-1,-1,-1,-1],"loss_changes":[4.8541443E1,3.579666E1,4.484606E0,5.474218E0,2.8884842E1,6.2239575E-1,4.2757015E0,2.4485064E-1,5.155098E0,2.8596832E1,2.2132645E0,5.335756E-1,4.9014592E-1,0E0,3.3631487E0,0E0,0E0,0E0,4.5704417E0,1.53897E1,2.5829437E1,3.3025856E0,1.9015741E0,2.6823002E-1,0E0,0E0,1.7067187E0,1.3514934E0,3.4211311E0,0E0,0E0,0E0,0E0,0E0,0E0,0E0,0E0,0E0,0E0,0E0,0E0,0E0,0E0,0E0,0E0,0E0,0E0],"parents":[2147483647,0,0,1,1,2,2,3,3,4,4,5,5,6,6,7,7,8,8,9,9,10,10,11,11,12,12,14,14,18,18,19,19,20,20,21,21,22,22,23,23,26,26,27,27,28,28],"right_children":[2,4,6,8,10,12,14,16,18,20,22,24,26,-1,28,-1,-1,-1,30,32,34,36,38,40,-1,-1,42,44,46,-1,-1,-1,-1,-1,-1,-1,-1,-1,-1,-1,-1,-1,-1,-1,-1,-1,-1],"split_conditions":[1.0670243E-1,5.1160175E-1,1.4439817E-1,2.2493552E-1,1.4655706E-1,1.2666878E-1,1.4050104E-1,1.2175466E-1,2.2823028E-1,2.229698E-1,1.5313552E-1,1.2797327E-1,1.3903189E-1,1.3437662E-1,1.1814696E-1,1.3327225E-1,3.8842365E-2,1.1514526E-1,2.5097504E-1,1.9382153E-1,1.8480583E-1,1.4748496E-1,1.5015043E-1,1.2377978E-1,3.9996017E-2,-5.0342645E-2,1.4224865E-1,1.082288E-1,1.9916968E-1,1.1455965E-1,2.4393788E-3,-3.346523E-2,3.3933471E-3,-3.11036E-2,5.767077E-2,3.8024392E-2,1.4234528E-1,-2.1674145E-2,2.557288E-2,1.1724314E-2,-3.9504793E-2,4.5017015E-2,-5.0949384E-2,6.09246E-3,8.9399435E-2,1.6115693E-2,1.2491985E-1],"split_indices":[2583,104,491,3432,491,3081,4553,104,2739,869,3085,491,491,0,659,0,0,0,3940,168,760,4553,3081,491,0,0,491,2583,3570,0,0,0,0,0,0,0,0,0,0,0,0,0,0,0,0,0,0],"split_type":[0,0,0,0,0,0,0,0,0,0,0,0,0,0,0,0,0,0,0,0,0,0,0,0,0,0,0,0,0,0,0,0,0,0,0,0,0,0,0,0,0,0,0,0,0,0,0],"sum_hessian":[4.649652E3,4.3251226E3,3.2452902E2,4.08934E2,3.9161887E3,1.9028498E1,3.0550055E2,3.840758E0,4.0509323E2,3.8234553E3,9.273338E1,4.1049447E0,1.4923553E1,2.3061204E0,3.0319443E2,2.3200748E0,1.5206833E0,3.177891E0,4.019153E2,5.8695654E2,3.2364988E3,3.1815128E1,6.0918255E1,2.6048737E0,1.5000712E0,9.3175E0,5.6060534E0,1.1022893E1,2.921715E2,2.6700156E0,3.992453E2,1.5211404E2,4.348425E2,3.204267E3,3.223149E1,2.9153675E1,2.6614528E0,9.372454E0,5.15458E1,1.1256893E0,1.4791843E0,2.274638E0,3.3314154E0,2.652271E0,8.370623E0,2.9022708E2,1.9444335E0],"tree_param":{"num_deleted":"0","num_feature":"5000","num_nodes":"47","size_leaf_vector":"1"}},{"base_weights":[2.994562E-1,-1.3846312E-1,3.3934683E-1,1.0835828E-1,-1.4766343E-1,-6.506103E-2,3.5813892E-1,1.21999376E-1,-1.5549617E-1,-2.3072177E-1,3.86243E-1,-1.63383E-1,1.2190789E-1,9.2703156E-2,-2.4620864E-1,-5.427767E-1,4.0453663E-1,8.764441E-2,-1.7399319E-2,-2.5871757E-2,1.0610793E-1,-5.9942342E-2,6.7267135E-2,-1.7036052E-2,4.3327782E-2],"categories":[],"categories_nodes":[],"categories_segments":[],"categories_sizes":[],"default_left":[0,0,0,0,0,0,0,0,1,0,0,0,0,0,1,1,0,0,0,0,0,0,0,0,0],"id":10,"left_children":[1,3,5,-1,7,-1,9,-1,11,13,15,17,-1,-1,19,21,23,-1,-1,-1,-1,-1,-1,-1,-1],"loss_changes":[8.724289E1,4.853278E0,8.534473E1,0E0,4.6374626E0,0E0,7.440381E1,0E0,4.6842937E0,3.9070644E0,7.306604E1,4.700614E0,0E0,0E0,3.5983686E0,6.131653E0,6.9539185E1,0E0,0E0,0E0,0E0,0E0,0E0,0E0,0E0],"parents":[2147483647,0,0,1,1,2,2,4,4,6,6,8,8,9,9,10,10,11,11,14,14,15,15,16,16],"right_children":[2,4,6,-1,8,-1,10,-1,12,14,16,18,-1,-1,20,22,24,-1,-1,-1,-1,-1,-1,-1,-1],"split_conditions":[2.3827569E-1,1.9895218E-1,3.3884782E-1,1.0835828E-1,2.2632425E-1,-6.506103E-2,1.7418131E-1,1.21999376E-1,2.2090293E-1,2.3407707E-1,1.712816E-1,2.4461651E-1,1.2190789E-1,9.2703156E-2,2.2204481E-1,1.1471414E-1,1.6834784E-1,8.764441E-2,-1.7399319E-2,-2.5871757E-2,1.0610793E-1,-5.9942342E-2,6.7267135E-2,-1.7036052E-2,4.3327782E-2],"split_indices":[104,556,1011,0,2160,0,2288,0,4941,585,2695,2090,0,0,4594,705,2586,0,0,0,0,0,0,0,0],"split_type":[0,0,0,0,0,0,0,0,0,0,0,0,0,0,0,0,0,0,0,0,0,0,0,0,0],"sum_hessian":[4.9905E3,4.164325E2,4.5740674E3,2.2391315E0,4.1419336E2,8.458442E1,4.489483E3,1.4773692E0,4.12716E2,2.0417719E2,4.2853057E3,4.1123758E2,1.4784002E0,1.9182096E0,2.0225897E2,8.22003E1,4.2031055E3,3.3295417E0,4.0790805E2,2.0113647E2,1.1225014E0,7.902416E1,3.176141E0,1.9988884E2,4.0032166E3],"tree_param":{"num_deleted":"0","num_feature":"5000","num_nodes":"25","size_leaf_vector":"1"}},{"base_weights":[2.91563E-1,-6.2788166E-2,3.053888E-1,3.1445774E-1,-6.243064E-2,-6.0488844E-1,3.2198232E-1,1.17022805E-2,-6.2891744E-2,-6.194524E-2,3.2946175E-1,-5.129967E-2,3.3773497E-2],"categories":[],"categories_nodes":[],"categories_segments":[],"categories_sizes":[],"default_left":[0,0,1,0,0,0,0,0,0,0,0,0,0],"id":11,"left_children":[1,-1,3,5,-1,7,9,-1,-1,-1,11,-1,-1],"loss_changes":[6.3438873E1,0E0,4.152954E1,3.3784454E1,0E0,7.634201E-1,3.412149E1,0E0,0E0,0E0,3.3486023E1,0E0,0E0],"parents":[2147483647,0,0,2,2,3,3,5,5,6,6,10,10],"right_children":[2,-1,4,6,-1,8,10,-1,-1,-1,12,-1,-1],"split_conditions":[3.3884782E-1,-6.2788166E-2,1.8792753E-1,1.7659082E-1,-6.243064E-2,9.7885706E-2,4.3087113E-1,1.17022805E-2,-6.2891744E-2,-6.194524E-2,1.8915714E-1,-5.129967E-2,3.3773497E-2],"split_indices":[1011,0,4518,4098,0,1082,557,0,0,0,3900,0,0],"split_type":[0,0,0,0,0,0,0,0,0,0,0,0,0],"sum_hessian":[4.9743584E3,7.303401E1,4.901324E3,4.8546304E3,4.6693954E1,3.876657E1,4.815864E3,1.1241211E0,3.764245E1,3.7314194E1,4.77855E3,4.5877243E1,4.7326724E3],"tree_param":{"num_deleted":"0","num_feature":"5000","num_nodes":"13","size_leaf_vector":"1"}},{"base_weights":[-4.5126367E-1,-4.8158002E-1,8.948231E-1,6.531789E-1,-5.089239E-1,9.1758114E-1,-4.207877E-2,-3.8913175E-1,7.131315E-1,7.151835E-1,-5.2716976E-1,-3.8625594E-2,9.389009E-1,9.6095E-3,-5.2291837E-2,7.413303E-1,-4.8436075E-2,-3.995637E-2,7.453909E-1,6.973896E-1,-5.4156053E-1,-3.4664612E-2,9.5810574E-1,-4.6252344E-2,7.691506E-2,-3.983808E-2,7.766067E-2,7.86657E-2,8.7263033E-4,-4.795615E-2,-6.288922E-2,1.949428E-2,9.907036E-2],"categories":[],"categories_nodes":[],"categories_segments":[],"categories_sizes":[],"default_left":[1,0,1,0,0,0,0,0,1,0,0,0,0,0,0,0,0,0,0,1,0,0,0,0,0,0,0,0,0,0,0,0,0],"id":12,"left_children":[1,3,5,7,9,11,-1,13,15,17,19,-1,21,-1,-1,23,-1,-1,25,27,29,-1,31,-1,-1,-1,-1,-1,-1,-1,-1,-1,-1],"loss_changes":[1.7690045E2,1.3157562E2,3.2483673E0,6.5240707E0,9.263782E1,2.983551E0,0E0,4.4520128E-1,3.5629082E0,2.3549938E0,7.211255E1,0E0,2.6296616E0,0E0,0E0,3.473503E0,0E0,0E0,2.4454918E0,2.9266815E0,2.1486206E1,0E0,2.094513E0,0E0,0E0,0E0,0E0,0E0,0E0,0E0,0E0,0E0,0E0],"parents":[2147483647,0,0,1,1,2,2,3,3,4,4,5,5,7,7,8,8,9,9,10,10,12,12,15,15,18,18,19,19,20,20,22,22],"right_children":[2,4,6,8,10,12,-1,14,16,18,20,-1,22,-1,-1,24,-1,-1,26,28,30,-1,32,-1,-1,-1,-1,-1,-1,-1,-1,-1,-1],"split_conditions":[1.4093484E-1,1.672213E-1,1.8636277E-1,5.5339523E-2,4.6457142E-1,1.2088564E-1,-4.207877E-2,1.15429714E-1,1.987011E-1,2.4015285E-1,4.3087113E-1,-3.8625594E-2,1.6171591E-1,9.6095E-3,-5.2291837E-2,2.0163111E-1,-4.8436075E-2,-3.995637E-2,2.2346793E-1,1.9630526E-1,3.6973006E-1,-3.4664612E-2,1.15276024E-1,-4.6252344E-2,7.691506E-2,-3.983808E-2,7.766067E-2,7.86657E-2,8.7263033E-4,-4.795615E-2,-6.288922E-2,1.949428E-2,9.907036E-2],"split_indices":[1011,2695,2011,4457,212,4553,0,1509,2366,341,557,0,332,0,0,4079,0,0,4709,4288,4457,0,4381,0,0,0,0,0,0,0,0,0,0],"split_type":[0,0,0,0,0,0,0,0,0,0,0,0,0,0,0,0,0,0,0,0,0,0,0,0,0,0,0,0,0,0,0,0,0],"sum_hessian":[4.3233364E3,4.2287393E3,9.45968E1,9.8962234E1,4.1297773E3,9.328564E1,1.3111601E0,5.0839643E0,9.387827E1,6.0091206E1,4.069686E3,1.2254286E0,9.206021E1,1.1596807E0,3.9242837E0,9.209063E1,1.7876402E0,1.2627945E0,5.882841E1,4.671921E1,4.0229668E3,1.1040918E0,9.095612E1,1.7271521E0,9.036348E1,1.2504106E0,5.7578E1,4.1232224E1,5.4869876E0,2.3565107E3,1.666456E3,4.0119E0,8.694422E1],"tree_param":{"num_deleted":"0","num_feature":"5000","num_nodes":"33","size_leaf_vector":"1"}},{"base_weights":[-1.7577139E-1,-2.846126E-1,-9.106968E-2,3.0822724E-1,-3.0887255E-1,-4.830139E-2,-3.6284068E-1,4.3823382E-1,-1.2355094E-2,-3.1812224E-1,4.1153964E-1,-4.2496452E-1,-1.4526685E-2,-3.7053075E-1,1.13835596E-1,-4.4733327E-2,4.8139083E-1,-2.8962138E-1,2.5690466E-1,2.3369247E-1,-3.302151E-1,5.225914E-1,-2.6053217E-1,-4.3966433E-1,8.789467E-2,2.2144698E-2,-3.37944E-1,1.13835596E-1,-3.782666E-1,-1.2976602E-2,5.577705E-2,-3.881271E-2,2.0159713E-3,4.1387152E-2,-4.3071095E-2,1.4827517E-2,9.822838E-2,1.57053E-2,-3.4214176E-2,-3.8050678E-2,6.0394168E-2,-4.4481818E-2,1.4492399E-2,6.491476E-2,-4.4946473E-2,5.061536E-3,-4.05844E-2,1.13835596E-1,-3.5077184E-2,1.13835596E-1,-3.8604867E-2],"categories":[],"categories_nodes":[],"categories_segments":[],"categories_sizes":[],"default_left":[1,0,1,1,1,0,1,0,0,0,0,1,1,0,0,0,0,0,1,1,0,0,0,0,0,1,0,0,0,0,0,0,0,0,0,0,0,0,0,0,0,0,0,0,0,0,0,0,0,0,0],"id":13,"left_children":[1,3,5,7,9,11,13,15,17,19,21,23,25,27,-1,-1,29,31,33,35,37,39,41,43,-1,45,47,-1,49,-1,-1,-1,-1,-1,-1,-1,-1,-1,-1,-1,-1,-1,-1,-1,-1,-1,-1,-1,-1,-1,-1],"loss_changes":[4.251581E1,2.9133469E1,3.01623E1,3.334406E0,1.3059341E1,2.8549194E1,4.495762E0,2.3882904E0,1.8675407E0,1.2863525E1,2.0043154E0,3.9261208E0,2.4450657E1,4.5376244E0,0E0,0E0,2.6255684E0,3.8326395E-1,1.550634E0,2.5192537E0,1.0952835E1,1.8324118E0,3.795459E-1,2.247528E0,0E0,2.2587385E1,4.37525E0,0E0,4.5798607E0,0E0,0E0,0E0,0E0,0E0,0E0,0E0,0E0,0E0,0E0,0E0,0E0,0E0,0E0,0E0,0E0,0E0,0E0,0E0,0E0,0E0,0E0],"parents":[2147483647,0,0,1,1,2,2,3,3,4,4,5,5,6,6,7,7,8,8,9,9,10,10,11,11,12,12,13,13,16,16,17,17,18,18,19,19,20,20,21,21,22,22,23,23,25,25,26,26,28,28],"right_children":[2,4,6,8,10,12,14,16,18,20,22,24,26,28,-1,-1,30,32,34,36,38,40,42,44,-1,46,48,-1,50,-1,-1,-1,-1,-1,-1,-1,-1,-1,-1,-1,-1,-1,-1,-1,-1,-1,-1,-1,-1,-1,-1],"split_conditions":[4.7530055E-2,3.816054E-1,1.0393045E-1,1.5587763E-1,1.8743888E-1,1.7198507E-1,2.1189371E-1,2.1576726E-1,1.7675072E-1,2.258049E-1,1.9832999E-1,2.3730032E-1,1.2646246E-1,2.043093E-1,1.13835596E-1,-4.4733327E-2,2.0220137E-1,3.031153E-1,8.4898256E-2,2.1501893E-1,7.9119585E-2,1.7113584E-1,2.0241705E-1,3.3928108E-1,8.789467E-2,1.3740319E-1,2.1784408E-1,1.13835596E-1,7.3139954E-1,-1.2976602E-2,5.577705E-2,-3.881271E-2,2.0159713E-3,4.1387152E-2,-4.3071095E-2,1.4827517E-2,9.822838E-2,1.57053E-2,-3.4214176E-2,-3.8050678E-2,6.0394168E-2,-4.4481818E-2,1.4492399E-2,6.491476E-2,-4.4946473E-2,5.061536E-3,-4.05844E-2,1.13835596E-1,-3.5077184E-2,1.13835596E-1,-3.8604867E-2],"split_indices":[4457,3505,1174,407,215,4452,155,1904,408,211,215,4684,3915,3371,0,0,3338,407,162,2059,2321,407,215,153,0,77,1152,0,3702,0,0,0,0,0,0,0,0,0,0,0,0,0,0,0,0,0,0,0,0,0,0],"split_type":[0,0,0,0,0,0,0,0,0,0,0,0,0,0,0,0,0,0,0,0,0,0,0,0,0,0,0,0,0,0,0,0,0,0,0,0,0,0,0,0,0,0,0,0,0,0,0,0,0,0,0],"sum_hessian":[4.613552E3,2.018032E3,2.5955198E3,7.887445E1,1.9391575E3,2.2436213E3,3.518984E2,5.585602E1,2.301843E1,1.9151267E3,2.4030735E1,1.8367326E2,2.059948E3,3.5085428E2,1.0441191E0,2.1603851E0,5.3695637E1,1.130335E1,1.171508E1,4.067645E1,1.8744503E3,2.0813906E1,3.21683E0,1.8228111E2,1.3921587E0,1.8509999E3,2.0894817E2,1.0441191E0,3.4981018E2,5.887495E0,4.7808144E1,8.384347E0,2.9190035E0,9.861934E0,1.8531466E0,3.7585827E1,3.0906227E0,4.4493183E1,1.8299572E3,1.4160821E0,1.9397823E1,2.1448722E0,1.0719578E0,1.0441191E0,1.8123698E2,1.7363745E3,1.1462535E2,1.0441191E0,2.0790404E2,1.0441191E0,3.4876605E2],"tree_param":{"num_deleted":"0","num_feature":"5000","num_nodes":"51","size_leaf_vector":"1"}},{"base_weights":[2.6986173E-1,-3.0229263E-2,3.2745025E-1,-1.6537942E-1,4.4920745E-1,-6.372128E-2,3.4447098E-1,8.0760497E-1,-1.7596734E-1,-5.1839985E-2,4.6761164E-1,3.828828E-1,-1.1487217E-1,-3.6084715E-2,1.0943528E-1,7.115334E-1,-1.8555757E-1,2.739053E-2,5.125253E-1,-5.3948843E-1,4.0180364E-1,1.09072044E-1,-1.2655559E-1,-5.77173E-3,1.4417975E-1,-1.9354818E-2,8.248284E-2,2.7868286E-2,-4.336498E-2,5.8146775E-2,1.8876432E-2,5.8737636E-2,-5.9947032E-2,4.272973E-2,-2.7580027E-2,-1.3655089E-2,1.2274342E-1],"categories":[],"categories_nodes":[],"categories_segments":[],"categories_sizes":[],"default_left":[0,0,0,0,0,0,1,0,0,0,0,0,0,0,0,0,1,0,1,0,1,0,1,0,0,0,0,0,0,0,0,0,0,0,0,0,0],"id":14,"left_children":[1,3,5,7,9,-1,11,13,15,-1,17,19,21,-1,-1,23,25,27,29,31,33,-1,35,-1,-1,-1,-1,-1,-1,-1,-1,-1,-1,-1,-1,-1,-1],"loss_changes":[8.8198975E1,5.3370853E1,7.051822E1,6.759865E0,3.4682732E0,0E0,7.428888E1,2.771748E0,5.547701E0,0E0,3.5111275E0,6.798999E1,4.722746E0,0E0,0E0,4.020569E0,5.2482643E0,2.1555843E0,3.500164E0,5.657154E0,6.5863464E1,0E0,4.5425196E0,0E0,0E0,0E0,0E0,0E0,0E0,0E0,0E0,0E0,0E0,0E0,0E0,0E0,0E0],"parents":[2147483647,0,0,1,1,2,2,3,3,4,4,6,6,7,7,8,8,10,10,11,11,12,12,15,15,16,16,17,17,18,18,19,19,20,20,22,22],"right_children":[2,4,6,8,10,-1,12,14,16,-1,18,20,22,-1,-1,24,26,28,30,32,34,-1,36,-1,-1,-1,-1,-1,-1,-1,-1,-1,-1,-1,-1,-1,-1],"split_conditions":[2.229698E-1,3.6973006E-1,3.3884782E-1,1.4089933E-1,2.4110799E-1,-6.372128E-2,1.03376225E-1,1.7720467E-1,2.2137989E-1,-5.1839985E-2,1.324654E-1,1.712816E-1,2.5093067E-1,-3.6084715E-2,1.0943528E-1,1.04743496E-1,1.9804686E-1,1.395096E-1,1.3037191E-1,5.512144E-2,1.1229231E-1,1.09072044E-1,2.1774362E-1,-5.77173E-3,1.4417975E-1,-1.9354818E-2,8.248284E-2,2.7868286E-2,-4.336498E-2,5.8146775E-2,1.8876432E-2,5.8737636E-2,-5.9947032E-2,4.272973E-2,-2.7580027E-2,-1.3655089E-2,1.2274342E-1],"split_indices":[869,4457,1011,1174,754,0,104,424,2886,0,1174,2695,3399,0,0,2941,1753,440,77,4457,2808,0,3387,0,0,0,0,0,0,0,0,0,0,0,0,0,0],"split_type":[0,0,0,0,0,0,0,0,0,0,0,0,0,0,0,0,0,0,0,0,0,0,0,0,0,0,0,0,0,0,0,0,0,0,0,0,0],"sum_hessian":[5.1020044E3,8.215293E2,4.280475E3,6.413827E2,1.8014662E2,7.358442E1,4.2068906E3,6.094003E0,6.3528864E2,2.8553994E0,1.7729123E2,3.882398E3,3.2449286E2,1.1499059E0,4.944097E0,6.0090075E0,6.2927966E2,1.6562626E1,1.6072859E2,7.748678E1,3.8049111E3,2.2280464E0,3.222648E2,3.3748972E0,2.6341102E0,6.2514417E2,4.1354866E0,1.0975765E1,5.586861E0,1.3185509E2,2.8873505E1,3.4717307E0,7.401505E1,3.6673047E3,1.3760654E2,3.207958E2,1.4689988E0],"tree_param":{"num_deleted":"0","num_feature":"5000","num_nodes":"37","size_leaf_vector":"1"}},{"base_weights":[2.6954073E-1,-6.1753064E-2,2.8229874E-1,-5.8539015E-1,2.947931E-1,-6.1197895E-1,5.2336928E-2,3.0269048E-1,-6.0980607E-2,1.6315635E-2,-6.259256E-2,-6.0245294E-2,3.09045E-1,5.5061698E-2,3.0159254E-2],"categories":[],"categories_nodes":[],"categories_segments":[],"categories_sizes":[],"default_left":[0,0,0,1,1,0,0,0,0,0,0,0,0,0,0],"id":15,"left_children":[1,-1,3,5,7,9,-1,11,-1,-1,-1,-1,13,-1,-1],"loss_changes":[5.764795E1,0E0,5.4455414E1,2.425539E0,3.5451935E1,8.6101913E-1,0E0,2.8338745E1,0E0,0E0,0E0,0E0,8.58548E0,0E0,0E0],"parents":[2147483647,0,0,2,2,3,3,4,4,5,5,7,7,12,12],"right_children":[2,-1,4,6,8,10,-1,12,-1,-1,-1,-1,14,-1,-1],"split_conditions":[3.3884782E-1,-6.1753064E-2,1.6323565E-1,1.09497614E-1,1.8792753E-1,2.0060387E-1,5.2336928E-2,2.1462794E-1,-6.0980607E-2,1.6315635E-2,-6.259256E-2,-6.0245294E-2,1.5155497E-1,5.5061698E-2,3.0159254E-2],"split_indices":[1011,0,2695,1509,4518,4706,0,557,0,0,0,0,2289,0,0],"split_type":[0,0,0,0,0,0,0,0,0,0,0,0,0,0,0],"sum_hessian":[5.0773965E3,7.131655E1,5.0060796E3,7.041137E1,4.9356685E3,6.919996E1,1.2114102E0,4.8936113E3,4.2057037E1,1.0339793E0,6.8165985E1,3.3461838E1,4.8601494E3,1.4326678E2,4.716883E3],"tree_param":{"num_deleted":"0","num_feature":"5000","num_nodes":"15","size_leaf_vector":"1"}},{"base_weights":[-4.40501E-1,7.243349E-1,-4.7049484E-1,7.707628E-1,1.24840714E-1,6.174791E-1,-4.9884057E-1,-4.396106E-2,7.9234016E-1,3.9453972E-2,-3.0058673E-2,-3.5574064E-1,6.6422963E-1,7.8284574E-1,-5.177071E-1,-3.785214E-2,8.1390095E-1,-2.2586949E-1,4.051607E-2,8.488714E-3,-4.9857732E-2,-4.749089E-2,6.897474E-1,-3.9468218E-2,8.159989E-1,8.2514334E-1,-5.3364044E-1,-4.0093597E-2,8.345758E-2,-4.4345178E-2,-2.7492957E-3,-4.600306E-2,7.153479E-2,8.669142E-2,2.3111986E-2,8.936952E-2,5.3926273E-3,-6.1831634E-2,-4.7426365E-2],"categories":[],"categories_nodes":[],"categories_segments":[],"categories_sizes":[],"default_left":[0,1,0,0,0,0,0,0,0,0,0,0,0,0,0,0,0,0,0,0,0,0,0,0,1,1,1,0,0,0,0,0,0,0,0,0,0,0,0],"id":16,"left_children":[1,3,5,7,9,11,13,-1,15,-1,17,19,21,23,25,-1,27,29,-1,-1,-1,-1,31,-1,33,35,37,-1,-1,-1,-1,-1,-1,-1,-1,-1,-1,-1,-1],"loss_changes":[1.4511554E2,2.8099823E0,1.249104E2,2.874237E0,3.752485E-1,4.924473E0,9.5637695E1,0E0,2.7159042E0,0E0,6.415579E-1,3.805563E-1,3.1956253E0,2.567936E0,8.3495605E1,0E0,2.69487E0,2.0766479E-1,0E0,0E0,0E0,0E0,3.1816711E0,0E0,1.4756203E0,2.3790646E0,1.899768E1,0E0,0E0,0E0,0E0,0E0,0E0,0E0,0E0,0E0,0E0,0E0,0E0],"parents":[2147483647,0,0,1,1,2,2,3,3,4,4,5,5,6,6,8,8,10,10,11,11,12,12,13,13,14,14,16,16,17,17,22,22,24,24,25,25,26,26],"right_children":[2,4,6,8,10,12,14,-1,16,-1,18,20,22,24,26,-1,28,30,-1,-1,-1,-1,32,-1,34,36,38,-1,-1,-1,-1,-1,-1,-1,-1,-1,-1,-1,-1],"split_conditions":[3.3884782E-1,1.7426154E-1,1.6511591E-1,1.8336298E-1,7.4704126E-2,5.456389E-2,4.6457142E-1,-4.396106E-2,1.4679609E-1,3.9453972E-2,1.8448555E-1,9.2260264E-2,1.9652906E-1,2.4015285E-1,2.1381274E-1,-3.785214E-2,1.7699823E-1,1.79589E-1,4.051607E-2,8.488714E-3,-4.9857732E-2,-4.749089E-2,2.0163111E-1,-3.9468218E-2,2.1501893E-1,1.9630526E-1,4.7530055E-2,-4.0093597E-2,8.345758E-2,-4.4345178E-2,-2.7492957E-3,-4.600306E-2,7.153479E-2,8.669142E-2,2.3111986E-2,8.936952E-2,5.3926273E-3,-6.1831634E-2,-4.7426365E-2],"split_indices":[1011,4656,2695,595,4558,4457,211,0,407,0,332,162,2785,341,557,0,2036,332,0,0,0,0,4079,0,2059,4288,4457,0,0,0,0,0,0,0,0,0,0,0,0],"split_type":[0,0,0,0,0,0,0,0,0,0,0,0,0,0,0,0,0,0,0,0,0,0,0,0,0,0,0,0,0,0,0,0,0,0,0,0,0,0,0],"sum_hessian":[4.1427744E3,1.0341504E2,4.0393596E3,9.571657E1,7.698472E0,1.0204019E2,3.9373193E3,1.337129E0,9.437944E1,2.2441165E0,5.4543557E0,4.374091E0,9.76661E1,5.652945E1,3.88079E3,1.407165E0,9.2972275E1,4.0936093E0,1.3607463E0,1.1701316E0,3.2039597E0,1.7540218E0,9.591208E1,1.2493786E0,5.528007E1,4.491133E1,3.8358787E3,1.2480037E0,9.172427E1,1.3631177E0,2.7304916E0,1.7194145E0,9.4192665E1,5.0409573E1,4.8704977E0,4.109929E1,3.8120391E0,1.5772228E3,2.258656E3],"tree_param":{"num_deleted":"0","num_feature":"5000","num_nodes":"39","size_leaf_vector":"1"}},{"base_weights":[-1.7008537E-1,7.5652145E-2,-1.9741702E-1,1.3883169E-1,-1.9872628E-1,-2.1825816E-1,1.3053131E-1,1.23097435E-1,1.2634781E-1,1.1535753E-1,-2.2911805E-1,1.3204637E-1,-2.4158421E-1,1.5095654E-1,-5.5481445E-2,1.0621939E0,1.1451232E-1,-2.571676E-1,7.066063E-2,2.022129E-2,3.7470517E-1,-2.6686257E-1,1.1735606E-1,1.1947425E-1,7.998161E-1,1.3727722E-1,1.00054955E-2,8.673243E-3,5.2486926E-2,6.888642E-2,-2.8616924E-2,6.1743665E-2,-1.1389296E-3,1.1177347E-1,3.189718E-2,-2.9235039E-2,6.338689E-3,1.6790016E-2,-1.7350568E-2,1.03094755E-2,1.0087418E-1,9.520645E-2,-3.2471586E-2],"categories":[],"categories_nodes":[],"categories_segments":[],"categories_sizes":[],"default_left":[0,1,1,0,0,0,1,0,0,0,1,0,1,0,0,1,1,0,0,0,0,1,1,1,1,0,0,0,0,0,0,0,0,0,0,0,0,0,0,0,0,0,0],"id":17,"left_children":[1,3,5,7,9,11,13,-1,15,-1,17,19,21,23,-1,25,27,29,-1,31,33,35,37,39,41,-1,-1,-1,-1,-1,-1,-1,-1,-1,-1,-1,-1,-1,-1,-1,-1,-1,-1],"loss_changes":[3.0210678E1,7.840725E0,2.7682861E1,4.847427E0,3.74823E0,3.1121063E1,3.4768329E0,0E0,3.9091043E0,0E0,2.3796234E0,6.455459E0,3.2401016E1,4.728679E0,0E0,1.1846237E0,4.063895E0,2.4479241E0,0E0,3.1049578E0,2.7525816E0,2.8074615E1,3.489948E0,3.193838E0,2.1500902E0,0E0,0E0,0E0,0E0,0E0,0E0,0E0,0E0,0E0,0E0,0E0,0E0,0E0,0E0,0E0,0E0,0E0,0E0],"parents":[2147483647,0,0,1,1,2,2,3,3,4,4,5,5,6,6,8,8,10,10,11,11,12,12,13,13,15,15,16,16,17,17,19,19,20,20,21,21,22,22,23,23,24,24],"right_children":[2,4,6,8,10,12,14,-1,16,-1,18,20,22,24,-1,26,28,30,-1,32,34,36,38,40,42,-1,-1,-1,-1,-1,-1,-1,-1,-1,-1,-1,-1,-1,-1,-1,-1,-1,-1],"split_conditions":[1.0735694E-1,5.450106E-2,1.2134365E-1,2.1813302E-1,2.1779299E-1,1.6902511E-1,8.0919586E-2,1.23097435E-1,2.1383071E-1,1.1535753E-1,2.0586058E-1,1.3226727E-1,1.2556197E-1,7.3595464E-2,-5.5481445E-2,2.9007396E-1,1.5414314E-1,2.2475004E-1,7.066063E-2,1.4353164E-1,1.5537566E-1,1.2219702E-1,1.15429714E-1,2.0623107E-1,1.3032636E-1,1.3727722E-1,1.00054955E-2,8.673243E-3,5.2486926E-2,6.888642E-2,-2.8616924E-2,6.1743665E-2,-1.1389296E-3,1.1177347E-1,3.189718E-2,-2.9235039E-2,6.338689E-3,1.6790016E-2,-1.7350568E-2,1.03094755E-2,1.0087418E-1,9.520645E-2,-3.2471586E-2],"split_indices":[3068,2807,2307,3114,4362,454,2321,0,4079,0,4659,2330,489,2807,0,31,4057,4079,0,472,2288,34,1509,1448,2195,0,0,0,0,0,0,0,0,0,0,0,0,0,0,0,0,0,0],"split_type":[0,0,0,0,0,0,0,0,0,0,0,0,0,0,0,0,0,0,0,0,0,0,0,0,0,0,0,0,0,0,0,0,0,0,0,0,0,0,0,0,0,0,0],"sum_hessian":[4.494815E3,4.4971176E2,4.0451033E3,3.6594232E2,8.376943E1,3.8037117E3,2.4139156E2,3.0326002E0,3.6290973E2,1.0289464E0,8.2740486E1,2.3717786E2,3.566534E3,2.3516278E2,6.2287736E0,3.4239972E0,3.5948572E2,8.1036476E1,1.7040064E0,1.6309958E2,7.407827E1,3.3321257E3,2.3440826E2,2.2541014E2,9.752643E0,2.2658038E0,1.1581932E0,3.3782724E2,2.165849E1,1.7336112E0,7.9302864E1,7.267268E0,1.558323E2,3.8392248E0,7.0239044E1,3.0934924E3,2.386332E2,2.00065E2,3.4343258E1,2.2242914E2,2.9810095E0,8.724778E0,1.0278637E0],"tree_param":{"num_deleted":"0","num_feature":"5000","num_nodes":"43","size_leaf_vector":"1"}},{"base_weights":[2.6070964E-1,-2.375077E-1,2.924623E-1,-1.3627273E-1,-6.1391693E-2,-2.2833324E-3,3.4417266E-1,1.0736831E-1,-1.5178299E-1,-1.4319076E-1,4.1124514E-1,-1.0818779E-1,3.7520036E-1,-1.6689803E-1,9.079879E-2,1.1135434E-1,-1.51318E-1,2.8473097E-1,5.5821306E-1,9.2170745E-1,-1.2394338E-1,-5.119887E-1,3.898187E-1,-1.7976692E-2,9.8597966E-2,1.1033616E-1,-1.584761E-2,3.7180614E-2,-2.5049118E-2,1.07765995E-1,4.659042E-2,1.1736343E-2,1.1810434E-1,1.1369727E-1,-1.357948E-2,7.011042E-2,-5.9954233E-2,4.1259844E-2,-1.8859657E-2],"categories":[],"categories_nodes":[],"categories_segments":[],"categories_sizes":[],"default_left":[0,0,0,0,0,0,0,0,1,0,1,0,0,1,0,0,0,0,0,0,0,0,1,0,0,0,0,0,0,0,0,0,0,0,0,0,0,0,0],"id":18,"left_children":[1,3,5,7,-1,9,11,-1,13,15,17,19,21,23,-1,-1,25,27,29,31,33,35,37,-1,-1,-1,-1,-1,-1,-1,-1,-1,-1,-1,-1,-1,-1,-1,-1],"loss_changes":[8.238461E1,1.1816929E1,7.456201E1,4.805809E0,0E0,4.2662613E1,5.8455322E1,0E0,4.0783534E0,5.7459955E0,3.3008995E0,4.461638E0,5.071399E1,3.775632E0,0E0,0E0,5.0556183E0,4.848583E0,3.5755062E0,7.2819614E-1,4.110907E0,7.172102E0,5.0573853E1,0E0,0E0,0E0,0E0,0E0,0E0,0E0,0E0,0E0,0E0,0E0,0E0,0E0,0E0,0E0,0E0],"parents":[2147483647,0,0,1,1,2,2,3,3,5,5,6,6,8,8,9,9,10,10,11,11,12,12,13,13,16,16,17,17,18,18,19,19,20,20,21,21,22,22],"right_children":[2,4,6,8,-1,10,12,-1,14,16,18,20,22,24,-1,-1,26,28,30,32,34,36,38,-1,-1,-1,-1,-1,-1,-1,-1,-1,-1,-1,-1,-1,-1,-1,-1],"split_conditions":[4.5329267E-1,1.4487709E-1,2.229698E-1,1.2848113E-1,-6.1391693E-2,3.6973006E-1,2.4469137E-1,1.0736831E-1,2.0096478E-1,1.5814449E-1,1.7541257E-1,2.509708E-1,1.712816E-1,1.9922414E-1,9.079879E-2,1.1135434E-1,2.3965119E-1,1.1044683E-1,1.6115208E-1,1.5080474E-1,2.5093067E-1,5.512144E-2,1.1032339E-1,-1.7976692E-2,9.8597966E-2,1.1033616E-1,-1.584761E-2,3.7180614E-2,-2.5049118E-2,1.07765995E-1,4.659042E-2,1.1736343E-2,1.1810434E-1,1.1369727E-1,-1.357948E-2,7.011042E-2,-5.9954233E-2,4.1259844E-2,-1.8859657E-2],"split_indices":[2583,1509,869,34,0,4457,460,0,4853,2151,169,1363,2695,855,0,0,1848,869,3442,112,3399,4457,2808,0,0,0,0,0,0,0,0,0,0,0,0,0,0,0,0],"split_type":[0,0,0,0,0,0,0,0,0,0,0,0,0,0,0,0,0,0,0,0,0,0,0,0,0,0,0,0,0,0,0,0,0,0,0,0,0,0,0],"sum_hessian":[5.2023228E3,3.11304E2,4.8910186E3,2.4639757E2,6.49064E1,7.30153E2,4.1608657E3,2.2550735E0,2.441425E2,5.4507544E2,1.8507758E2,2.669178E2,3.8939478E3,2.4154002E2,2.6024652E0,2.6283865E0,5.424471E2,1.0103831E2,8.403926E1,3.1554482E0,2.6376233E2,6.2569496E1,3.8313782E3,2.3970837E2,1.8316514E0,2.2084334E0,5.4023865E2,8.716309E1,1.3875218E1,1.1070131E1,7.296913E1,1.1234777E0,2.0319705E0,1.572035E0,2.621903E2,3.7401676E0,5.8829327E1,3.6864802E3,1.4489807E2],"tree_param":{"num_deleted":"0","num_feature":"5000","num_nodes":"39","size_leaf_vector":"1"}},{"base_weights":[2.410301E-1,-6.061862E-2,2.518133E-1,-5.4612094E-1,2.6272675E-1,5.253616E-2,-5.862551E-1,2.6989836E-1,-5.9847843E-2,-6.146987E-2,3.8959667E-2,-5.889518E-2,2.7551034E-1,2.7779011E-2,-3.7691142E-2],"categories":[],"categories_nodes":[],"categories_segments":[],"categories_sizes":[],"default_left":[0,0,0,0,1,0,0,0,0,0,0,0,1,0,0],"id":19,"left_children":[1,-1,3,5,7,-1,9,11,-1,-1,-1,-1,13,-1,-1],"loss_changes":[4.733737E1,0E0,4.456125E1,3.2814884E0,3.12435E1,0E0,2.102581E0,2.4221222E1,0E0,0E0,0E0,0E0,7.481903E0,0E0,0E0],"parents":[2147483647,0,0,2,2,3,3,4,4,6,6,7,7,12,12],"right_children":[2,-1,4,6,8,-1,10,12,-1,-1,-1,-1,14,-1,-1],"split_conditions":[3.3884782E-1,-6.061862E-2,1.6323565E-1,1.098524E-1,1.8792753E-1,5.253616E-2,1.2178166E-1,4.3087113E-1,-5.9847843E-2,-6.146987E-2,3.8959667E-2,-5.889518E-2,2.2388123E-1,2.7779011E-2,-3.7691142E-2],"split_indices":[1011,0,2695,4660,4518,0,2807,759,0,0,0,0,3386,0,0],"split_type":[0,0,0,0,0,0,0,0,0,0,0,0,0,0,0],"sum_hessian":[5.163874E3,6.42048E1,5.0996694E3,6.8146095E1,5.031523E3,2.0238605E0,6.612224E1,4.9906504E3,4.087254E1,6.460913E1,1.5131056E0,3.1723822E1,4.958927E3,4.9422314E3,1.669547E1],"tree_param":{"num_deleted":"0","num_feature":"5000","num_nodes":"15","size_leaf_vector":"1"}},{"base_weights":[-4.3333244E-1,-4.6159425E-1,6.686199E-1,5.705277E-1,-4.9032882E-1,6.902675E-1,-4.873347E-2,5.9828615E-1,-4.5213602E-2,-5.0741935E-1,6.2917405E-1,-4.593798E-2,7.113521E-1,6.2305963E-1,-5.039664E-2,5.479491E-1,-5.216954E-1,-4.551048E-2,6.6398454E-1,-4.5670558E-2,7.3287773E-1,-4.861596E-2,6.436866E-2,-4.245038E-2,5.883911E-2,-4.6174232E-2,-6.0903843E-2,6.985757E-2,-4.316814E-2,6.4139897E-3,7.657653E-2],"categories":[],"categories_nodes":[],"categories_segments":[],"categories_sizes":[],"default_left":[1,0,1,1,1,0,0,1,0,0,0,0,0,0,0,0,0,0,1,0,0,0,0,0,0,0,0,0,0,0,0],"id":20,"left_children":[1,3,5,7,9,11,-1,13,-1,15,17,-1,19,21,-1,23,25,-1,27,-1,29,-1,-1,-1,-1,-1,-1,-1,-1,-1,-1],"loss_changes":[1.2502063E2,1.16090454E2,2.8523483E0,3.2861748E0,7.3018555E1,2.7291603E0,0E0,3.1499252E0,0E0,5.6681274E1,2.4755383E0,0E0,2.791607E0,2.6471214E0,0E0,2.2336798E0,1.9060608E1,0E0,2.4314365E0,0E0,2.0695267E0,0E0,0E0,0E0,0E0,0E0,0E0,0E0,0E0,0E0,0E0],"parents":[2147483647,0,0,1,1,2,2,3,3,4,4,5,5,7,7,9,9,10,10,12,12,13,13,15,15,16,16,18,18,20,20],"right_children":[2,4,6,8,10,12,-1,14,-1,16,18,-1,20,22,-1,24,26,-1,28,-1,30,-1,-1,-1,-1,-1,-1,-1,-1,-1,-1],"split_conditions":[1.4093484E-1,1.6511591E-1,1.2022864E-1,5.1835906E-2,1.905463E-1,1.900125E-1,-4.873347E-2,1.987011E-1,-4.5213602E-2,4.3087113E-1,2.3210792E-1,-4.593798E-2,1.851967E-1,2.0382762E-1,-5.039664E-2,2.1951981E-1,3.6973006E-1,-4.551048E-2,2.2048803E-1,-4.5670558E-2,1.5409291E-1,-4.861596E-2,6.436866E-2,-4.245038E-2,5.883911E-2,-4.6174232E-2,-6.0903843E-2,6.985757E-2,-4.316814E-2,6.4139897E-3,7.657653E-2],"split_indices":[1011,2695,659,4457,211,2018,0,2366,0,557,4878,0,4916,3683,0,2310,4457,0,2709,0,322,0,0,0,0,0,0,0,0,0,0],"split_type":[0,0,0,0,0,0,0,0,0,0,0,0,0,0,0,0,0,0,0,0,0,0,0,0,0,0,0,0,0,0,0],"sum_hessian":[4.0034731E3,3.90393E3,9.954314E1,1.0523187E2,3.7986982E3,9.81087E1,1.434429E0,1.0285502E2,2.376856E0,3.742117E3,5.6581093E1,1.3925354E0,9.671617E1,1.0101932E2,1.8356968E0,4.9445206E1,3.6926719E3,1.3844472E0,5.5196644E1,1.3842645E0,9.533191E1,1.4322217E0,9.95871E1,1.5950346E0,4.7850174E1,2.1933943E3,1.4992777E3,5.3858696E1,1.3379483E0,4.606815E0,9.072509E1],"tree_param":{"num_deleted":"0","num_feature":"5000","num_nodes":"31","size_leaf_vector":"1"}},{"base_weights":[-1.5747957E-1,1.7770281E-1,-1.8446162E-1,1.655184E-1,1.3347004E-1,-2.7459955E-1,-1.1097649E-1,-2.3614085E-1,1.9437803E-1,-2.8823918E-1,5.1780504E-1,1.5358086E-1,-1.3996232E-1,5.8247544E-2,-3.0659774E-1,1.2984234E-1,1.7981522E-1,2.4514687E-1,-3.0559617E-1,7.902809E-1,-2.8696281E-3,1.3925721E-1,1.0952224E-1,-1.6271605E-1,2.540536E-1,6.71286E-5,-4.7188055E-2,-3.6242794E-2,2.0084402E-2,3.697272E-2,-3.1493895E-2,5.1473618E-2,-3.1551275E-2,-3.2011747E-2,8.632102E-2,1.3398299E-2,-4.3600637E-2,1.26515245E-2,1.2199267E-1,3.936009E-3,-2.0640029E-2,9.894509E-2,2.0345353E-2],"categories":[],"categories_nodes":[],"categories_segments":[],"categories_sizes":[],"default_left":[0,1,1,0,0,1,0,0,0,0,1,1,1,0,0,0,0,1,0,0,1,1,0,0,0,0,0,0,0,0,0,0,0,0,0,0,0,0,0,0,0,0,0],"id":21,"left_children":[1,3,5,7,-1,9,11,13,15,17,19,21,23,-1,25,-1,27,29,31,33,35,37,-1,39,41,-1,-1,-1,-1,-1,-1,-1,-1,-1,-1,-1,-1,-1,-1,-1,-1,-1,-1],"loss_changes":[4.027005E1,4.459078E0,2.7247116E1,3.8672209E0,0E0,2.01315E1,1.7431097E1,1.4792073E0,4.7203035E0,1.6907593E1,4.4914637E0,2.8775997E0,1.8390182E1,0E0,1.0880649E0,0E0,3.5535688E0,4.1533756E0,1.4490524E1,1.9587774E0,7.6183325E-1,2.908575E0,0E0,1.7093967E1,3.9711008E0,0E0,0E0,0E0,0E0,0E0,0E0,0E0,0E0,0E0,0E0,0E0,0E0,0E0,0E0,0E0,0E0,0E0,0E0],"parents":[2147483647,0,0,1,1,2,2,3,3,5,5,6,6,7,7,8,8,9,9,10,10,11,11,12,12,14,14,16,16,17,17,18,18,19,19,20,20,21,21,23,23,24,24],"right_children":[2,4,6,8,-1,10,12,14,16,18,20,22,24,-1,26,-1,28,30,32,34,36,38,-1,40,42,-1,-1,-1,-1,-1,-1,-1,-1,-1,-1,-1,-1,-1,-1,-1,-1,-1,-1],"split_conditions":[2.2405466E-1,2.2937307E-1,4.7530055E-2,1.4716724E-1,1.3347004E-1,1.6943188E-1,3.623423E-1,2.1506043E-1,1.4287098E-1,1.8205398E-1,1.4499018E-1,2.1508214E-1,1.4716318E-1,5.8247544E-2,1.15429714E-1,1.2984234E-1,1.3322297E-1,1.1492017E-1,2.189818E-1,2.2142273E-1,1.9802178E-1,2.2355653E-1,1.0952224E-1,2.4380574E-1,1.08814225E-1,6.71286E-5,-4.7188055E-2,-3.6242794E-2,2.0084402E-2,3.697272E-2,-3.1493895E-2,5.1473618E-2,-3.1551275E-2,-3.2011747E-2,8.632102E-2,1.3398299E-2,-4.3600637E-2,1.26515245E-2,1.2199267E-1,3.936009E-3,-2.0640029E-2,9.894509E-2,2.0345353E-2],"split_indices":[2583,524,4457,489,0,4289,472,2170,4553,2695,2695,754,2338,0,1509,0,2374,659,211,4546,216,3493,0,104,2941,0,0,0,0,0,0,0,0,0,0,0,0,0,0,0,0,0,0],"split_type":[0,0,0,0,0,0,0,0,0,0,0,0,0,0,0,0,0,0,0,0,0,0,0,0,0,0,0,0,0,0,0,0,0,0,0,0,0,0,0,0,0,0,0],"sum_hessian":[4.4480986E3,3.3097717E2,4.1171216E3,3.286591E2,2.3180711E0,1.847821E3,2.2693005E3,2.1550037E1,3.0710907E2,1.8171783E3,3.0642752E1,2.2365689E2,2.0456437E3,1.1318864E0,2.041815E1,2.8504272E0,3.0425864E2,5.6855907E1,1.7603224E3,1.9775944E1,1.0866808E1,2.2143643E2,2.2204657E0,1.9345157E3,1.1112791E2,7.489932E0,1.2928219E1,1.0752871E1,2.9350577E2,4.6788563E1,1.0067342E1,2.04174E1,1.739905E3,1.0099137E0,1.876603E1,8.782563E0,2.0842447E0,2.1995999E2,1.4764326E0,3.4388034E2,1.5906354E3,5.959598E0,1.0516831E2],"tree_param":{"num_deleted":"0","num_feature":"5000","num_nodes":"43","size_leaf_vector":"1"}},{"base_weights":[2.338397E-1,-2.002851E-2,2.816629E-1,-1.4466754E-1,3.8272658E-1,-6.460141E-2,2.9820397E-1,9.6144885E-1,-1.5272617E-1,3.0642715E-1,5.7099617E-1,-1.14051804E-1,3.2913482E-1,1.4784905E-2,1.15905635E-1,-1.5790913E-1,1.2255996E-1,6.148515E-1,2.332523E-1,-4.5061328E-2,6.114842E-1,1.1446481E-1,-1.2442118E-1,-5.488172E-1,3.4364977E-1,-1.6486362E-2,8.878001E-2,4.2831503E-2,1.1564697E-1,1.6757691E-2,6.446346E-2,-4.132728E-2,6.4478606E-2,-1.3668686E-2,9.428127E-2,6.350431E-2,-6.0559392E-2,-6.515415E-2,3.56335E-2],"categories":[],"categories_nodes":[],"categories_segments":[],"categories_sizes":[],"default_left":[0,0,0,0,0,0,0,0,1,0,0,0,0,0,0,1,0,0,1,0,0,0,1,0,0,0,0,0,0,0,0,0,0,0,0,0,0,0,0],"id":22,"left_children":[1,3,5,7,9,-1,11,13,15,17,19,21,23,-1,-1,25,-1,27,29,-1,31,-1,33,35,37,-1,-1,-1,-1,-1,-1,-1,-1,-1,-1,-1,-1,-1,-1],"loss_changes":[6.3316833E1,4.159805E1,6.752841E1,5.7866726E0,2.6384106E0,0E0,5.5021637E1,5.8641577E-1,4.686944E0,3.0507126E0,2.5638943E0,4.079997E0,5.130658E1,0E0,0E0,4.709958E0,0E0,2.184823E0,3.0260253E0,0E0,2.0969696E0,0E0,4.057578E0,4.795578E0,5.005603E1,0E0,0E0,0E0,0E0,0E0,0E0,0E0,0E0,0E0,0E0,0E0,0E0,0E0,0E0],"parents":[2147483647,0,0,1,1,2,2,3,3,4,4,6,6,7,7,8,8,9,9,10,10,11,11,12,12,15,15,17,17,18,18,20,20,22,22,23,23,24,24],"right_children":[2,4,6,8,10,-1,12,14,16,18,20,22,24,-1,-1,26,-1,28,30,-1,32,-1,34,36,38,-1,-1,-1,-1,-1,-1,-1,-1,-1,-1,-1,-1,-1,-1],"split_conditions":[2.229698E-1,3.6973006E-1,3.816054E-1,2.5578287E-1,1.6587096E-1,-6.460141E-2,2.343438E-1,1.4047596E-1,2.2924381E-1,1.793907E-1,2.5865203E-1,1.4697927E-1,1.6323565E-1,1.4784905E-2,1.15905635E-1,1.9234958E-1,1.2255996E-1,1.7536855E-1,1.77708E-1,-4.5061328E-2,2.5479472E-1,1.1446481E-1,1.6232048E-1,5.3310443E-2,2.322807E-1,-1.6486362E-2,8.878001E-2,4.2831503E-2,1.1564697E-1,1.6757691E-2,6.446346E-2,-4.132728E-2,6.4478606E-2,-1.3668686E-2,9.428127E-2,6.350431E-2,-6.0559392E-2,-6.515415E-2,3.56335E-2],"split_indices":[869,4457,3505,1340,924,0,104,453,2477,4333,2177,453,2695,0,0,1742,0,168,3445,0,3832,0,489,4457,212,0,0,0,0,0,0,0,0,0,0,0,0,0,0],"split_type":[0,0,0,0,0,0,0,0,0,0,0,0,0,0,0,0,0,0,0,0,0,0,0,0,0,0,0,0,0,0,0,0,0,0,0,0,0,0,0],"sum_hessian":[5.213751E3,8.2656E2,4.387191E3,6.3170844E2,1.9485152E2,7.618932E1,4.3110015E3,3.71335E0,6.279951E2,1.4052785E2,5.432367E1,3.006855E2,4.0103162E3,1.0672809E0,2.646069E0,6.265246E2,1.4705008E0,2.5527906E1,1.1499994E2,1.6847162E0,5.263895E1,1.5630691E0,2.991224E2,6.4624535E1,3.9456917E3,6.232222E2,3.3023958E0,2.0320288E1,5.207619E0,1.0038178E2,1.4618161E1,1.2976619E0,5.134129E1,2.965857E2,2.5367246E0,2.4913833E0,6.2133152E1,4.9026928E1,3.8966648E3],"tree_param":{"num_deleted":"0","num_feature":"5000","num_nodes":"39","size_leaf_vector":"1"}},{"base_weights":[2.2840936E-1,-5.295675E-1,2.3893236E-1,-5.815188E-1,8.26833E-2,-5.9340592E-2,2.4838112E-1,-5.9481215E-1,1.3501684E-2,2.5496852E-1,-5.8946777E-2,-6.082638E-2,1.2084546E-2,-5.8745038E-2,2.6067498E-1,1.0736593E-1,2.5837643E-2],"categories":[],"categories_nodes":[],"categories_segments":[],"categories_sizes":[],"default_left":[0,1,0,1,0,0,1,0,0,0,0,0,0,0,0,0,0],"id":23,"left_children":[1,3,5,7,-1,-1,9,11,-1,13,-1,-1,-1,-1,15,-1,-1],"loss_changes":[4.1851624E1,5.5503044E0,4.0730774E1,7.458763E-1,0E0,0E0,2.8315308E1,7.356987E-1,0E0,2.4496735E1,0E0,0E0,0E0,0E0,9.12323E0,0E0,0E0],"parents":[2147483647,0,0,1,1,2,2,3,3,6,6,7,7,9,9,14,14],"right_children":[2,4,6,8,-1,-1,10,12,-1,14,-1,-1,-1,-1,16,-1,-1],"split_conditions":[1.6613923E-1,1.106906E-1,3.816054E-1,7.7209376E-2,8.26833E-2,-5.9340592E-2,1.8792753E-1,1.2178166E-1,1.3501684E-2,4.748388E-1,-5.8946777E-2,-6.082638E-2,1.2084546E-2,-5.8745038E-2,2.3519817E-1,1.0736593E-1,2.5837643E-2],"split_indices":[2695,1509,3505,4558,0,0,4518,2807,0,4567,0,0,0,0,4578,0,0],"split_type":[0,0,0,0,0,0,0,0,0,0,0,0,0,0,0,0,0],"sum_hessian":[5.2302163E3,7.09414E1,5.159275E3,6.887471E1,2.0666862E0,5.7217426E1,5.1020576E3,6.778699E1,1.08772E0,5.062947E3,3.9110565E1,6.6683655E1,1.1033356E0,3.3379288E1,5.029568E3,1.2866055E1,5.0167017E3],"tree_param":{"num_deleted":"0","num_feature":"5000","num_nodes":"17","size_leaf_vector":"1"}},{"base_weights":[-4.1605443E-1,-4.474907E-1,6.457495E-1,4.7512642E-1,-4.744339E-1,-4.5741167E-2,6.635823E-1,-5.2852917E-2,5.014788E-1,-4.9281242E-1,5.945678E-1,-4.0660765E-2,6.797601E-1,-5.290425E-2,5.2539253E-1,5.733084E-1,-5.0656813E-1,-4.4937067E-2,6.2557733E-1,7.326095E-1,3.1228462E-1,-4.785436E-2,5.4772187E-2,-4.2336937E-2,6.1833423E-2,-5.2709628E-2,-1.6033998E-2,-1.4190502E-2,6.5157026E-2,1.6388407E-2,7.6966904E-2,-5.1933408E-2,4.6510153E-2],"categories":[],"categories_nodes":[],"categories_segments":[],"categories_sizes":[],"default_left":[1,0,0,0,1,0,0,0,0,0,0,0,1,0,0,0,1,0,0,0,0,0,0,0,0,0,0,0,0,0,0,0,0],"id":24,"left_children":[1,3,5,7,9,-1,11,-1,13,15,17,-1,19,-1,21,23,25,-1,27,29,31,-1,-1,-1,-1,-1,-1,-1,-1,-1,-1,-1,-1],"loss_changes":[1.2932709E2,9.3574524E1,2.498417E0,3.0964546E0,7.198773E1,0E0,2.1844063E0,0E0,2.861269E0,5.2910522E1,2.2924194E0,0E0,1.8868904E0,0E0,2.569992E0,2.3339405E0,2.5096313E1,0E0,1.3045006E0,1.8655586E0,2.2037745E0,0E0,0E0,0E0,0E0,0E0,0E0,0E0,0E0,0E0,0E0,0E0,0E0],"parents":[2147483647,0,0,1,1,2,2,3,3,4,4,6,6,8,8,9,9,10,10,12,12,14,14,15,15,16,16,18,18,19,19,20,20],"right_children":[2,4,6,8,10,-1,12,-1,14,16,18,-1,20,-1,22,24,26,-1,28,30,32,-1,-1,-1,-1,-1,-1,-1,-1,-1,-1,-1,-1],"split_conditions":[1.4031388E-1,1.6511591E-1,1.8336298E-1,1.4087757E-1,1.905463E-1,-4.5741167E-2,1.7699823E-1,-5.2852917E-2,1.2853992E-1,2.1085553E-1,2.3210792E-1,-4.0660765E-2,1.1994017E-1,-5.290425E-2,2.0163111E-1,2.1951981E-1,1.1989084E-1,-4.4937067E-2,2.236489E-1,1.6953723E-1,1.860314E-1,-4.785436E-2,5.4772187E-2,-4.2336937E-2,6.1833423E-2,-5.2709628E-2,-1.6033998E-2,-1.4190502E-2,6.5157026E-2,1.6388407E-2,7.6966904E-2,-5.1933408E-2,4.6510153E-2],"split_indices":[1011,2695,595,2749,211,0,2036,0,4451,557,4878,0,2583,0,4079,2310,455,0,1452,4382,332,0,0,0,0,0,0,0,0,0,0,0,0],"split_type":[0,0,0,0,0,0,0,0,0,0,0,0,0,0,0,0,0,0,0,0,0,0,0,0,0,0,0,0,0,0,0,0,0],"sum_hessian":[3.864829E3,3.7542573E3,1.1057174E2,1.0605273E2,3.6482046E3,1.3668447E0,1.09204895E2,2.2257752E0,1.0382695E2,3.587074E3,6.113081E1,1.2668443E0,1.0793805E2,1.8756585E0,1.01951294E2,4.517487E1,3.541899E3,1.3742785E0,5.975653E1,9.349779E1,1.444026E1,1.7737054E0,1.0017759E2,1.5894097E0,4.358546E1,3.3431582E3,1.9874078E2,1.811441E0,5.7945087E1,6.0515237E0,8.7446266E1,1.869293E0,1.2570968E1],"tree_param":{"num_deleted":"0","num_feature":"5000","num_nodes":"33","size_leaf_vector":"1"}},{"base_weights":[-1.4642288E-1,1.3787615E-1,-1.7023264E-1,1.2618417E-1,1.260725E-1,1.7907149E-1,-1.8872817E-1,-3.2239416E-1,1.5365757E-1,1.2356581E-1,1.6271688E-1,-2.083086E-1,1.2102463E-1,5.6272443E-2,-4.072693E-1,1.4326821E-1,1.19201876E-1,1.2154919E-1,1.4620091E-1,1.0443147E-1,-2.2951432E-1,1.0811341E-1,1.06785506E-1,-2.3979533E-3,-5.9976127E-2,4.4153903E-2,1.0881183E-2,1.1840651E-1,1.3233579E-2,1.2207996E-1,9.190624E-3,1.1564951E-2,-2.5286136E-2,1.2044006E-1,9.417693E-3],"categories":[],"categories_nodes":[],"categories_segments":[],"categories_sizes":[],"default_left":[0,0,0,0,0,0,1,0,1,0,0,0,0,0,0,0,0,0,0,0,0,0,0,0,0,0,0,0,0,0,0,0,0,0,0],"id":25,"left_children":[1,3,5,-1,7,9,11,13,15,-1,17,19,21,-1,23,25,-1,-1,27,29,31,-1,33,-1,-1,-1,-1,-1,-1,-1,-1,-1,-1,-1,-1],"loss_changes":[2.9732285E1,4.3478584E0,2.6200233E1,0E0,4.222196E0,3.3272538E0,2.3357605E1,1.7217135E0,3.2643762E0,0E0,3.3384776E0,2.4022339E1,3.0200872E0,0E0,1.3659837E0,3.2037916E0,0E0,0E0,2.7247386E0,3.1104445E0,2.7341019E1,0E0,3.0296688E0,0E0,0E0,0E0,0E0,0E0,0E0,0E0,0E0,0E0,0E0,0E0,0E0],"parents":[2147483647,0,0,1,1,2,2,4,4,5,5,6,6,7,7,8,8,10,10,11,11,12,12,14,14,15,15,18,18,19,19,20,20,22,22],"right_children":[2,4,6,-1,8,10,12,14,16,-1,18,20,22,-1,24,26,-1,-1,28,30,32,-1,34,-1,-1,-1,-1,-1,-1,-1,-1,-1,-1,-1,-1],"split_conditions":[4.5329267E-1,2.1824156E-1,1.6755946E-1,1.2618417E-1,1.4275661E-1,2.4536653E-1,1.3267866E-1,2.1506043E-1,2.145112E-1,1.2356581E-1,2.1898419E-1,3.5011828E-1,2.380595E-1,5.6272443E-2,1.3632023E-1,9.315337E-2,1.19201876E-1,1.2154919E-1,2.4068317E-1,2.3901248E-1,1.6312318E-1,1.0811341E-1,2.289836E-1,-2.3979533E-3,-5.9976127E-2,4.4153903E-2,1.0881183E-2,1.1840651E-1,1.3233579E-2,1.2207996E-1,9.190624E-3,1.1564951E-2,-2.5286136E-2,1.2044006E-1,9.417693E-3],"split_indices":[2583,3347,472,0,1442,3432,2288,2170,3486,0,4079,1920,3931,0,3085,1880,0,0,4305,4067,877,0,4069,0,0,0,0,0,0,0,0,0,0,0,0],"split_type":[0,0,0,0,0,0,0,0,0,0,0,0,0,0,0,0,0,0,0,0,0,0,0,0,0,0,0,0,0,0,0,0,0,0,0],"sum_hessian":[4.387892E3,3.3871347E2,4.049179E3,2.41952E0,3.3629395E2,2.0318431E2,3.8459946E3,1.8867447E1,3.1742648E2,1.9606814E0,2.0122363E2,3.6176396E3,2.2835483E2,1.1582836E0,1.7709164E1,3.1540863E2,2.0178556E0,1.9867632E0,1.9923686E2,2.2947249E2,3.3881672E3,2.2421932E0,2.2611263E2,6.2963834E0,1.141278E1,3.1439445E1,2.839692E2,1.5139301E0,1.9772293E2,1.4757125E0,2.2799678E2,2.1440709E2,3.17376E3,1.4944444E0,2.2461818E2],"tree_param":{"num_deleted":"0","num_feature":"5000","num_nodes":"35","size_leaf_vector":"1"}},{"base_weights":[2.2590342E-1,-2.2196716E-1,2.531496E-1,-1.2906852E-1,-5.9663314E-2,-9.825579E-2,2.8124E-1,1.07136965E-1,-1.4467347E-1,1.07626475E-1,-1.0838077E-1,-2.2990906E-1,3.03686E-1,-1.5990059E-1,9.6084155E-2,1.2586586E-1,-1.17179394E-1,-3.4414062E-1,-2.9194217E-2,-1.877937E-1,3.257135E-1,9.342001E-2,-1.7560119E-2,8.849206E-2,-1.2876344E-2,-3.6524396E-2,1.00047804E-1,1.0850569E-1,-6.188953E-3,-2.4643779E-2,1.0612567E-2,3.5024356E-2,-1.5176241E-2],"categories":[],"categories_nodes":[],"categories_segments":[],"categories_sizes":[],"default_left":[0,0,0,0,0,0,0,0,1,0,0,1,0,0,0,0,0,1,0,1,1,0,0,0,0,0,0,0,0,0,0,0,0],"id":26,"left_children":[1,3,5,7,-1,9,11,-1,13,-1,15,17,19,21,-1,-1,23,25,27,29,31,-1,-1,-1,-1,-1,-1,-1,-1,-1,-1,-1,-1],"loss_changes":[6.4551636E1,1.0490991E1,4.921237E1,4.736583E0,0E0,4.511471E0,5.3008972E1,0E0,4.2327814E0,0E0,4.5655346E0,4.4532404E0,4.791739E1,4.2847676E0,0E0,0E0,4.3611856E0,3.883111E0,2.6791763E0,3.305513E0,4.961133E1,0E0,0E0,0E0,0E0,0E0,0E0,0E0,0E0,0E0,0E0,0E0,0E0],"parents":[2147483647,0,0,1,1,2,2,3,3,5,5,6,6,8,8,10,10,11,11,12,12,13,13,16,16,17,17,18,18,19,19,20,20],"right_children":[2,4,6,8,-1,10,12,-1,14,-1,16,18,20,22,-1,-1,24,26,28,30,32,-1,-1,-1,-1,-1,-1,-1,-1,-1,-1,-1,-1],"split_conditions":[4.5329267E-1,1.4487709E-1,2.4469137E-1,2.3466358E-1,-5.9663314E-2,2.4106315E-1,1.693744E-1,1.07136965E-1,2.0350176E-1,1.07626475E-1,2.2352816E-1,6.0881894E-2,3.623423E-1,2.3360974E-1,9.6084155E-2,1.2586586E-1,2.2880693E-1,1.245392E-1,2.4639937E-1,1.1444611E-1,1.2231166E-1,9.342001E-2,-1.7560119E-2,8.849206E-2,-1.2876344E-2,-3.6524396E-2,1.00047804E-1,1.0850569E-1,-6.188953E-3,-2.4643779E-2,1.0612567E-2,3.5024356E-2,-1.5176241E-2],"split_indices":[2583,1509,104,822,0,2160,2288,0,688,0,4018,2807,472,3465,0,0,1815,2353,806,2240,3837,0,0,0,0,0,0,0,0,0,0,0,0],"split_type":[0,0,0,0,0,0,0,0,0,0,0,0,0,0,0,0,0,0,0,0,0,0,0,0,0,0,0,0,0,0,0,0,0],"sum_hessian":[5.2843193E3,3.026261E2,4.9816934E3,2.4357582E2,5.9050278E1,3.685615E2,4.613132E3,2.2575047E0,2.4131831E2,2.2500722E0,3.663114E2,1.9366565E2,4.4194663E3,2.3888335E2,2.4349666E0,1.4341638E0,3.6487726E2,1.2296743E2,7.069823E1,1.8925526E2,4.230211E3,2.5519066E0,2.3633144E2,3.3081503E0,3.615691E2,1.21784424E2,1.1829991E0,1.0978185E0,6.960041E1,1.5790993E2,3.134534E1,4.0237588E3,2.064521E2],"tree_param":{"num_deleted":"0","num_feature":"5000","num_nodes":"33","size_leaf_vector":"1"}},{"base_weights":[2.1469095E-1,-5.3847104E-1,2.2384222E-1,5.398189E-2,-5.671308E-1,-5.8565717E-2,2.3245491E-1,-5.817275E-1,1.4576079E-2,2.3805548E-1,-5.7956386E-2,-5.9673525E-2,1.3732873E-2,-5.783244E-2,2.4349861E-1,2.4022507E-2,8.921243E-2],"categories":[],"categories_nodes":[],"categories_segments":[],"categories_sizes":[],"default_left":[0,0,0,0,1,0,1,0,0,0,0,0,0,0,1,0,0],"id":27,"left_children":[1,3,5,-1,7,-1,9,11,-1,13,-1,-1,-1,-1,15,-1,-1],"loss_changes":[3.669632E1,2.283926E0,3.669507E1,0E0,7.385826E-1,0E0,2.3737274E1,7.485237E-1,0E0,2.3045166E1,0E0,0E0,0E0,0E0,1.0659027E1,0E0,0E0],"parents":[2147483647,0,0,1,1,2,2,4,4,6,6,7,7,9,9,14,14],"right_children":[2,4,6,-1,8,-1,10,12,-1,14,-1,-1,-1,-1,16,-1,-1],"split_conditions":[1.6323565E-1,1.2780343E-1,3.816054E-1,5.398189E-2,1.2825413E-1,-5.8565717E-2,1.8880454E-1,1.2178166E-1,1.4576079E-2,4.748388E-1,-5.7956386E-2,-5.9673525E-2,1.3732873E-2,-5.783244E-2,2.2060151E-1,2.4022507E-2,8.921243E-2],"split_indices":[2695,4553,3505,0,589,0,4518,2807,0,4567,0,0,0,0,680,0,0],"split_type":[0,0,0,0,0,0,0,0,0,0,0,0,0,0,0,0,0],"sum_hessian":[5.3056978E3,6.2998413E1,5.242699E3,1.1693025E0,6.182911E1,5.448733E1,5.188212E3,6.0768837E1,1.0602734E0,5.1533755E3,3.4836468E1,5.9693066E1,1.0757691E0,3.3434948E1,5.1199404E3,5.0955938E3,2.4346657E1],"tree_param":{"num_deleted":"0","num_feature":"5000","num_nodes":"17","size_leaf_vector":"1"}},{"base_weights":[-4.0366286E-1,5.0431895E-1,-4.311572E-1,5.336876E-1,-4.709897E-2,-4.5647013E-1,4.9584028E-1,-4.7893085E-2,5.550142E-1,6.0261357E-1,-4.7564867E-1,5.586559E-1,9.012997E-2,-5.295169E-2,5.75574E-1,-4.4200964E-2,6.329114E-1,-4.9427673E-1,6.114934E-1,-5.091248E-2,5.838209E-1,5.01687E-1,-1.365224E-1,-4.7193132E-2,5.98254E-2,-4.33903E-2,6.632271E-2,-4.2705763E-2,-5.9488274E-2,6.438508E-2,-2.1992764E-2,-5.0374925E-2,6.0967702E-2,-5.1563806E-3,7.190343E-2,-2.8011495E-2,4.6316795E-2],"categories":[],"categories_nodes":[],"categories_segments":[],"categories_sizes":[],"default_left":[0,1,1,0,0,0,1,0,0,0,1,0,0,0,0,0,0,0,1,0,0,0,1,0,0,0,0,0,0,0,0,0,0,0,0,0,0],"id":28,"left_children":[1,3,5,7,-1,9,11,-1,13,15,17,19,21,-1,23,-1,25,27,29,-1,31,33,35,-1,-1,-1,-1,-1,-1,-1,-1,-1,-1,-1,-1,-1,-1],"loss_changes":[9.289905E1,3.389988E0,8.47937E1,2.5731316E0,0E0,7.155432E1,2.4032135E0,0E0,2.6482887E0,2.2689056E0,7.010571E1,2.5322018E0,1.3837479E0,0E0,2.7441902E0,0E0,2.2763863E0,2.266687E1,1.715765E0,0E0,2.6052837E0,6.6493356E-1,9.804023E-1,0E0,0E0,0E0,0E0,0E0,0E0,0E0,0E0,0E0,0E0,0E0,0E0,0E0,0E0],"parents":[2147483647,0,0,1,1,2,2,3,3,5,5,6,6,8,8,9,9,10,10,11,11,12,12,14,14,16,16,17,17,18,18,20,20,21,21,22,22],"right_children":[2,4,6,8,-1,10,12,-1,14,16,18,20,22,-1,24,-1,26,28,30,-1,32,34,36,-1,-1,-1,-1,-1,-1,-1,-1,-1,-1,-1,-1,-1,-1],"split_conditions":[1.6493684E-1,5.1526118E-2,1.4268439E-1,1.4087757E-1,-4.709897E-2,2.2994655E-1,1.665238E-1,-4.7893085E-2,1.8097104E-1,2.3210792E-1,1.6171591E-1,1.98997E-1,1.8183847E-1,-5.295169E-2,2.0163111E-1,-4.4200964E-2,2.2346793E-1,3.6973006E-1,1.6741592E-1,-5.091248E-2,2.1037827E-1,1.7725492E-1,1.907284E-1,-4.7193132E-2,5.98254E-2,-4.33903E-2,6.632271E-2,-4.2705763E-2,-5.9488274E-2,6.438508E-2,-2.1992764E-2,-5.0374925E-2,6.0967702E-2,-5.1563806E-3,7.190343E-2,-2.8011495E-2,4.6316795E-2],"split_indices":[2695,4457,3505,2749,0,212,4288,0,4628,4878,332,988,556,0,4079,0,4709,4457,322,0,4027,556,556,0,0,0,0,0,0,0,0,0,0,0,0,0,0],"split_type":[0,0,0,0,0,0,0,0,0,0,0,0,0,0,0,0,0,0,0,0,0,0,0,0,0,0,0,0,0,0,0,0,0,0,0,0,0],"sum_hessian":[3.7115542E3,1.0857572E2,3.6029785E3,1.05841415E2,2.734311E0,3.5077036E3,9.5275E1,1.7405498E0,1.0410086E2,6.1848797E1,3.4458547E3,8.2174965E1,1.3100035E1,1.4762005E0,1.02624664E2,1.3602605E0,6.0488533E1,3.3883413E3,5.751351E1,1.4492644E0,8.07257E1,4.2213726E0,8.878662E0,1.755095E0,1.0086957E2,1.3035468E0,5.9184986E1,2.0343503E3,1.353991E3,5.557619E1,1.9373186E0,1.4454169E0,7.928029E1,1.405775E0,2.8155975E0,7.593372E0,1.2852905E0],"tree_param":{"num_deleted":"0","num_feature":"5000","num_nodes":"37","size_leaf_vector":"1"}},{"base_weights":[-1.3568899E-1,5.842641E-2,-1.683298E-1,-3.0122885E-1,1.1031428E-1,9.895848E-2,-1.953052E-1,4.7939744E-2,-3.3054474E-1,5.2335143E-2,3.2298622E-1,8.41582E-2,1.470417E-1,-2.1899803E-1,1.627324E-1,-4.3042815E-1,-7.664223E-2,1.14880584E-1,4.1509792E-2,9.6433717E-1,2.7892005E-1,1.2554803E-1,6.652444E-2,-2.4205701E-1,1.1075178E-1,1.4475244E-1,1.1274903E-1,-4.593448E-2,1.2267201E-2,9.257735E-2,-2.513661E-2,9.9787794E-2,2.9717498E-3,1.394204E-1,3.8569044E-2,-3.4243267E-2,3.2384615E-2,1.2269207E-2,-1.8305844E-2,3.3222314E-2,-2.5364641E-2,1.3378374E-1,9.333462E-3,1.1183232E-1,1.2894819E-2],"categories":[],"categories_nodes":[],"categories_segments":[],"categories_sizes":[],"default_left":[0,0,0,0,1,1,1,0,0,0,0,0,0,1,1,1,1,0,0,1,0,0,1,0,0,0,0,0,0,0,0,0,0,0,0,0,0,0,0,0,0,0,0,0,0],"id":29,"left_children":[1,3,5,7,9,11,13,-1,15,17,19,21,-1,23,25,27,29,-1,31,33,35,-1,37,39,41,43,-1,-1,-1,-1,-1,-1,-1,-1,-1,-1,-1,-1,-1,-1,-1,-1,-1,-1,-1],"loss_changes":[2.7532784E1,1.1715934E1,2.6832771E1,1.9708896E0,6.738087E0,6.809446E0,2.8693024E1,0E0,1.9178343E0,5.0760245E0,3.0422602E0,6.918143E0,0E0,2.4122879E1,3.4838715E0,9.358349E-1,4.2495365E0,0E0,4.802659E0,1.2346878E0,3.2104855E0,0E0,4.7188334E0,1.9799301E1,4.3164387E0,3.0492997E0,0E0,0E0,0E0,0E0,0E0,0E0,0E0,0E0,0E0,0E0,0E0,0E0,0E0,0E0,0E0,0E0,0E0,0E0,0E0],"parents":[2147483647,0,0,1,1,2,2,3,3,4,4,5,5,6,6,8,8,9,9,10,10,11,11,13,13,14,14,15,15,16,16,18,18,19,19,20,20,22,22,23,23,24,24,25,25],"right_children":[2,4,6,8,10,12,14,-1,16,18,20,22,-1,24,26,28,30,-1,32,34,36,-1,38,40,42,44,-1,-1,-1,-1,-1,-1,-1,-1,-1,-1,-1,-1,-1,-1,-1,-1,-1,-1,-1],"split_conditions":[1.1268207E-1,2.9329637E-1,1.058106E-1,1.3133512E-1,1.0522578E-1,1.439971E-1,1.2134365E-1,4.7939744E-2,9.36371E-2,2.316732E-1,1.1705329E-1,2.1383071E-1,1.470417E-1,1.2593298E-1,1.6910551E-1,1.4022958E-1,1.7356996E-1,1.14880584E-1,2.269993E-1,1.4855511E-1,1.2957668E-1,1.2554803E-1,5.525091E-2,2.1826972E-1,2.4309726E-1,2.3890033E-1,1.1274903E-1,-4.593448E-2,1.2267201E-2,9.257735E-2,-2.513661E-2,9.9787794E-2,2.9717498E-3,1.394204E-1,3.8569044E-2,-3.4243267E-2,3.2384615E-2,1.2269207E-2,-1.8305844E-2,3.3222314E-2,-2.5364641E-2,1.3378374E-1,9.333462E-3,1.1183232E-1,1.2894819E-2],"split_indices":[869,924,3068,3226,2941,335,2307,0,4558,3463,1082,4079,0,489,196,4330,168,0,4912,0,460,0,2807,407,4540,4090,0,0,0,0,0,0,0,0,0,0,0,0,0,0,0,0,0,0,0],"split_type":[0,0,0,0,0,0,0,0,0,0,0,0,0,0,0,0,0,0,0,0,0,0,0,0,0,0,0,0,0,0,0,0,0,0,0,0,0,0,0,0,0,0,0,0,0],"sum_hessian":[4.3428413E3,6.2502423E2,3.717817E3,7.819796E1,5.4682623E2,3.4057074E2,3.3772463E3,2.2746832E0,7.592328E1,4.3066376E2,1.16162506E2,3.3798468E2,2.5860445E0,3.1679954E3,2.0925099E2,5.3989105E1,2.1934174E1,3.1826234E0,4.2748114E2,6.125561E0,1.1003694E2,3.9716299E0,3.3401306E2,2.961189E3,2.0680618E2,2.0655159E2,2.6994116E0,5.1467823E1,2.5212834E0,2.6176796E0,1.9316494E1,4.1882496E0,4.2329288E2,2.7059417E0,3.4196196E0,6.9730897E0,1.0306385E2,2.7306848E2,6.094457E1,5.8029613E1,2.9031594E3,1.8333064E0,2.0497289E2,2.1850917E0,2.043665E2],"tree_param":{"num_deleted":"0","num_feature":"5000","num_nodes":"45","size_leaf_vector":"1"}},{"base_weights":[1.9555295E-1,-2.3645581E-1,2.2052293E-1,-1.2593013E-1,-5.4332405E-1,-1.347907E-1,2.4873845E-1,1.1575474E-1,-1.4056064E-1,-6.007241E-2,-9.426728E-2,-1.4650792E-1,9.6321946E-1,-2.5578627E-1,2.7154183E-1,5.238367E-1,-1.6311905E-1,4.061483E-2,-2.3056458E-1,-1.5842418E-1,9.600515E-1,1.2413716E-1,1.2067065E-2,1.1499894E-1,-2.7235362E-1,-2.5066674E-1,2.9083312E-1,7.433928E-2,8.588966E-3,-2.3976615E-2,8.1434585E-3,-3.9677575E-2,1.606283E-2,-1.7175138E-2,8.347751E-2,1.2491464E-1,1.1207539E-2,-2.8506046E-2,1.0458934E-1,-2.6570523E-2,8.115235E-2,-1.5003233E-2,3.1385254E-2],"categories":[],"categories_nodes":[],"categories_segments":[],"categories_sizes":[],"default_left":[0,0,0,0,1,1,0,0,0,0,0,1,0,0,0,0,0,0,0,1,0,0,0,0,1,1,0,0,0,0,0,0,0,0,0,0,0,0,0,0,0,0,0],"id":30,"left_children":[1,3,5,7,9,11,13,-1,15,-1,17,19,21,23,25,27,29,-1,31,33,35,-1,-1,-1,37,39,41,-1,-1,-1,-1,-1,-1,-1,-1,-1,-1,-1,-1,-1,-1,-1,-1],"loss_changes":[5.773857E1,9.858555E0,5.072139E1,4.2278414E0,1.9333038E0,4.934929E0,5.396237E1,0E0,3.306858E0,0E0,7.7132154E-1,5.0248723E0,8.0315256E-1,5.042968E0,4.522769E1,6.3764906E-1,3.930357E0,0E0,6.129517E-1,4.9940653E0,8.59884E-1,0E0,0E0,0E0,3.6738405E0,2.7749577E0,4.3919403E1,0E0,0E0,0E0,0E0,0E0,0E0,0E0,0E0,0E0,0E0,0E0,0E0,0E0,0E0,0E0,0E0],"parents":[2147483647,0,0,1,1,2,2,3,3,4,4,5,5,6,6,8,8,10,10,11,11,12,12,13,13,14,14,15,15,16,16,18,18,19,19,20,20,24,24,25,25,26,26],"right_children":[2,4,6,8,10,12,14,-1,16,-1,18,20,22,24,26,28,30,-1,32,34,36,-1,-1,-1,38,40,42,-1,-1,-1,-1,-1,-1,-1,-1,-1,-1,-1,-1,-1,-1,-1,-1],"split_conditions":[4.5329267E-1,1.1591302E-1,5.1160175E-1,2.3466358E-1,1.5537743E-1,1.8427207E-1,3.5150975E-1,1.1575474E-1,8.890587E-2,-6.007241E-2,1.5158625E-1,1.9549313E-1,1.5813348E-1,2.4639937E-1,1.6416848E-1,1.1595867E-1,6.2610604E-2,4.061483E-2,1.6737461E-1,2.1277869E-1,5.7389293E-2,1.2413716E-1,1.2067065E-2,1.1499894E-1,2.3657444E-1,2.2367339E-1,1.707432E-1,7.433928E-2,8.588966E-3,-2.3976615E-2,8.1434585E-3,-3.9677575E-2,1.606283E-2,-1.7175138E-2,8.347751E-2,1.2491464E-1,1.1207539E-2,-2.8506046E-2,1.0458934E-1,-2.6570523E-2,8.115235E-2,-1.5003233E-2,3.1385254E-2],"split_indices":[2583,4457,104,822,489,4517,2289,0,869,0,4553,1815,470,806,833,2583,4457,0,489,1363,4457,0,0,0,797,2666,1920,0,0,0,0,0,0,0,0,0,0,0,0,0,0,0,0],"split_type":[0,0,0,0,0,0,0,0,0,0,0,0,0,0,0,0,0,0,0,0,0,0,0,0,0,0,0,0,0,0,0,0,0,0,0,0,0,0,0,0,0,0,0],"sum_hessian":[5.34665E3,2.9168594E2,5.054964E3,2.1548459E2,7.620137E1,3.7160632E2,4.6833574E3,1.5482035E0,2.1393639E2,6.726551E1,8.935859E0,3.685401E2,3.0662358E0,2.0208176E2,4.481276E3,6.295579E0,2.0764081E2,1.4890265E0,7.4468317E0,3.6546136E2,3.0787323E0,1.949343E0,1.1168927E0,1.556962E0,2.005248E2,1.5922116E2,4.3220547E3,3.7287796E0,2.5667994E0,1.5810706E2,4.953375E1,5.2162604E0,2.2305715E0,3.6143848E2,4.0228753E0,1.9431691E0,1.1355631E0,1.9938663E2,1.1381707E0,1.5773776E2,1.4834001E0,2.1419986E2,4.107855E3],"tree_param":{"num_deleted":"0","num_feature":"5000","num_nodes":"43","size_leaf_vector":"1"}},{"base_weights":[1.9049443E-1,-5.799805E-2,1.9940265E-1,-5.232976E-1,2.0859995E-1,7.299327E-2,-5.651202E-1,2.13581E-1,-5.715517E-2,-5.798714E-1,1.16612995E-2,-5.65673E-2,2.1802655E-1,-5.949828E-2,1.13186715E-2,2.1520477E-2,7.62357E-2],"categories":[],"categories_nodes":[],"categories_segments":[],"categories_sizes":[],"default_left":[0,0,0,0,1,0,1,0,0,1,0,0,1,0,0,0,0],"id":31,"left_children":[1,-1,3,5,7,-1,9,11,-1,13,-1,-1,15,-1,-1,-1,-1],"loss_changes":[3.6646774E1,0E0,3.5087708E1,3.893488E0,2.0317383E1,0E0,7.196045E-1,1.8015045E1,0E0,7.337208E-1,0E0,0E0,7.7249603E0,0E0,0E0,0E0,0E0],"parents":[2147483647,0,0,2,2,3,3,4,4,6,6,7,7,9,9,12,12],"right_children":[2,-1,4,6,8,-1,10,12,-1,14,-1,-1,16,-1,-1,-1,-1],"split_conditions":[3.3884782E-1,-5.799805E-2,1.672213E-1,1.15429714E-1,1.8792753E-1,7.299327E-2,1.7051809E-1,4.3087113E-1,-5.715517E-2,1.8419667E-1,1.16612995E-2,-5.65673E-2,2.1846631E-1,-5.949828E-2,1.13186715E-2,2.1520477E-2,7.62357E-2],"split_indices":[1011,0,2695,1509,4518,0,4098,557,0,3337,0,0,2687,0,0,0,0],"split_type":[0,0,0,0,0,0,0,0,0,0,0,0,0,0,0,0,0],"sum_hessian":[5.3214785E3,6.0090855E1,5.2613877E3,6.541418E1,5.195973E3,1.5811554E0,6.3833027E1,5.1637305E3,3.224274E1,6.2627323E1,1.2057023E0,2.857522E1,5.1351553E3,6.1429432E1,1.19789E0,5.1100605E3,2.509495E1],"tree_param":{"num_deleted":"0","num_feature":"5000","num_nodes":"17","size_leaf_vector":"1"}},{"base_weights":[-3.9927363E-1,5.2172196E-1,-4.2795753E-1,-1.7056401E-1,5.6683475E-1,4.0564317E-1,-4.544226E-1,2.4645087E-1,-4.5004436E-1,-4.4966143E-2,5.8439684E-1,2.9428774E-1,6.7187333E-1,5.2876925E-1,-4.7367E-1,7.453055E-3,2.9650262E-2,-5.7706267E-2,-8.489739E-3,6.435523E-1,2.604895E-1,7.0023894E-1,1.861314E-1,-4.7474857E-2,7.386634E-1,-6.0946703E-2,5.8443266E-1,5.204072E-1,-4.8850226E-1,1.7533477E-2,6.97732E-2,-1.983996E-2,4.5635533E-2,1.51007045E-2,9.020179E-2,1.1624228E-2,7.745505E-2,6.917335E-3,8.1098616E-2,2.3179505E-2,-2.1812845E-2,2.0241534E-2,6.339873E-2,-4.3812778E-2,5.5660672E-2,-4.229365E-2,-5.878235E-2],"categories":[],"categories_nodes":[],"categories_segments":[],"categories_sizes":[],"default_left":[0,0,0,0,0,1,0,0,0,0,1,0,0,0,0,0,0,0,0,0,0,0,1,0,0,0,0,0,0,0,0,0,0,0,0,0,0,0,0,0,0,0,0,0,0,0,0],"id":32,"left_children":[1,3,5,7,9,11,13,15,17,-1,19,21,23,25,27,-1,-1,-1,-1,29,31,33,35,-1,37,39,41,43,45,-1,-1,-1,-1,-1,-1,-1,-1,-1,-1,-1,-1,-1,-1,-1,-1,-1,-1],"loss_changes":[9.462781E1,3.4816399E0,7.665198E1,9.7330505E-1,2.083397E0,2.9798965E0,6.3833923E1,9.011045E-3,1.7290002E-1,0E0,1.7616348E0,3.2659807E0,2.7118063E0,2.1688156E0,4.885144E1,0E0,0E0,0E0,0E0,2.0201988E0,1.6390971E0,1.6271491E0,2.4778562E0,0E0,1.3734932E0,3.501342E-1,9.975796E-1,1.9419804E0,2.0902832E1,0E0,0E0,0E0,0E0,0E0,0E0,0E0,0E0,0E0,0E0,0E0,0E0,0E0,0E0,0E0,0E0,0E0,0E0],"parents":[2147483647,0,0,1,1,2,2,3,3,4,4,5,5,6,6,7,7,8,8,10,10,11,11,12,12,13,13,14,14,19,19,20,20,21,21,22,22,24,24,25,25,26,26,27,27,28,28],"right_children":[2,4,6,8,10,12,14,16,18,-1,20,22,24,26,28,-1,-1,-1,-1,30,32,34,36,-1,38,40,42,44,46,-1,-1,-1,-1,-1,-1,-1,-1,-1,-1,-1,-1,-1,-1,-1,-1,-1,-1],"split_conditions":[3.3884782E-1,1.556075E-1,1.672213E-1,1.6885374E-1,1.7312272E-1,1.1541171E-1,4.6457142E-1,1.4947061E-1,1.7128174E-1,-4.4966143E-2,1.1637811E-1,1.6480902E-1,1.9852044E-1,2.371602E-1,2.1381274E-1,7.453055E-3,2.9650262E-2,-5.7706267E-2,-8.489739E-3,1.7406353E-1,1.860314E-1,8.797161E-2,1.2197409E-1,-4.7474857E-2,1.7053859E-1,1.00618035E-1,1.4112474E-1,2.0766984E-1,3.6973006E-1,1.7533477E-2,6.97732E-2,-1.983996E-2,4.5635533E-2,1.51007045E-2,9.020179E-2,1.1624228E-2,7.745505E-2,6.917335E-3,8.1098616E-2,2.3179505E-2,-2.1812845E-2,2.0241534E-2,6.339873E-2,-4.3812778E-2,5.5660672E-2,-4.229365E-2,-5.878235E-2],"split_indices":[1011,322,2695,408,3795,659,212,322,408,0,2583,3900,3337,3001,557,0,0,0,0,208,332,162,2583,0,4288,162,659,3003,4457,0,0,0,0,0,0,0,0,0,0,0,0,0,0,0,0,0,0],"split_type":[0,0,0,0,0,0,0,0,0,0,0,0,0,0,0,0,0,0,0,0,0,0,0,0,0,0,0,0,0,0,0,0,0,0,0,0,0,0,0,0,0,0,0,0,0,0,0],"sum_hessian":[3.5725276E3,1.07384636E2,3.465143E3,6.3994846E0,1.0098515E2,1.0618492E2,3.358958E3,2.6153226E0,3.784162E0,1.2972274E0,9.968793E1,7.635394E1,2.9830978E1,6.3985683E1,3.2949724E3,1.1509728E0,1.4643499E0,2.3769648E0,1.4071974E0,8.345891E1,1.622902E1,1.4911437E1,6.144251E1,1.305784E0,2.8525194E1,5.510526E0,5.847516E1,4.7939198E1,3.2470332E3,9.095164E0,7.436375E1,4.8509398E0,1.1378079E1,4.4761004E0,1.0435336E1,5.5989895E1,5.452615E0,2.9717987E0,2.5553396E1,1.7592787E0,3.7512474E0,7.298165E0,5.1176994E1,1.3405063E0,4.6598694E1,1.9590482E3,1.287985E3],"tree_param":{"num_deleted":"0","num_feature":"5000","num_nodes":"47","size_leaf_vector":"1"}},{"base_weights":[-1.3401139E-1,1.4933257E-1,-1.5604836E-1,1.3114487E-1,1.3614318E-1,8.8033285E-3,-1.920841E-1,-3.186241E-1,1.6711669E-1,7.6515265E-2,-2.708252E-1,-2.0097275E-1,6.2276524E-1,-1.0726302E-1,-4.3507555E-1,-1.6867632E-1,2.0863324E-1,6.9118686E-2,1.321211E-1,8.801367E-2,-2.8883082E-1,-2.2137947E-1,1.2796608E-1,-2.619417E-1,7.279023E-1,-2.5297448E-2,2.6029592E-2,-5.5678904E-2,-2.0858256E-2,1.9986944E-3,-4.758561E-2,1.1465754E-1,1.9459752E-2,6.281099E-3,1.2869652E-1,5.6457352E-2,-3.0573348E-2,-4.3745507E-3,-2.5568718E-2,1.0892172E-1,1.1064857E-2,9.524151E-3,-4.3089088E-2,7.9801515E-2,-3.802381E-2],"categories":[],"categories_nodes":[],"categories_segments":[],"categories_sizes":[],"default_left":[0,0,0,0,0,0,1,0,0,1,0,1,0,0,1,0,0,1,0,0,0,0,0,1,1,0,0,0,0,0,0,0,0,0,0,0,0,0,0,0,0,0,0,0,0],"id":33,"left_children":[1,3,5,-1,7,9,11,13,15,17,19,21,23,25,27,29,31,33,-1,-1,35,37,39,41,43,-1,-1,-1,-1,-1,-1,-1,-1,-1,-1,-1,-1,-1,-1,-1,-1,-1,-1,-1,-1],"loss_changes":[2.6709877E1,4.556563E0,2.356189E1,0E0,4.371598E0,1.35092E1,2.3698013E1,4.429655E-1,4.0457706E0,5.1958857E0,3.1368055E0,2.1644424E1,3.4799967E0,5.1540846E-1,2.2842813E-1,1.8760562E0,3.1533003E0,4.312811E0,0E0,0E0,2.1589928E0,1.8469543E1,3.0213623E0,3.120823E-1,2.779705E0,0E0,0E0,0E0,0E0,0E0,0E0,0E0,0E0,0E0,0E0,0E0,0E0,0E0,0E0,0E0,0E0,0E0,0E0,0E0,0E0],"parents":[2147483647,0,0,1,1,2,2,4,4,5,5,6,6,7,7,8,8,9,9,10,10,11,11,12,12,13,13,14,14,15,15,16,16,17,17,20,20,21,21,22,22,23,23,24,24],"right_children":[2,4,6,-1,8,10,12,14,16,18,20,22,24,26,28,30,32,34,-1,-1,36,38,40,42,44,-1,-1,-1,-1,-1,-1,-1,-1,-1,-1,-1,-1,-1,-1,-1,-1,-1,-1,-1,-1],"split_conditions":[1.4840566E-1,2.3764308E-1,2.229698E-1,1.3114487E-1,1.4041659E-1,1.3138248E-1,1.4974533E-1,1.3214906E-1,1.4966983E-1,2.3014797E-1,1.6263509E-1,1.2167545E-1,9.9023186E-2,1.343761E-1,1.3903189E-1,5.7249743E-2,1.4050104E-1,2.1607955E-1,1.321211E-1,8.801367E-2,9.511157E-1,1.1846867E-1,2.4097253E-1,1.964185E-1,2.055027E-1,-2.5297448E-2,2.6029592E-2,-5.5678904E-2,-2.0858256E-2,1.9986944E-3,-4.758561E-2,1.1465754E-1,1.9459752E-2,6.281099E-3,1.2869652E-1,5.6457352E-2,-3.0573348E-2,-4.3745507E-3,-2.5568718E-2,1.0892172E-1,1.1064857E-2,9.524151E-3,-4.3089088E-2,7.9801515E-2,-3.802381E-2],"split_indices":[2583,1481,869,0,1442,4457,3505,3081,2374,2896,2898,3081,162,489,489,4457,4553,4126,0,0,4764,3068,402,2059,526,0,0,0,0,0,0,0,0,0,0,0,0,0,0,0,0,0,0,0,0],"split_type":[0,0,0,0,0,0,0,0,0,0,0,0,0,0,0,0,0,0,0,0,0,0,0,0,0,0,0,0,0,0,0,0,0,0,0,0,0,0,0,0,0,0,0,0,0],"sum_hessian":[4.2729233E3,3.07927E2,3.9649963E3,2.3509707E0,3.0557605E2,7.1138745E2,3.253609E3,1.8893024E1,2.86683E2,5.732915E2,1.3809593E2,3.2192456E3,3.4363243E1,7.3939652E0,1.149906E1,3.1207611E1,2.554754E2,5.7095416E2,2.3373508E0,1.389579E0,1.3670636E2,3.031504E3,1.8774168E2,3.4915056E0,3.0871738E1,5.518149E0,1.8758165E0,6.5310674E0,4.967992E0,1.9912632E1,1.1294979E1,2.5769944E0,2.528984E2,5.6905835E2,1.895801E0,2.025752E0,1.346806E2,4.9108765E2,2.5404163E3,2.227046E0,1.8551465E2,1.2612693E0,2.2302363E0,2.9297901E1,1.5738375E0],"tree_param":{"num_deleted":"0","num_feature":"5000","num_nodes":"45","size_leaf_vector":"1"}},{"base_weights":[1.8135554E-1,-4.7326595E-2,2.2103168E-1,-1.4583272E-1,2.4971272E-1,-6.1698806E-2,2.3363224E-1,1.0816219E-1,-1.5230052E-1,2.979052E-1,-6.2301964E-2,-6.65393E-2,2.425875E-1,9.431638E-2,-1.5968192E-1,3.138172E-1,-5.3020705E-2,-6.138267E-2,7.2431654E-2,-6.410835E-2,2.5187802E-1,7.633061E-2,-1.6867237E-2,3.2853525E-2,-5.318272E-2,2.211268E-2,-4.367653E-2,2.6917908E-2,-2.153357E-2],"categories":[],"categories_nodes":[],"categories_segments":[],"categories_sizes":[],"default_left":[0,0,0,0,1,0,0,0,0,1,1,0,0,0,0,1,0,0,0,0,1,0,0,0,0,0,0,0,0],"id":34,"left_children":[1,3,5,7,9,-1,11,-1,13,15,17,-1,19,-1,21,23,-1,-1,25,-1,27,-1,-1,-1,-1,-1,-1,-1,-1],"loss_changes":[4.850125E1,2.3180592E1,4.823645E1,4.885415E0,2.9861088E0,0E0,3.6291626E1,0E0,4.940673E0,2.4212456E0,2.067973E0,0E0,3.664682E1,0E0,5.0185966E0,2.2722054E0,0E0,0E0,1.8213129E0,0E0,3.561319E1,0E0,0E0,0E0,0E0,0E0,0E0,0E0,0E0],"parents":[2147483647,0,0,1,1,2,2,3,3,4,4,6,6,8,8,9,9,10,10,12,12,14,14,15,15,18,18,20,20],"right_children":[2,4,6,8,10,-1,12,-1,14,16,18,-1,20,-1,22,24,-1,-1,26,-1,28,-1,-1,-1,-1,-1,-1,-1,-1],"split_conditions":[2.054546E-1,3.6973006E-1,3.3884782E-1,2.1041687E-1,1.4606778E-1,-6.1698806E-2,4.3087113E-1,1.0816219E-1,2.4683122E-1,1.5742989E-1,1.1024551E-1,-6.65393E-2,2.322807E-1,9.431638E-2,1.291533E-1,1.6202848E-1,-5.3020705E-2,-6.138267E-2,1.861727E-1,-6.410835E-2,1.2576301E-1,7.633061E-2,-1.6867237E-2,3.2853525E-2,-5.318272E-2,2.211268E-2,-4.367653E-2,2.6917908E-2,-2.153357E-2],"split_indices":[869,4457,1011,2399,77,0,557,0,1340,4230,162,0,211,0,705,2150,0,0,101,0,1920,0,0,0,0,0,0,0,0],"split_type":[0,0,0,0,0,0,0,0,0,0,0,0,0,0,0,0,0,0,0,0,0,0,0,0,0,0,0,0,0],"sum_hessian":[5.343383E3,7.8997815E2,4.553405E3,5.9362524E2,1.9635286E2,6.674075E1,4.486664E3,2.240246E0,5.91385E2,1.7012178E2,2.6231081E1,4.352828E1,4.4431357E3,3.1096573E0,5.882754E2,1.675239E2,2.597891E0,4.451844E0,2.1779236E1,4.5519623E1,4.397616E3,4.8654995E0,5.8340985E2,1.6525914E2,2.2647526E0,1.7294615E1,4.484621E0,4.240995E3,1.5662115E2],"tree_param":{"num_deleted":"0","num_feature":"5000","num_nodes":"29","size_leaf_vector":"1"}},{"base_weights":[1.7858547E-1,-5.115823E-1,1.8690494E-1,-5.5338013E-1,4.5878527E-1,-5.7001688E-2,1.937747E-1,3.4912415E-2,-5.825865E-2,5.4216683E-2,1.4879556E-2,1.9855225E-1,-5.643648E-2,-5.6136776E-2,2.0289813E-1,4.081088E-2,1.9429943E-2],"categories":[],"categories_nodes":[],"categories_segments":[],"categories_sizes":[],"default_left":[0,0,0,0,0,0,1,0,0,0,0,0,0,0,0,0,0],"id":35,"left_children":[1,3,5,7,9,-1,11,-1,-1,-1,-1,13,-1,-1,15,-1,-1],"loss_changes":[3.1151215E1,2.877596E0,2.790358E1,1.8500462E0,2.5066733E-3,0E0,1.9300354E1,0E0,0E0,0E0,0E0,1.750235E1,0E0,0E0,9.159866E0,0E0,0E0],"parents":[2147483647,0,0,1,1,2,2,3,3,4,4,6,6,11,11,14,14],"right_children":[2,4,6,8,10,-1,12,-1,-1,-1,-1,14,-1,-1,16,-1,-1],"split_conditions":[1.6588981E-1,1.2178166E-1,3.816054E-1,1.098524E-1,1.2596309E-1,-5.7001688E-2,1.8792753E-1,3.4912415E-2,-5.825865E-2,5.4216683E-2,1.4879556E-2,4.748388E-1,-5.643648E-2,-5.6136776E-2,1.9380529E-1,4.081088E-2,1.9429943E-2],"split_indices":[2695,2807,3505,4660,2583,0,4518,0,0,0,0,4567,0,0,3470,0,0],"split_type":[0,0,0,0,0,0,0,0,0,0,0,0,0,0,0,0,0],"sum_hessian":[5.407654E3,6.3688484E1,5.3439653E3,6.1470417E1,2.2180657E0,4.732784E1,5.296637E3,1.5835488E0,5.9886868E1,1.1576859E0,1.0603797E0,5.264202E3,3.243517E1,2.9205273E1,5.234997E3,2.0866605E2,5.026331E3],"tree_param":{"num_deleted":"0","num_feature":"5000","num_nodes":"17","size_leaf_vector":"1"}},{"base_weights":[-3.8577688E-1,4.286854E-1,-4.1277802E-1,-5.3569462E-2,4.5212653E-1,4.4731587E-1,-4.3704835E-1,3.3154517E-1,6.550086E-1,-5.6641635E-2,4.753487E-1,-4.548676E-1,5.275561E-1,-4.7822706E-2,3.6118045E-1,-1.6196484E-2,6.9105303E-1,-5.081209E-2,4.9707425E-1,4.8574296E-1,-4.7342184E-1,6.029595E-1,-1.4504164E-1,-5.3525098E-2,3.88831E-2,-1.5687734E-2,7.296206E-2,-5.074465E-2,5.1948726E-2,5.0993133E-2,-1.8802736E-2,-4.945055E-2,-1.2253641E-2,7.507278E-2,3.8676906E-2,1.1124305E-2,-3.6729876E-2],"categories":[],"categories_nodes":[],"categories_segments":[],"categories_sizes":[],"default_left":[0,0,0,0,1,0,1,0,0,0,0,0,1,0,0,0,0,0,0,1,1,0,0,0,0,0,0,0,0,0,0,0,0,0,0,0,0],"id":36,"left_children":[1,3,5,-1,7,9,11,13,15,-1,17,19,21,-1,23,-1,25,-1,27,29,31,33,35,-1,-1,-1,-1,-1,-1,-1,-1,-1,-1,-1,-1,-1,-1],"loss_changes":[7.631641E1,2.7647743E0,7.016046E1,0E0,2.4611835E0,2.8972187E0,5.6277527E1,1.8692327E0,1.2835789E0,0E0,2.1869068E0,5.610486E1,3.1099453E0,0E0,1.9126635E0,0E0,1.3668594E0,0E0,2.2691994E0,1.1132517E0,2.3170105E1,1.4277782E0,4.2897993E-1,0E0,0E0,0E0,0E0,0E0,0E0,0E0,0E0,0E0,0E0,0E0,0E0,0E0,0E0],"parents":[2147483647,0,0,1,1,2,2,4,4,5,5,6,6,7,7,8,8,10,10,11,11,12,12,14,14,16,16,18,18,19,19,20,20,21,21,22,22],"right_children":[2,4,6,-1,8,10,12,14,16,-1,18,20,22,-1,24,-1,26,-1,28,30,32,34,36,-1,-1,-1,-1,-1,-1,-1,-1,-1,-1,-1,-1,-1,-1],"split_conditions":[1.6323565E-1,1.2400163E-1,1.867458E-1,-5.3569462E-2,1.1375207E-1,2.1267918E-1,1.6612393E-1,1.2347692E-1,1.9304155E-1,-5.6641635E-2,2.1037827E-1,4.6457142E-1,1.1637811E-1,-4.7822706E-2,2.0382762E-1,-1.6196484E-2,1.6488124E-1,-5.081209E-2,1.851967E-1,2.2048803E-1,1.1989084E-1,7.518682E-2,1.3122009E-1,-5.3525098E-2,3.88831E-2,-1.5687734E-2,7.296206E-2,-5.074465E-2,5.1948726E-2,5.0993133E-2,-1.8802736E-2,-4.945055E-2,-1.2253641E-2,7.507278E-2,3.8676906E-2,1.1124305E-2,-3.6729876E-2],"split_indices":[2695,4870,3505,0,659,420,332,705,768,0,4027,211,2583,0,3683,0,676,0,4916,2709,455,4558,4509,0,0,0,0,0,0,0,0,0,0,0,0,0,0],"split_type":[0,0,0,0,0,0,0,0,0,0,0,0,0,0,0,0,0,0,0,0,0,0,0,0,0,0,0,0,0,0,0,0,0,0,0,0,0],"sum_hessian":[3.4612375E3,1.10587906E2,3.3506497E3,2.1056955E0,1.08482216E2,9.147627E1,3.2591733E3,6.96942E1,3.8788013E1,1.9447343E0,8.953153E1,3.2005771E3,5.8596222E1,1.9261374E0,6.776807E1,1.4913771E0,3.7296635E1,1.451186E0,8.8080345E1,6.142537E1,3.1391519E3,5.278244E1,5.8137817E0,1.478466E0,6.62896E1,1.489151E0,3.5807484E1,1.4500598E0,8.663029E1,5.953136E1,1.89401E0,2.9608347E3,1.7831706E2,2.9883945E1,2.2898495E1,2.932175E0,2.8816066E0],"tree_param":{"num_deleted":"0","num_feature":"5000","num_nodes":"37","size_leaf_vector":"1"}},{"base_weights":[-1.2592562E-1,-1.4830682E-1,1.1960874E-1,2.0361648E-1,-1.6619779E-1,1.1949686E-1,1.1006978E-1,1.8278952E-1,1.2875126E-1,1.3079648E-1,-1.8502024E-1,9.50508E-2,7.271072E-1,1.1485406E-1,1.6838922E-1,1.15101025E-1,1.2566042E-1,-2.0389166E-1,1.3370882E-1,9.752137E-2,8.457589E-2,1.1261848E0,-1.8473727E-1,1.5377546E-2,1.14499465E-1,9.989591E-3,1.1103072E-1,-2.9243694E-3,-2.4167562E-2,1.1905E-1,1.1325774E-2,8.531675E-2,7.301602E-3,9.9079665E-3,1.358323E-1,-3.5595175E-2,6.230022E-3],"categories":[],"categories_nodes":[],"categories_segments":[],"categories_sizes":[],"default_left":[1,0,0,1,0,0,1,0,0,1,1,0,1,0,1,1,0,0,0,0,0,0,0,0,0,0,0,0,0,0,0,0,0,0,0,0,0],"id":37,"left_children":[1,3,5,7,9,-1,11,13,-1,15,17,19,21,-1,23,25,-1,27,29,-1,31,33,35,-1,-1,-1,-1,-1,-1,-1,-1,-1,-1,-1,-1,-1,-1],"loss_changes":[2.3290459E1,2.4473648E1,3.5031872E0,4.0139594E0,2.0676521E1,0E0,3.1959562E0,2.391283E0,0E0,3.756381E0,2.0926773E1,3.0992205E0,3.1998372E0,0E0,2.4541569E0,3.2005475E0,0E0,2.1642624E1,4.0759706E0,0E0,2.977532E0,1.2625265E0,1.6437294E-1,0E0,0E0,0E0,0E0,0E0,0E0,0E0,0E0,0E0,0E0,0E0,0E0,0E0,0E0],"parents":[2147483647,0,0,1,1,2,2,3,3,4,4,6,6,7,7,9,9,10,10,11,11,12,12,14,14,15,15,17,17,18,18,20,20,21,21,22,22],"right_children":[2,4,6,8,10,-1,12,14,-1,16,18,20,22,-1,24,26,-1,28,30,-1,32,34,36,-1,-1,-1,-1,-1,-1,-1,-1,-1,-1,-1,-1,-1,-1],"split_conditions":[1.0643196E-1,1.651945E-1,1.901356E-1,2.1145846E-1,5.4707736E-1,1.1949686E-1,1.19053274E-1,2.4201559E-1,1.2875126E-1,2.101583E-1,1.2407546E-1,1.6953723E-1,5.775309E-2,1.1485406E-1,1.9998616E-1,2.0965031E-1,1.2566042E-1,1.1998238E-1,1.716056E-1,9.752137E-2,2.1463281E-1,1.8036373E-1,1.8745604E-1,1.5377546E-2,1.14499465E-1,9.989591E-3,1.1103072E-1,-2.9243694E-3,-2.4167562E-2,1.1905E-1,1.1325774E-2,8.531675E-2,7.301602E-3,9.9079665E-3,1.358323E-1,-3.5595175E-2,6.230022E-3],"split_indices":[2583,3085,3832,749,2374,0,4870,687,0,2367,2308,4382,2807,0,4941,3386,0,3068,3034,0,2296,332,332,0,0,0,0,0,0,0,0,0,0,0,0,0,0],"split_type":[0,0,0,0,0,0,0,0,0,0,0,0,0,0,0,0,0,0,0,0,0,0,0,0,0,0,0,0,0,0,0,0,0,0,0,0,0],"sum_hessian":[4.233981E3,3.8806445E3,3.5333646E2,1.8723665E2,3.6934077E3,2.0140421E0,3.5132242E2,1.8485335E2,2.3832984E0,2.1976987E2,3.473638E3,3.441009E2,7.2215333E0,1.5587444E0,1.832946E2,2.1783514E2,1.9347112E0,3.2798062E3,1.9383167E2,2.9638145E0,3.411371E2,4.8596134E0,2.3619194E0,1.8173265E2,1.5619574E0,2.1564088E2,2.1942616E0,5.836744E2,2.6961318E3,2.5936773E0,1.9123799E2,3.9760149E0,3.3716107E2,1.1588855E0,3.7007282E0,1.1346471E0,1.2272724E0],"tree_param":{"num_deleted":"0","num_feature":"5000","num_nodes":"37","size_leaf_vector":"1"}},{"base_weights":[1.7901334E-1,-3.5473563E-2,2.1643707E-1,-1.2944697E-1,2.9020885E-1,-2.404916E-1,2.3894492E-1,8.8321376E-1,-1.392325E-1,3.0437028E-1,-5.5614747E-2,-5.7479452E-2,-1.3157126E-1,-4.1923547E-1,2.502736E-1,7.6045753E-3,1.0631951E-1,-1.4651328E-1,1.0542448E-1,-2.0010908E-1,3.278948E-1,9.721973E-2,-1.5003118E-1,1.0559807E-1,-4.6690527E-1,2.6539403E-1,-2.3625861E-1,1.0432736E-1,-1.53429825E-2,3.991144E-2,-3.6916215E-2,-4.9474925E-2,3.4120448E-2,-1.6506309E-2,1.0829405E-1,-5.4633368E-2,5.197049E-2,-6.538418E-2,2.731961E-2,-2.6531175E-2,8.048323E-2],"categories":[],"categories_nodes":[],"categories_segments":[],"categories_sizes":[],"default_left":[0,1,0,0,1,1,0,0,1,0,0,0,0,0,1,0,0,0,0,0,0,0,1,0,1,0,1,0,0,0,0,0,0,0,0,0,0,0,0,0,0],"id":38,"left_children":[1,3,5,7,9,11,13,15,17,19,-1,-1,21,23,25,-1,-1,27,-1,29,31,-1,33,-1,35,37,39,-1,-1,-1,-1,-1,-1,-1,-1,-1,-1,-1,-1,-1,-1],"loss_changes":[4.3539505E1,2.4721926E1,4.754825E1,6.332405E0,2.337657E0,7.8361845E0,3.292328E1,8.10174E-1,5.5548277E0,2.184988E0,0E0,0E0,3.5115573E0,5.7567186E0,3.1898865E1,0E0,0E0,5.2506056E0,0E0,1.0162529E0,2.0411835E0,0E0,3.2059534E0,0E0,6.020252E0,3.0283722E1,4.174907E0,0E0,0E0,0E0,0E0,0E0,0E0,0E0,0E0,0E0,0E0,0E0,0E0,0E0,0E0],"parents":[2147483647,0,0,1,1,2,2,3,3,4,4,5,5,6,6,7,7,8,8,9,9,12,12,13,13,14,14,17,17,19,19,20,20,22,22,24,24,25,25,26,26],"right_children":[2,4,6,8,10,12,14,16,18,20,-1,-1,22,24,26,-1,-1,28,-1,30,32,-1,34,-1,36,38,40,-1,-1,-1,-1,-1,-1,-1,-1,-1,-1,-1,-1,-1,-1],"split_conditions":[2.1331568E-1,1.531286E-1,4.5329267E-1,2.4531673E-1,1.405255E-1,1.0188724E-1,1.9366327E-1,2.4882323E-1,2.1361521E-1,1.7307185E-1,-5.5614747E-2,-5.7479452E-2,2.2802134E-1,1.3350564E-1,1.4033718E-1,7.6045753E-3,1.0631951E-1,1.4890327E-1,1.0542448E-1,1.634349E-1,2.4110799E-1,9.721973E-2,2.1536845E-1,1.0559807E-1,1.1471414E-1,4.3087113E-1,1.693744E-1,1.0432736E-1,-1.53429825E-2,3.991144E-2,-3.6916215E-2,-4.9474925E-2,3.4120448E-2,-1.6506309E-2,1.0829405E-1,-5.4633368E-2,5.197049E-2,-6.538418E-2,2.731961E-2,-2.6531175E-2,8.048323E-2],"split_indices":[869,168,2583,4880,4979,1509,2695,2477,2061,101,0,0,2511,3282,3085,0,0,2150,0,101,754,0,1129,0,705,557,2289,0,0,0,0,0,0,0,0,0,0,0,0,0,0],"split_type":[0,0,0,0,0,0,0,0,0,0,0,0,0,0,0,0,0,0,0,0,0,0,0,0,0,0,0,0,0,0,0,0,0,0,0,0,0,0,0,0,0],"sum_hessian":[5.422244E3,8.055339E2,4.6167104E3,6.256185E2,1.7991533E2,2.1628352E2,4.400427E3,5.133362E0,6.2048517E2,1.7758434E2,2.3310087E0,5.2099697E1,1.6418382E2,7.384972E1,4.326577E3,1.1952968E0,3.9380648E0,6.175948E2,2.8903878E0,7.577593E0,1.7000673E2,1.8508542E0,1.6233296E2,1.6495584E0,7.220016E1,4.1966094E3,1.2996768E2,2.7034721E0,6.148913E2,1.3679372E0,6.209656E0,2.1308541E0,1.6787589E2,1.612334E2,1.0995692E0,6.723367E1,4.966489E0,3.4622364E1,4.161987E3,1.2716414E2,2.8035405E0],"tree_param":{"num_deleted":"0","num_feature":"5000","num_nodes":"41","size_leaf_vector":"1"}},{"base_weights":[1.6428035E-1,-5.6481045E-2,1.708757E-1,-4.801687E-1,1.7803578E-1,-5.247339E-1,6.0898513E-2,1.8225852E-1,-5.576517E-2,5.4653026E-2,-5.584106E-1,-5.5526473E-2,1.8615031E-1,-5.7501443E-2,7.998892E-3,1.8457135E-2,1.1468541E-1],"categories":[],"categories_nodes":[],"categories_segments":[],"categories_sizes":[],"default_left":[0,0,0,1,1,0,0,0,0,0,0,0,1,0,0,0,0],"id":39,"left_children":[1,-1,3,5,7,9,-1,11,-1,-1,13,-1,15,-1,-1,-1,-1],"loss_changes":[2.5959366E1,0E0,2.4936142E1,3.1475058E0,1.6485092E1,2.3438463E0,0E0,1.51562805E1,0E0,0E0,6.3197327E-1,0E0,7.7029877E0,0E0,0E0,0E0,0E0],"parents":[2147483647,0,0,2,2,3,3,4,4,5,5,7,7,10,10,12,12],"right_children":[2,-1,4,6,8,10,-1,12,-1,-1,14,-1,16,-1,-1,-1,-1],"split_conditions":[3.816054E-1,-5.6481045E-2,1.6588981E-1,1.106906E-1,1.8792753E-1,2.0158903E-1,6.0898513E-2,4.748388E-1,-5.576517E-2,5.4653026E-2,6.096855E-2,-5.5526473E-2,1.96165E-1,-5.7501443E-2,7.998892E-3,1.8457135E-2,1.1468541E-1],"split_indices":[3505,0,2695,1509,4518,2518,0,4567,0,0,2807,0,3364,0,0,0,0],"split_type":[0,0,0,0,0,0,0,0,0,0,0,0,0,0,0,0,0],"sum_hessian":[5.377453E3,4.744952E1,5.3300034E3,5.7262234E1,5.272741E3,5.550917E1,1.7530642E0,5.2433975E3,2.9344038E1,1.2276762E0,5.4281494E1,2.677964E1,5.2166177E3,5.300227E1,1.279225E0,5.209248E3,7.369506E0],"tree_param":{"num_deleted":"0","num_feature":"5000","num_nodes":"17","size_leaf_vector":"1"}},{"base_weights":[-3.7443948E-1,4.360155E-1,-4.005743E-1,4.9134263E-1,3.333085E-2,4.0551195E-1,-4.290875E-1,2.4589401E-1,6.0897434E-1,-6.1737683E-2,1.9572166E-1,-5.2716892E-2,4.466698E-1,4.4862455E-1,-4.4808713E-1,3.0782214E-1,-5.948586E-2,-1.9445205E-2,6.3231987E-1,-1.0295133E-1,8.019809E-2,4.7065598E-1,-5.6302994E-2,-4.900745E-2,4.7672763E-1,4.0837628E-1,-4.6269408E-1,3.7493467E-2,-5.8193203E-2,7.0670985E-2,2.5601584E-2,1.6251622E-2,-5.7669498E-2,-5.163136E-2,4.9654838E-2,-5.1150273E-4,5.266434E-2,-5.641851E-2,4.5763403E-2,-3.8997293E-2,-5.7519954E-2],"categories":[],"categories_nodes":[],"categories_segments":[],"categories_sizes":[],"default_left":[0,1,0,0,0,0,0,1,0,0,0,0,1,0,0,0,0,0,1,0,0,0,0,0,0,0,0,0,0,0,0,0,0,0,0,0,0,0,0,0,0],"id":40,"left_children":[1,3,5,7,9,11,13,15,17,-1,19,-1,21,23,25,27,-1,-1,29,31,-1,33,-1,-1,35,37,39,-1,-1,-1,-1,-1,-1,-1,-1,-1,-1,-1,-1,-1,-1],"loss_changes":[7.076611E1,2.313898E0,7.439349E1,2.503231E0,1.5692897E0,4.490114E0,5.2219543E1,1.8204176E0,1.2753334E0,0E0,2.2063978E0,0E0,2.8489552E0,1.9903631E0,3.8392212E1,2.0065055E0,0E0,0E0,1.4969692E0,1.1934197E0,0E0,2.9335442E0,0E0,0E0,1.5699778E0,2.7368202E0,2.4344849E1,0E0,0E0,0E0,0E0,0E0,0E0,0E0,0E0,0E0,0E0,0E0,0E0,0E0,0E0],"parents":[2147483647,0,0,1,1,2,2,3,3,4,4,5,5,6,6,7,7,8,8,10,10,12,12,13,13,14,14,15,15,18,18,19,19,21,21,24,24,25,25,26,26],"right_children":[2,4,6,8,10,12,14,16,18,-1,20,-1,22,24,26,28,-1,-1,30,32,-1,34,-1,-1,36,38,40,-1,-1,-1,-1,-1,-1,-1,-1,-1,-1,-1,-1,-1,-1],"split_conditions":[1.6783102E-1,1.6809428E-1,1.6493684E-1,1.0090663E-1,1.6002105E-1,1.063456E-1,4.6457142E-1,1.6588908E-1,1.8804334E-1,-6.1737683E-2,1.860314E-1,-5.2716892E-2,1.987011E-1,2.236489E-1,2.1381274E-1,1.7235672E-1,-5.948586E-2,-1.9445205E-2,1.1082757E-1,7.7209376E-2,8.019809E-2,1.4087757E-1,-5.6302994E-2,-4.900745E-2,2.081302E-1,2.1267918E-1,3.6973006E-1,3.7493467E-2,-5.8193203E-2,7.0670985E-2,2.5601584E-2,1.6251622E-2,-5.7669498E-2,-5.163136E-2,4.9654838E-2,-5.1150273E-4,5.266434E-2,-5.641851E-2,4.5763403E-2,-3.8997293E-2,-5.7519954E-2],"split_indices":[1011,4657,2695,2726,407,4457,211,4288,2666,0,332,0,2366,1452,557,408,0,0,659,4558,0,2749,0,0,407,420,4457,0,0,0,0,0,0,0,0,0,0,0,0,0,0],"split_type":[0,0,0,0,0,0,0,0,0,0,0,0,0,0,0,0,0,0,0,0,0,0,0,0,0,0,0,0,0,0,0,0,0,0,0,0,0,0,0,0,0],"sum_hessian":[3.3317598E3,1.0359323E2,3.2281665E3,9.088574E1,1.2707486E1,1.09835144E2,3.1183313E3,3.044662E1,6.0439125E1,1.9783494E0,1.0729136E1,4.1429524E0,1.0569219E2,6.559245E1,3.052739E3,2.8948227E1,1.4983944E0,1.4996591E0,5.8939465E1,7.744167E0,2.98497E0,1.0376113E2,1.9310589E0,1.4288132E0,6.416364E1,5.0739254E1,3.0019998E3,2.7455887E1,1.4923394E0,4.847802E1,1.0461444E1,5.3840866E0,2.36008E0,2.1683137E0,1.0159282E2,6.1072392E0,5.8056404E1,1.9420013E0,4.8797253E1,1.8261082E3,1.1758915E3],"tree_param":{"num_deleted":"0","num_feature":"5000","num_nodes":"41","size_leaf_vector":"1"}},{"base_weights":[-1.1794682E-1,1.6802621E-1,-1.342432E-1,1.1430209E-1,1.5359652E-1,3.1328618E-3,-1.6641103E-1,1.4089319E-1,1.2474139E-1,5.4592896E-2,-2.3487867E-1,1.2296886E-1,-1.8681872E-1,1.2802222E-1,1.2468288E-1,4.6190705E-2,1.1414301E-1,-2.5388592E-1,9.9744104E-2,1.07159644E-1,1.1433252E-1,-1.985826E-1,3.3087137E-1,1.2102554E-1,1.1519894E-2,3.731358E-3,9.699194E-2,6.914053E-2,-2.7195027E-2,9.339179E-3,1.23074055E-1,-2.2021554E-2,9.463164E-3,4.294137E-2,-7.8592304E-4],"categories":[],"categories_nodes":[],"categories_segments":[],"categories_sizes":[],"default_left":[0,0,0,0,1,0,0,1,0,1,1,1,1,0,0,1,0,0,0,1,0,