{"learner":{"attributes":{"scikit_learn":"{\"_estimator_type\": \"classifier\"}"},"feature_names":[],"feature_types":[],"gradient_booster":{"model":{"gbtree_model_param":{"num_parallel_tree":"1","num_trees":"1000"},"iteration_indptr":[0,5,10,15,20,25,30,35,40,45,50,55,60,65,70,75,80,85,90,95,100,105,110,115,120,125,130,135,140,145,150,155,160,165,170,175,180,185,190,195,200,205,210,215,220,225,230,235,240,245,250,255,260,265,270,275,280,285,290,295,300,305,310,315,320,325,330,335,340,345,350,355,360,365,370,375,380,385,390,395,400,405,410,415,420,425,430,435,440,445,450,455,460,465,470,475,480,485,490,495,500,505,510,515,520,525,530,535,540,545,550,555,560,565,570,575,580,585,590,595,600,605,610,615,620,625,630,635,640,645,650,655,660,665,670,675,680,685,690,695,700,705,710,715,720,725,730,735,740,745,750,755,760,765,770,775,780,785,790,795,800,805,810,815,820,825,830,835,840,845,850,855,860,865,870,875,880,885,890,895,900,905,910,915,920,925,930,935,940,945,950,955,960,965,970,975,980,985,990,995,1000],"tree_info":[0,1,2,3,4,0,1,2,3,4,0,1,2,3,4,0,1,2,3,4,0,1,2,3,4,0,1,2,3,4,0,1,2,3,4,0,1,2,3,4,0,1,2,3,4,0,1,2,3,4,0,1,2,3,4,0,1,2,3,4,0,1,2,3,4,0,1,2,3,4,0,1,2,3,4,0,1,2,3,4,0,1,2,3,4,0,1,2,3,4,0,1,2,3,4,0,1,2,3,4,0,1,2,3,4,0,1,2,3,4,0,1,2,3,4,0,1,2,3,4,0,1,2,3,4,0,1,2,3,4,0,1,2,3,4,0,1,2,3,4,0,1,2,3,4,0,1,2,3,4,0,1,2,3,4,0,1,2,3,4,0,1,2,3,4,0,1,2,3,4,0,1,2,3,4,0,1,2,3,4,0,1,2,3,4,0,1,2,3,4,0,1,2,3,4,0,1,2,3,4,0,1,2,3,4,0,1,2,3,4,0,1,2,3,4,0,1,2,3,4,0,1,2,3,4,0,1,2,3,4,0,1,2,3,4,0,1,2,3,4,0,1,2,3,4,0,1,2,3,4,0,1,2,3,4,0,1,2,3,4,0,1,2,3,4,0,1,2,3,4,0,1,2,3,4,0,1,2,3,4,0,1,2,3,4,0,1,2,3,4,0,1,2,3,4,0,1,2,3,4,0,1,2,3,4,0,1,2,3,4,0,1,2,3,4,0,1,2,3,4,0,1,2,3,4,0,1,2,3,4,0,1,2,3,4,0,1,2,3,4,0,1,2,3,4,0,1,2,3,4,0,1,2,3,4,0,1,2,3,4,0,1,2,3,4,0,1,2,3,4,0,1,2,3,4,0,1,2,3,4,0,1,2,3,4,0,1,2,3,4,0,1,2,3,4,0,1,2,3,4,0,1,2,3,4,0,1,2,3,4,0,1,2,3,4,0,1,2,3,4,0,1,2,3,4,0,1,2,3,4,0,1,2,3,4,0,1,2,3,4,0,1,2,3,4,0,1,2,3,4,0,1,2,3,4,0,1,2,3,4,0,1,2,3,4,0,1,2,3,4,0,1,2,3,4,0,1,2,3,4,0,1,2,3,4,0,1,2,3,4,0,1,2,3,4,0,1,2,3,4,0,1,2,3,4,0,1,2,3,4,0,1,2,3,4,0,1,2,3,4,0,1,2,3,4,0,1,2,3,4,0,1,2,3,4,0,1,2,3,4,0,1,2,3,4,0,1,2,3,4,0,1,2,3,4,0,1,2,3,4,0,1,2,3,4,0,1,2,3,4,0,1,2,3,4,0,1,2,3,4,0,1,2,3,4,0,1,2,3,4,0,1,2,3,4,0,1,2,3,4,0,1,2,3,4,0,1,2,3,4,0,1,2,3,4,0,1,2,3,4,0,1,2,3,4,0,1,2,3,4,0,1,2,3,4,0,1,2,3,4,0,1,2,3,4,0,1,2,3,4,0,1,2,3,4,0,1,2,3,4,0,1,2,3,4,0,1,2,3,4,0,1,2,3,4,0,1,2,3,4,0,1,2,3,4,0,1,2,3,4,0,1,2,3,4,0,1,2,3,4,0,1,2,3,4,0,1,2,3,4,0,1,2,3,4,0,1,2,3,4,0,1,2,3,4,0,1,2,3,4,0,1,2,3,4,0,1,2,3,4,0,1,2,3,4,0,1,2,3,4,0,1,2,3,4,0,1,2,3,4,0,1,2,3,4,0,1,2,3,4,0,1,2,3,4,0,1,2,3,4,0,1,2,3,4,0,1,2,3,4,0,1,2,3,4,0,1,2,3,4,0,1,2,3,4,0,1,2,3,4,0,1,2,3,4,0,1,2,3,4,0,1,2,3,4,0,1,2,3,4,0,1,2,3,4,0,1,2,3,4,0,1,2,3,4,0,1,2,3,4,0,1,2,3,4,0,1,2,3,4,0,1,2,3,4,0,1,2,3,4,0,1,2,3,4,0,1,2,3,4,0,1,2,3,4,0,1,2,3,4,0,1,2,3,4,0,1,2,3,4,0,1,2,3,4,0,1,2,3,4,0,1,2,3,4,0,1,2,3,4,0,1,2,3,4,0,1,2,3,4,0,1,2,3,4,0,1,2,3,4,0,1,2,3,4,0,1,2,3,4,0,1,2,3,4,0,1,2,3,4,0,1,2,3,4,0,1,2,3,4,0,1,2,3,4,0,1,2,3,4,0,1,2,3,4,0,1,2,3,4,0,1,2,3,4,0,1,2,3,4],"trees":[{"base_weights":[4.244358E-3,2.2570472E0,-1.8048444E-1,2.3763046E0,1.19904075E-2,2.4879459E-1,-3.3487746E-1,-1.9607842E-1,2.4224029E0,1.7283951E-1,-3.739612E-1,2.483311E-1,-4.576952E-1,1.8518519E-2,-4.639175E-2,1.7699115E-1,2.4493785E0,-5.7750758E-2,9.6491225E-2,1.9505113E0,-5.6342906E-1,-3.8461536E-2,6.1643835E-2,-3.508772E-2,2.4631784E0,2.2281775E0,-5.8355432E-2,2.4619134E-1,-6.2480625E-2,-3.508772E-2,2.4771027E-1,-1.9607842E-2,2.328658E-1],"categories":[],"categories_nodes":[],"categories_segments":[],"categories_sizes":[],"default_left":[0,0,0,0,0,0,0,0,0,0,1,0,0,0,0,0,0,0,0,0,0,0,0,0,0,0,0,0,0,0,0,0,0],"id":0,"left_children":[1,3,5,7,9,-1,11,13,15,-1,17,-1,19,-1,-1,21,23,-1,-1,25,27,-1,-1,-1,29,31,-1,-1,-1,-1,-1,-1,-1],"loss_changes":[1.7064705E3,8.317444E1,1.5621816E3,3.546631E1,1.1696004E1,0E0,1.2414355E3,7.1086854E-1,1.7129517E1,0E0,4.492474E0,0E0,8.756477E2,0E0,0E0,1.3526113E0,1.1933472E1,0E0,0E0,1.03100586E2,6.126194E2,0E0,0E0,0E0,1.2043091E1,3.226947E1,0E0,0E0,0E0,0E0,0E0,0E0,0E0],"parents":[2147483647,0,0,1,1,2,2,3,3,4,4,6,6,7,7,8,8,10,10,12,12,15,15,16,16,19,19,20,20,24,24,25,25],"right_children":[2,4,6,8,10,-1,12,14,16,-1,18,-1,20,-1,-1,22,24,-1,-1,26,28,-1,-1,-1,30,32,-1,-1,-1,-1,-1,-1,-1],"split_conditions":[6.309851E-1,3.569064E-1,6.6225815E-1,9.537735E-2,1.569101E-1,2.4879459E-1,6.757371E-1,6.1729517E-2,1.4025141E-1,1.7283951E-1,8.405762E-2,2.483311E-1,6.031024E-1,1.8518519E-2,-4.639175E-2,1.3197432E-1,1.6223584E-1,-5.7750758E-2,9.6491225E-2,3.569064E-1,2.1998236E-1,-3.8461536E-2,6.1643835E-2,-3.508772E-2,3.63353E-1,1.0402791E-1,-5.8355432E-2,2.4619134E-1,-6.2480625E-2,-3.508772E-2,2.4771027E-1,-1.9607842E-2,2.328658E-1],"split_indices":[440,2807,3684,1880,3186,0,4668,4457,624,0,4558,0,705,0,0,440,196,0,0,2807,2851,0,0,0,371,4558,0,0,0,0,0,0,0],"split_type":[0,0,0,0,0,0,0,0,0,0,0,0,0,0,0,0,0,0,0,0,0,0,0,0,0,0,0,0,0,0,0,0,0],"sum_hessian":[4.09856E3,3.0976E2,3.7888003E3,2.9408002E2,1.5680001E1,2.0640001E2,3.5824001E3,5.1200004E0,2.8896002E2,2.2400002E0,1.3440001E1,1.488E2,3.4336003E3,2.2400002E0,2.88E0,3.5200002E0,2.8544003E2,1.2160001E1,1.2800001E0,1.4368001E2,3.2899202E3,1.6000001E0,1.9200001E0,1.2800001E0,2.8416003E2,1.296E2,1.4080001E1,6.464001E1,3.2252803E3,1.2800001E0,2.8288E2,5.1200004E0,1.2448001E2],"tree_param":{"num_deleted":"0","num_feature":"5000","num_nodes":"33","size_leaf_vector":"1"}},{"base_weights":[1.5688086E-1,2.4924086E-1,-4.647007E-2,2.4896677E-1,-2.1969892E-1,2.1858659E0,-3.9220074E-1,-2.0737326E-1,2.266864E0,2.4720107E-1,-4.7158784E-1,-5.279503E-2,4.9382713E-2,-4.9586777E-2,2.3160787E0,2.4693775E-1,-5.479757E-1,5.9171594E-3,2.3749316E-1,2.4679978E-1,-6.2479574E-2],"categories":[],"categories_nodes":[],"categories_segments":[],"categories_sizes":[],"default_left":[0,0,0,0,0,0,0,0,0,0,0,0,0,0,0,0,0,0,0,0,0],"id":1,"left_children":[1,-1,3,-1,5,7,9,11,13,-1,15,-1,-1,-1,17,-1,19,-1,-1,-1,-1],"loss_changes":[1.9527504E3,0E0,1.662576E3,0E0,1.4707107E3,4.6443115E1,7.528799E2,2.2118826E0,3.2349976E1,0E0,7.242095E2,0E0,0E0,0E0,2.9830322E1,0E0,7.283442E2,0E0,0E0,0E0,0E0],"parents":[2147483647,0,0,2,2,4,4,5,5,6,6,7,7,8,8,10,10,14,14,16,16],"right_children":[2,-1,4,-1,6,8,10,12,14,-1,16,-1,-1,-1,18,-1,20,-1,-1,-1,-1],"split_conditions":[6.4244294E-1,2.4924086E-1,5.2794933E-1,2.4896677E-1,7.354823E-1,2.0393062E-1,1.8524769E-1,1.3235849E-1,1.4338233E-1,2.4720107E-1,1.8667719E-1,-5.279503E-2,4.9382713E-2,-4.9586777E-2,1.7346147E-1,2.4693775E-1,1.7603628E-1,5.9171594E-3,2.3749316E-1,2.4679978E-1,-6.2479574E-2],"split_indices":[3531,0,3282,0,712,162,1040,2808,2195,0,727,0,0,0,2941,0,848,0,0,0,0],"split_type":[0,0,0,0,0,0,0,0,0,0,0,0,0,0,0,0,0,0,0,0,0],"sum_hessian":[4.1104004E3,3.2832004E2,3.7820803E3,2.4096002E2,3.5411204E3,2.3616002E2,3.3049602E3,7.6800003E0,2.2848001E2,8.832001E1,3.2166401E3,5.4400005E0,2.2400002E0,3.8400002E0,2.2464001E2,8.064001E1,3.1360002E3,5.76E0,2.1888002E2,7.712E1,3.0588801E3],"tree_param":{"num_deleted":"0","num_feature":"5000","num_nodes":"21","size_leaf_vector":"1"}},{"base_weights":[-4.6410918E-1,2.2570794E0,-5.128026E-1,-2.892562E-1,2.404692E0,2.4483041E-1,-5.487528E-1,8.77193E-3,-4.494382E-2,-3.508772E-2,2.4626417E-1,2.4296962E-1,-5.75533E-1,2.4270712E-1,-6.017697E-1,2.4151967E-1,-6.245804E-1,-6.849315E-3,-6.2483847E-2],"categories":[],"categories_nodes":[],"categories_segments":[],"categories_sizes":[],"default_left":[0,0,0,0,0,0,0,0,0,0,0,0,0,0,0,0,0,0,0],"id":2,"left_children":[1,3,5,7,9,-1,11,-1,-1,-1,-1,-1,13,-1,15,-1,17,-1,-1],"loss_changes":[5.4275433E2,2.7773346E1,4.288944E2,3.3168632E-1,1.1754608E1,0E0,3.17979E2,0E0,0E0,0E0,0E0,0E0,3.1141016E2,0E0,2.6998242E2,0E0,5.130615E-1,0E0,0E0],"parents":[2147483647,0,0,1,1,2,2,3,3,4,4,6,6,12,12,14,14,16,16],"right_children":[2,4,6,8,10,-1,12,-1,-1,-1,-1,-1,14,-1,16,-1,18,-1,-1],"split_conditions":[1.6511591E-1,1.063456E-1,6.2711287E-1,9.5894895E-2,1.377731E-1,2.4483041E-1,2.322807E-1,8.77193E-3,-4.494382E-2,-3.508772E-2,2.4626417E-1,2.4296962E-1,3.7943298E-1,2.4270712E-1,4.3087113E-1,2.4151967E-1,1.672213E-1,-6.849315E-3,-6.2483847E-2],"split_indices":[2695,4457,407,162,568,0,211,0,0,0,0,0,332,0,557,0,2695,0,0],"split_type":[0,0,0,0,0,0,0,0,0,0,0,0,0,0,0,0,0,0,0],"sum_hessian":[4.0864004E3,7.104001E1,4.0153604E3,3.8400002E0,6.7200005E1,4.7360004E1,3.9680002E3,1.2800001E0,2.5600002E0,1.2800001E0,6.5920006E1,3.456E1,3.9334402E3,3.3280003E1,3.9001602E3,2.8480001E1,3.8716802E3,1.9200001E0,3.8697603E3],"tree_param":{"num_deleted":"0","num_feature":"5000","num_nodes":"19","size_leaf_vector":"1"}},{"base_weights":[-1.7065677E-3,-1.8363588E-1,2.2895956E0,-3.8387135E-1,2.271586E0,-4.3763675E-2,2.4314635E0,2.4822088E-1,-5.03063E-1,-3.9548022E-1,2.330768E0,-3.4229827E-1,1.6438356E-1,2.4660761E0,2.1897809E-1,2.4807632E-1,-6.223435E-1,-5.1724136E-2,8.77193E-3,-6.21118E-2,2.3782878E0,5.2631576E-2,-4.5092836E-1,-4.109589E-2,2.4874154E-1,-3.8461536E-2,5.670103E-1,1.5384614E-1,-6.238829E-1,3.0927834E-1,-4.494382E-2,-4.8672568E-2,2.4171941E0,3.8461536E-2,-5.78635E-2,1.15384616E-1,-3.508772E-2,-6.2449902E-2,5.2631576E-2,-3.508772E-2,7.692307E-2,-4.109589E-2,2.4388435E-1],"categories":[],"categories_nodes":[],"categories_segments":[],"categories_sizes":[],"default_left":[1,1,0,0,0,1,1,0,0,0,0,0,0,0,0,0,0,0,0,1,0,0,0,0,0,0,0,0,1,0,0,0,0,0,0,0,0,0,0,0,0,0,0],"id":3,"left_children":[1,3,5,7,9,11,13,-1,15,17,19,21,-1,23,25,-1,27,-1,-1,29,31,-1,33,-1,-1,-1,35,-1,37,39,-1,-1,41,-1,-1,-1,-1,-1,-1,-1,-1,-1,-1],"loss_changes":[1.7102765E3,1.8695292E3,1.00010864E2,1.2021002E3,4.6184692E1,9.77227E0,2.1248657E1,0E0,1.2030035E3,4.6192336E-1,3.2063843E1,1.7810216E0,0E0,1.8214844E1,1.3692644E0,0E0,1.176001E1,0E0,0E0,1.0653903E0,3.1856445E1,0E0,1.8316553E0,0E0,0E0,0E0,2.4948173E0,0E0,2.628418E0,1.4480292E0,0E0,0E0,1.7639038E1,0E0,0E0,0E0,0E0,0E0,0E0,0E0,0E0,0E0,0E0],"parents":[2147483647,0,0,1,1,2,2,3,3,4,4,5,5,6,6,8,8,9,9,10,10,11,11,13,13,14,14,16,16,19,19,20,20,22,22,26,26,28,28,29,29,32,32],"right_children":[2,4,6,8,10,12,14,-1,16,18,20,22,-1,24,26,-1,28,-1,-1,30,32,-1,34,-1,-1,-1,36,-1,38,40,-1,-1,42,-1,-1,-1,-1,-1,-1,-1,-1,-1,-1],"split_conditions":[1.1863536E-1,1.1442362E-1,3.6973006E-1,4.1339678E-1,1.1507622E-1,1.2597853E-1,6.5962635E-2,2.4822088E-1,3.9056754E-1,1.0133495E-1,1.2178214E-1,1.2152481E-1,1.6438356E-1,2.7252752E-1,2.7874625E-1,2.4807632E-1,2.4119356E-1,-5.1724136E-2,8.77193E-3,5.548969E-2,2.5935152E-1,5.2631576E-2,1.1806409E-1,-4.109589E-2,2.4874154E-1,-3.8461536E-2,7.100746E-2,1.5384614E-1,1.1743081E-1,1.4842536E-1,-4.494382E-2,-4.8672568E-2,2.855645E-1,3.8461536E-2,-5.78635E-2,1.15384616E-1,-3.508772E-2,-6.2449902E-2,5.2631576E-2,-3.508772E-2,7.692307E-2,-4.109589E-2,2.4388435E-1],"split_indices":[4988,4431,4457,1035,2321,2195,2807,0,1777,2321,3068,2240,0,3531,712,0,943,0,0,4457,3186,0,2321,0,0,0,2807,0,4988,712,0,0,4668,0,0,0,0,0,0,0,0,0,0],"split_type":[0,0,0,0,0,0,0,0,0,0,0,0,0,0,0,0,0,0,0,0,0,0,0,0,0,0,0,0,0,0,0,0,0,0,0,0,0,0,0,0,0,0,0],"sum_hessian":[4.1008003E3,3.8000002E3,3.0080002E2,3.5142402E3,2.8576E2,1.728E1,2.8352002E2,1.3952E2,3.3747202E3,6.0800004E0,2.7968002E2,1.5360001E1,1.9200001E0,2.7904E2,4.4800005E0,1.2896E2,3.2457603E3,4.8E0,1.2800001E0,5.4400005E0,2.7424002E2,1.2800001E0,1.4080001E1,1.9200001E0,2.7712003E2,1.6000001E0,2.88E0,1.6000001E0,3.2441602E3,2.88E0,2.5600002E0,3.5200002E0,2.7072003E2,1.6000001E0,1.24800005E1,1.6000001E0,1.2800001E0,3.2428801E3,1.2800001E0,1.2800001E0,1.6000001E0,1.9200001E0,2.6880002E2],"tree_param":{"num_deleted":"0","num_feature":"5000","num_nodes":"43","size_leaf_vector":"1"}},{"base_weights":[2.872849E-1,1.0246387E0,-6.2465824E-2,-6.2313117E-2,1.3099313E0,-6.220767E-2,1.5499871E0,-6.208188E-2,1.756108E0,-6.2040575E-2,1.9806944E0,-6.2038403E-2,2.2506396E-1],"categories":[],"categories_nodes":[],"categories_segments":[],"categories_sizes":[],"default_left":[0,0,0,0,0,0,0,0,0,0,0,0,0],"id":4,"left_children":[1,3,-1,-1,5,-1,7,-1,9,-1,11,-1,-1],"loss_changes":[2.7504E3,1.0639302E3,0E0,0E0,8.9516943E2,0E0,7.685718E2,0E0,8.3746045E2,0E0,1.0066763E3,0E0,0E0],"parents":[2147483647,0,0,1,1,4,4,6,6,8,8,10,10],"right_children":[2,4,-1,-1,6,-1,8,-1,10,-1,12,-1,-1],"split_conditions":[3.6973006E-1,6.028122E-1,-6.2465824E-2,-6.2313117E-2,6.000454E-1,-6.220767E-2,3.460787E-1,-6.208188E-2,4.0298498E-1,-6.2040575E-2,6.1307675E-1,-6.2038403E-2,2.2506396E-1],"split_indices":[4457,1174,0,0,2311,0,4873,0,1093,0,77,0,0],"split_type":[0,0,0,0,0,0,0,0,0,0,0,0,0],"sum_hessian":[4.0883203E3,2.2604802E3,1.8278401E3,3.3344003E2,1.9270402E3,2.1280002E2,1.7142401E3,1.4848001E2,1.5657601E3,1.3504001E2,1.4307201E3,1.3440001E2,1.2963201E3],"tree_param":{"num_deleted":"0","num_feature":"5000","num_nodes":"13","size_leaf_vector":"1"}},{"base_weights":[1.3804366E-2,-1.6465186E-1,1.8160352E0,1.970077E-1,-3.1834185E-1,1.8939557E0,2.3488984E-2,1.9811271E-1,-4.4918376E-1,1.07797645E-1,1.9274834E0,1.5200752E-1,-2.9835066E-1,1.9998814E-1,-5.438073E-1,1.2615554E-1,-3.6458325E-1,-3.950819E-2,1.9396889E0,1.2399926E-1,-5.6799866E-2,1.9687751E-1,-6.1443466E-1,-5.006935E-2,1.4839719E-2,-3.759696E-2,1.9511878E0,1.2794696E-2,-6.1474156E-2,1.9580948E-1,7.545806E-3],"categories":[],"categories_nodes":[],"categories_segments":[],"categories_sizes":[],"default_left":[1,0,0,0,0,0,0,0,0,0,0,0,0,0,0,0,1,0,0,0,0,0,0,0,0,0,1,0,0,0,0],"id":5,"left_children":[1,3,5,-1,7,9,11,-1,13,15,17,-1,19,-1,21,-1,23,-1,25,-1,-1,-1,27,-1,-1,-1,29,-1,-1,-1,-1],"loss_changes":[1.3206613E3,1.2264858E3,5.1631226E1,0E0,1.0498068E3,2.1024414E1,8.364712E0,0E0,7.6569635E2,4.5975223E0,1.0630127E1,0E0,6.658414E0,0E0,5.6507654E2,0E0,5.0455606E-1,0E0,9.954712E0,0E0,0E0,0E0,7.82959E-1,0E0,0E0,0E0,4.3187256E0,0E0,0E0,0E0,0E0],"parents":[2147483647,0,0,1,1,2,2,4,4,5,5,6,6,8,8,9,9,10,10,12,12,14,14,16,16,18,18,22,22,26,26],"right_children":[2,4,6,-1,8,10,12,-1,14,16,18,-1,20,-1,22,-1,24,-1,26,-1,-1,-1,28,-1,-1,-1,30,-1,-1,-1,-1],"split_conditions":[1.11002624E-1,6.6225815E-1,3.569064E-1,1.970077E-1,7.315774E-1,9.7310945E-2,1.7922756E-1,1.9811271E-1,6.757371E-1,2.933503E-1,1.6260861E-1,1.5200752E-1,2.0088176E-1,1.9998814E-1,3.4583873E-1,1.2615554E-1,1.0905498E-1,-3.950819E-2,1.6223584E-1,1.2399926E-1,-5.6799866E-2,1.9687751E-1,1.11002624E-1,-5.006935E-2,1.4839719E-2,-3.759696E-2,1.4605209E-1,1.2794696E-2,-6.1474156E-2,1.9580948E-1,7.545806E-3],"split_indices":[440,3226,2807,0,3442,1880,4668,0,4668,77,568,0,425,0,336,0,869,0,196,0,0,0,440,0,0,0,4870,0,0,0,0],"split_type":[0,0,0,0,0,0,0,0,0,0,0,0,0,0,0,0,0,0,0,0,0,0,0,0,0,0,0,0,0,0,0],"sum_hessian":[4.104358E3,3.7353894E3,3.6896826E2,2.5007463E2,3.4853147E3,3.5354343E2,1.5424829E1,1.8687938E2,3.2984353E3,6.5917087E0,3.4695172E2,2.0710692E0,1.3353759E1,1.2195064E2,3.1764849E3,1.4295356E0,5.1621733E0,1.6497684E0,3.4530194E2,1.454913E0,1.1898846E1,8.611321E1,3.0903716E3,4.0986276E0,1.0635455E0,1.5496002E0,3.4375235E2,1.1050718E0,3.0892664E3,3.4244748E2,1.3048853E0],"tree_param":{"num_deleted":"0","num_feature":"5000","num_nodes":"31","size_leaf_vector":"1"}},{"base_weights":[1.5195918E-1,1.9606583E-1,-3.6953356E-2,1.8310724E0,-2.225955E-1,1.9009463E0,-4.6583995E-1,1.7426498E0,-3.890058E-1,-4.6443336E-2,1.9247118E0,-5.4937482E-2,8.665622E-3,-5.29598E-2,1.7984438E0,1.9540273E-1,-5.0002974E-1,-3.7058212E-2,1.936662E0,-4.895038E-2,1.8493762E0,1.9527292E-1,-6.144578E-2,-3.3706944E-2,1.9463018E-1,6.3168645E-2,-2.468508E-2,-1.483803E-2,1.8843935E-1],"categories":[],"categories_nodes":[],"categories_segments":[],"categories_sizes":[],"default_left":[0,0,0,0,0,0,1,0,0,0,0,0,0,0,0,0,0,0,0,0,0,0,0,0,0,0,0,0,0],"id":6,"left_children":[1,-1,3,5,7,9,11,13,15,-1,17,-1,-1,-1,19,-1,21,-1,23,25,27,-1,-1,-1,-1,-1,-1,-1,-1],"loss_changes":[1.4056583E3,0E0,1.2923984E3,5.49541E1,1.1092498E3,1.9283936E1,5.4370236E-1,3.4524048E1,8.1413544E2,0E0,9.607056E0,0E0,0E0,0E0,2.4431091E1,0E0,8.3907086E2,0E0,7.725952E0,1.2220508E0,1.78927E1,0E0,0E0,0E0,0E0,0E0,0E0,0E0,0E0],"parents":[2147483647,0,0,2,2,3,3,4,4,5,5,6,6,7,7,8,8,10,10,14,14,16,16,18,18,19,19,20,20],"right_children":[2,-1,4,6,8,10,12,14,16,-1,18,-1,-1,-1,20,-1,22,-1,24,26,28,-1,-1,-1,-1,-1,-1,-1,-1],"split_conditions":[6.4244294E-1,1.9606583E-1,5.606228E-1,3.569064E-1,7.354823E-1,1.231647E-1,9.4024606E-2,1.3235849E-1,3.63353E-1,-4.6443336E-2,1.8243766E-1,-5.4937482E-2,8.665622E-3,-5.29598E-2,4.737715E-1,1.9540273E-1,1.78707E-1,-3.7058212E-2,2.0408097E-1,1.4907067E-1,1.2850589E-1,1.9527292E-1,-6.144578E-2,-3.3706944E-2,1.9463018E-1,6.3168645E-2,-2.468508E-2,-1.483803E-2,1.8843935E-1],"split_indices":[3531,0,624,2807,712,2808,1880,2808,370,0,944,0,0,0,869,0,119,0,2332,2405,2240,0,0,0,0,0,0,0,0],"split_type":[0,0,0,0,0,0,0,0,0,0,0,0,0,0,0,0,0,0,0,0,0,0,0,0,0,0,0,0,0],"sum_hessian":[4.1126777E3,3.8804575E2,3.724632E3,3.3588843E2,3.3887437E3,3.261394E2,9.74901E0,2.63807E2,3.1249368E3,3.0597637E0,3.2307965E2,8.473505E0,1.275505E0,6.1188865E0,2.576881E2,1.4062416E2,2.9843125E3,1.5179293E0,3.215617E2,6.9148626E0,2.5077325E2,1.3230466E2,2.8520078E3,1.2141417E0,3.2034756E2,1.0638913E0,5.850971E0,4.2641344E0,2.4650911E2],"tree_param":{"num_deleted":"0","num_feature":"5000","num_nodes":"29","size_leaf_vector":"1"}},{"base_weights":[-4.462152E-1,1.9511269E-1,-5.007002E-1,1.8097632E0,-5.5078137E-1,-2.2606587E-1,1.8927865E0,1.9392811E-1,-5.8403933E-1,1.0370383E-2,-4.0446084E-2,-3.4121115E-2,1.9325691E0,1.9325227E-1,-6.1419505E-1,5.9152346E-2,1.9444379E-1,-6.419224E-3,-6.144614E-2],"categories":[],"categories_nodes":[],"categories_segments":[],"categories_sizes":[],"default_left":[0,0,0,0,0,0,0,0,0,0,0,0,0,0,0,0,0,0,0],"id":7,"left_children":[1,-1,3,5,7,9,11,-1,13,-1,-1,-1,15,-1,17,-1,-1,-1,-1],"loss_changes":[5.17118E2,0E0,4.48159E2,1.4325134E1,3.1444116E2,2.8402776E-1,7.690033E0,0E0,2.8456787E2,0E0,0E0,0E0,8.929443E-2,0E0,5.012207E-1,0E0,0E0,0E0,0E0],"parents":[2147483647,0,0,2,2,3,3,4,4,5,5,6,6,8,8,12,12,14,14],"right_children":[2,-1,4,6,8,10,12,-1,14,-1,-1,-1,16,-1,18,-1,-1,-1,-1],"split_conditions":[3.3884782E-1,1.9511269E-1,1.6511591E-1,1.063456E-1,4.6457142E-1,1.5508357E-1,1.4576691E-1,1.9392811E-1,4.3087113E-1,1.0370383E-2,-4.0446084E-2,-3.4121115E-2,1.9471955E-1,1.9325227E-1,1.672213E-1,5.9152346E-2,1.9444379E-1,-6.419224E-3,-6.144614E-2],"split_indices":[1011,0,2695,4457,211,2695,570,0,759,0,0,0,3786,0,2695,0,0,0,0],"split_type":[0,0,0,0,0,0,0,0,0,0,0,0,0,0,0,0,0,0,0],"sum_hessian":[3.9504976E3,8.701512E1,3.8634824E3,8.122201E1,3.7822605E3,3.1150217E0,7.810699E1,4.909574E1,3.7331648E3,1.2405336E0,1.8744882E0,1.2340119E0,7.687297E1,4.345743E1,3.6897073E3,1.1203833E0,7.575259E1,1.9032694E0,3.687804E3],"tree_param":{"num_deleted":"0","num_feature":"5000","num_nodes":"19","size_leaf_vector":"1"}},{"base_weights":[-6.4685554E-3,1.9686735E-1,-2.3283681E-1,-3.706817E-1,1.7872163E0,1.9509892E-1,-4.496223E-1,-2.614514E-1,1.8446695E0,1.9498654E-1,-5.314195E-1,-4.8645906E-2,1.077996E-1,-4.3914E-2,1.8715181E0,1.9561134E-1,-6.129944E-1,6.690692E-2,-3.77195E-2,-4.3610867E-2,1.8986219E0,-6.1456185E-2,5.328971E-2,-4.214247E-2,1.9230635E-1],"categories":[],"categories_nodes":[],"categories_segments":[],"categories_sizes":[],"default_left":[0,0,1,0,0,0,0,0,0,0,0,0,0,0,0,0,1,0,0,0,0,0,0,0,0],"id":8,"left_children":[1,-1,3,5,7,-1,9,11,13,-1,15,-1,17,-1,19,-1,21,-1,-1,-1,23,-1,-1,-1,-1],"loss_changes":[1.8288068E3,0E0,1.02250037E3,6.3062415E2,2.8093872E1,0E0,6.534258E2,6.568972E-1,1.4821533E1,0E0,6.536132E2,0E0,1.2250562E0,0E0,1.4953735E1,0E0,5.92041E0,0E0,0E0,0E0,1.3479431E1,0E0,0E0,0E0,0E0],"parents":[2147483647,0,0,2,2,3,3,4,4,6,6,7,7,8,8,10,10,12,12,14,14,16,16,20,20],"right_children":[2,-1,4,6,8,-1,10,12,14,-1,16,-1,18,-1,20,-1,22,-1,-1,-1,24,-1,-1,-1,-1],"split_conditions":[6.0335636E-1,1.9686735E-1,1.21972136E-1,4.1339678E-1,7.9703785E-2,1.9509892E-1,3.9056754E-1,6.764523E-2,2.4179609E-1,1.9498654E-1,4.0298498E-1,-4.8645906E-2,7.100746E-2,-4.3914E-2,1.5581702E-1,1.9561134E-1,1.1743081E-1,6.690692E-2,-3.77195E-2,-4.3610867E-2,1.4424051E-1,-6.1456185E-2,5.328971E-2,-4.214247E-2,1.9230635E-1],"split_indices":[3578,0,4988,1035,2807,0,1776,2807,104,0,1093,0,2807,0,639,0,4988,0,0,0,2241,0,0,0,0],"split_type":[0,0,0,0,0,0,0,0,0,0,0,0,0,0,0,0,0,0,0,0,0,0,0,0,0],"sum_hessian":[4.0882634E3,4.1958047E2,3.6686829E3,3.4350945E3,2.3358833E2,1.1217822E2,3.3229163E3,6.2752256E0,2.2731311E2,1.0878926E2,3.214127E3,3.7019658E0,2.5732596E0,2.4628394E0,2.2485027E2,1.01326035E2,3.112801E3,1.0168965E0,1.5563631E0,2.4350843E0,2.2241519E2,3.1090117E3,3.7891772E0,2.1493883E0,2.202658E2],"tree_param":{"num_deleted":"0","num_feature":"5000","num_nodes":"25","size_leaf_vector":"1"}},{"base_weights":[2.8083858E-1,1.9966063E-1,7.445807E-2,1.4172624E0,-2.1751982E-1,-6.1012764E-2,1.9236989E0,1.9890104E-1,-3.3857277E-1,-4.623368E-2,1.9382589E0,1.9878216E-1,-4.7020665E-1,-4.4201728E-2,1.9503167E0,1.988578E-1,-6.160299E-2,-3.966393E-2,1.9592115E-1],"categories":[],"categories_nodes":[],"categories_segments":[],"categories_sizes":[],"default_left":[0,0,0,0,0,0,0,0,0,0,0,0,0,0,0,0,0,0,0],"id":9,"left_children":[1,-1,3,5,7,-1,9,-1,11,-1,13,-1,15,-1,17,-1,-1,-1,-1],"loss_changes":[1.4756959E3,0E0,1.4593545E3,6.837411E2,8.173827E2,0E0,1.9383667E1,0E0,8.888389E2,0E0,1.604834E1,0E0,9.854325E2,0E0,1.1770996E1,0E0,0E0,0E0,0E0],"parents":[2147483647,0,0,2,2,3,3,4,4,6,6,8,8,10,10,12,12,14,14],"right_children":[2,-1,4,6,8,-1,10,-1,12,-1,14,-1,16,-1,18,-1,-1,-1,-1],"split_conditions":[5.1160175E-1,1.9966063E-1,4.737715E-1,6.4317495E-1,3.5428E-1,-6.1012764E-2,2.146151E-1,1.9890104E-1,3.4486097E-1,-4.623368E-2,1.7444958E-1,1.9878216E-1,3.5195303E-1,-4.4201728E-2,1.7515427E-1,1.988578E-1,-6.160299E-2,-3.966393E-2,1.9592115E-1],"split_indices":[104,0,869,924,491,0,4660,0,196,0,4668,0,0,0,536,0,0,0,0],"split_type":[0,0,0,0,0,0,0,0,0,0,0,0,0,0,0,0,0,0,0],"sum_hessian":[4.1668633E3,4.464636E2,3.7203997E3,6.637882E2,3.0566116E3,1.3263055E2,5.3115765E2,1.5816573E2,2.8984458E3,3.0350404E0,5.281226E2,1.5446428E2,2.7439817E3,2.4821093E0,5.256405E2,1.5291881E2,2.5910627E3,1.8200287E0,5.238205E2],"tree_param":{"num_deleted":"0","num_feature":"5000","num_nodes":"19","size_leaf_vector":"1"}},{"base_weights":[1.148702E-2,1.5184757E0,-2.1106339E-1,-5.8406007E-2,1.636985E-1,-3.9059743E-1,1.4882885E0,1.6822097E-1,-5.1444775E-1,1.5633231E0,-2.9287624E-1,1.6214098E-1,-6.048004E-1,-4.578146E-2,1.5836761E0,1.1713556E-1,-5.5887874E-2,1.2284705E-2,-6.051259E-2,-4.8684906E-2,1.6016085E0,-4.1326404E-2,3.4650307E-2,-3.463885E-2,1.6105153E-1],"categories":[],"categories_nodes":[],"categories_segments":[],"categories_sizes":[],"default_left":[0,0,1,0,0,0,0,0,0,0,0,0,0,0,0,0,0,0,0,0,0,0,0,0,0],"id":10,"left_children":[1,3,5,-1,-1,7,9,-1,11,13,15,-1,17,-1,19,-1,-1,-1,-1,21,23,-1,-1,-1,-1],"loss_changes":[1.347373E3,1.2976416E2,1.0685656E3,0E0,0E0,8.1385004E2,4.5189697E1,0E0,5.7781006E2,1.3943054E1,6.2523527E0,0E0,7.537842E-1,0E0,9.3966675E0,0E0,0E0,0E0,0E0,7.81418E-1,6.0218506E0,0E0,0E0,0E0,0E0],"parents":[2147483647,0,0,1,1,2,2,5,5,6,6,8,8,9,9,10,10,12,12,14,14,19,19,20,20],"right_children":[2,4,6,-1,-1,8,10,-1,12,14,16,-1,18,-1,20,-1,-1,-1,-1,22,24,-1,-1,-1,-1],"split_conditions":[6.028122E-1,2.1543057E-1,1.11002624E-1,-5.8406007E-2,1.636985E-1,6.757371E-1,3.569064E-1,1.6822097E-1,4.4372785E-1,9.154754E-2,2.0049907E-1,1.6214098E-1,1.11002624E-1,-4.578146E-2,1.4025141E-1,1.1713556E-1,-5.5887874E-2,1.2284705E-2,-6.051259E-2,1.7028387E-1,3.63353E-1,-4.1326404E-2,3.4650307E-2,-3.463885E-2,1.6105153E-1],"split_indices":[1174,759,440,0,0,4668,2807,0,2332,1880,1087,0,440,0,624,0,0,0,0,536,370,0,0,0,0],"split_type":[0,0,0,0,0,0,0,0,0,0,0,0,0,0,0,0,0,0,0,0,0,0,0,0,0],"sum_hessian":[4.0154854E3,5.159479E2,3.4995376E3,2.7320065E1,4.8862784E2,3.1658413E3,3.3369632E2,1.7778471E2,2.9880564E3,3.2032443E2,1.3371915E1,1.20585144E2,2.8674714E3,2.9792385E0,3.1734518E2,1.5325146E0,1.18394E1,1.1138352E0,2.8663574E3,3.4297109E0,3.1391547E2,1.7601506E0,1.6695604E0,1.256309E0,3.1265915E2],"tree_param":{"num_deleted":"0","num_feature":"5000","num_nodes":"25","size_leaf_vector":"1"}},{"base_weights":[1.3899493E-1,1.6296582E-1,-3.6464743E-2,1.6382265E-1,-2.0682153E-1,1.6306716E-1,-3.6022338E-1,1.644663E-1,-4.404254E-1,1.633213E-1,-5.210136E-1,1.6268884E-1,-6.0524363E-2],"categories":[],"categories_nodes":[],"categories_segments":[],"categories_sizes":[],"default_left":[0,0,0,0,0,0,0,0,0,0,0,0,0],"id":11,"left_children":[1,-1,3,-1,5,-1,7,-1,9,-1,11,-1,-1],"loss_changes":[1.0723136E3,0E0,1.0470416E3,0E0,9.3950696E2,0E0,4.9519443E2,0E0,4.951056E2,0E0,5.161955E2,0E0,0E0],"parents":[2147483647,0,0,2,2,4,4,6,6,8,8,10,10],"right_children":[2,-1,4,-1,6,-1,8,-1,10,-1,12,-1,-1],"split_conditions":[6.4244294E-1,1.6296582E-1,6.000454E-1,1.6382265E-1,5.2794933E-1,1.6306716E-1,3.6382973E-1,1.644663E-1,3.63353E-1,1.633213E-1,3.880415E-1,1.6268884E-1,-6.0524363E-2],"split_indices":[3531,0,2311,0,3282,0,722,0,370,0,536,0,0],"split_type":[0,0,0,0,0,0,0,0,0,0,0,0,0],"sum_hessian":[4.098594E3,4.3075085E2,3.6678435E3,3.3786337E2,3.32998E3,2.5583864E2,3.0741414E3,1.1749516E2,2.9566462E3,1.0988546E2,2.8467607E3,1.067321E2,2.7400288E3],"tree_param":{"num_deleted":"0","num_feature":"5000","num_nodes":"13","size_leaf_vector":"1"}},{"base_weights":[-4.361661E-1,1.6242056E-1,-4.881204E-1,1.4923096E0,-5.387409E-1,-4.7247086E-2,1.5715337E0,1.6190013E-1,-5.7489896E-1,-3.317244E-2,1.6012169E0,1.6111742E-1,-6.045864E-1,4.992531E-2,1.6113158E0,9.212795E-3,-6.048668E-2,5.1651474E-2,1.6209285E-1],"categories":[],"categories_nodes":[],"categories_segments":[],"categories_sizes":[],"default_left":[0,0,0,0,0,0,0,0,0,0,0,0,0,0,0,0,0,0,0],"id":12,"left_children":[1,-1,3,5,7,-1,9,-1,11,-1,13,-1,15,-1,17,-1,-1,-1,-1],"loss_changes":[4.0417023E2,0E0,3.6936194E2,1.5046341E1,2.8066943E2,0E0,5.5344543E0,0E0,2.2988086E2,0E0,1.6790771E-1,0E0,7.3583984E-1,0E0,6.921387E-2,0E0,0E0,0E0,0E0],"parents":[2147483647,0,0,2,2,3,3,4,4,6,6,8,8,10,10,12,12,14,14],"right_children":[2,-1,4,6,8,-1,10,-1,12,-1,14,-1,16,-1,18,-1,-1,-1,-1],"split_conditions":[3.3884782E-1,1.6242056E-1,1.6511591E-1,5.456389E-2,4.6457142E-1,-4.7247086E-2,1.377731E-1,1.6190013E-1,4.3087113E-1,-3.317244E-2,2.0158903E-1,1.6111742E-1,1.672213E-1,4.992531E-2,1.9311099E-1,9.212795E-3,-6.048668E-2,5.1651474E-2,1.6209285E-1],"split_indices":[1011,0,2695,4457,212,0,568,0,557,0,2518,0,2695,0,4076,0,0,0,0],"split_type":[0,0,0,0,0,0,0,0,0,0,0,0,0,0,0,0,0,0,0],"sum_hessian":[3.767291E3,9.1915146E1,3.675376E3,9.0892685E1,3.5844832E3,3.330544E0,8.756214E1,5.8355064E1,3.5261282E3,1.1883876E0,8.637376E1,4.6530403E1,3.479598E3,1.2424127E0,8.513134E1,1.2680895E0,3.4783296E3,1.2173471E0,8.3913994E1],"tree_param":{"num_deleted":"0","num_feature":"5000","num_nodes":"19","size_leaf_vector":"1"}},{"base_weights":[-1.3352286E-2,1.6352874E-1,-2.3147318E-1,1.6334383E-1,-3.5988638E-1,-4.7444978E-1,1.4282916E0,1.620298E-1,-5.421385E-1,-3.4000367E-1,1.5754769E0,1.6188544E-1,-6.0495276E-2,-4.482364E-1,6.1362404E-2,2.1099469E-2,1.6143328E0,-5.7128754E-2,3.2683272E-2,-4.123465E-2,3.6332548E-2,-3.673549E-2,1.6312864E-1],"categories":[],"categories_nodes":[],"categories_segments":[],"categories_sizes":[],"default_left":[0,0,0,0,1,0,0,0,0,1,0,0,0,1,0,0,0,0,0,0,0,0,0],"id":13,"left_children":[1,-1,3,-1,5,7,9,-1,11,13,15,-1,-1,17,-1,19,21,-1,-1,-1,-1,-1,-1],"loss_changes":[1.4541785E3,0E0,8.5583795E2,0E0,6.8532764E2,4.4632422E2,5.297238E1,0E0,4.1417285E2,1.9578081E0,1.1209961E1,0E0,0E0,1.6382678E0,0E0,9.7360927E-1,6.7009583E0,0E0,0E0,0E0,0E0,0E0,0E0],"parents":[2147483647,0,0,2,2,4,4,5,5,6,6,8,8,9,9,10,10,13,13,15,15,16,16],"right_children":[2,-1,4,-1,6,8,10,-1,12,14,16,-1,-1,18,-1,20,22,-1,-1,-1,-1,-1,-1],"split_conditions":[6.0335636E-1,1.6352874E-1,6.694782E-1,1.6334383E-1,1.1743081E-1,1.9804767E-1,3.6973006E-1,1.620298E-1,3.9056754E-1,1.308906E-1,7.496783E-2,1.6188544E-1,-6.0495276E-2,8.639956E-2,6.1362404E-2,9.616978E-2,1.8974069E-1,-5.7128754E-2,3.2683272E-2,-4.123465E-2,3.6332548E-2,-3.673549E-2,1.6312864E-1],"split_indices":[3578,0,3422,0,4988,1035,4457,0,1776,498,2807,0,0,2321,0,4558,367,0,0,0,0,0,0],"split_type":[0,0,0,0,0,0,0,0,0,0,0,0,0,0,0,0,0,0,0,0,0,0,0],"sum_hessian":[4.0417942E3,4.715027E2,3.5702915E3,2.292489E2,3.3410425E3,3.1405698E3,2.0047258E2,9.758836E1,3.0429817E3,1.5303636E1,1.8516895E2,8.525315E1,2.9577285E3,1.4219724E1,1.0839118E0,4.553545E0,1.806154E2,1.24983835E1,1.7213405E0,1.9186217E0,2.6349232E0,1.3567568E0,1.7925864E2],"tree_param":{"num_deleted":"0","num_feature":"5000","num_nodes":"23","size_leaf_vector":"1"}},{"base_weights":[2.592547E-1,8.077311E-1,-6.0472306E-2,-6.0324278E-2,9.9243724E-1,-6.020974E-2,1.1347573E0,-6.00711E-2,1.2521553E0,-6.0040683E-2,1.380823E0,-6.0009625E-2,1.5158977E-1],"categories":[],"categories_nodes":[],"categories_segments":[],"categories_sizes":[],"default_left":[0,0,0,0,0,0,0,0,0,0,0,0,0],"id":14,"left_children":[1,3,-1,-1,5,-1,7,-1,9,-1,11,-1,-1],"loss_changes":[1.9942877E3,6.714429E2,0E0,0E0,5.172976E2,0E0,4.2663135E2,0E0,4.675918E2,0E0,4.9091846E2,0E0,0E0],"parents":[2147483647,0,0,1,1,4,4,6,6,8,8,10,10],"right_children":[2,4,-1,-1,6,-1,8,-1,10,-1,12,-1,-1],"split_conditions":[3.6973006E-1,6.028122E-1,-6.0472306E-2,-6.0324278E-2,6.000454E-1,-6.020974E-2,3.460787E-1,-6.00711E-2,6.1307675E-1,-6.0040683E-2,4.0298498E-1,-6.0009625E-2,1.5158977E-1],"split_indices":[4457,1174,0,0,2311,0,4873,0,77,0,1093,0,0],"split_type":[0,0,0,0,0,0,0,0,0,0,0,0,0],"sum_hessian":[4.2064683E3,2.5730757E3,1.6333928E3,2.9758118E2,2.2754944E3,1.8619221E2,2.0893022E3,1.321177E2,1.9571846E3,1.268681E2,1.8303165E3,1.166186E2,1.7136979E3],"tree_param":{"num_deleted":"0","num_feature":"5000","num_nodes":"13","size_leaf_vector":"1"}},{"base_weights":[7.832494E-3,1.3027133E0,-1.5265961E-1,-1.7409368E-1,1.3344153E0,1.4168285E-1,-2.9881617E-1,8.803114E-2,-4.3287277E-1,-3.3440122E-1,1.3536783E0,1.4214407E-1,-4.279714E-1,8.382667E-3,-5.3209852E-2,-4.7432642E-2,1.567547E-2,-2.7049956E-1,1.3682017E0,1.447286E-1,-5.2463746E-1,1.5857363E-2,-4.357468E-2,-3.883839E-2,1.3759694E0,1.4068949E-1,-5.963945E-2,-3.6856856E-2,1.3825074E-1],"categories":[],"categories_nodes":[],"categories_segments":[],"categories_sizes":[],"default_left":[0,0,0,0,0,0,0,0,0,0,0,0,0,0,0,0,0,0,0,0,0,0,0,0,0,0,0,0,0],"id":15,"left_children":[1,3,5,7,9,-1,11,-1,13,15,17,-1,19,-1,-1,-1,-1,21,23,-1,25,-1,-1,-1,27,-1,-1,-1,-1],"loss_changes":[8.2100275E2,2.062854E1,8.067265E2,3.1205673E0,1.4166748E1,0E0,7.152191E2,0E0,4.9228716E-1,4.6402752E-1,1.032312E1,0E0,5.4322266E2,0E0,0E0,0E0,0E0,3.934443E-1,6.242859E0,0E0,3.953733E2,0E0,0E0,0E0,5.2628174E0,0E0,0E0,0E0,0E0],"parents":[2147483647,0,0,1,1,2,2,3,3,4,4,6,6,8,8,9,9,10,10,12,12,17,17,18,18,20,20,24,24],"right_children":[2,4,6,8,10,-1,12,-1,14,16,18,-1,20,-1,-1,-1,-1,22,24,-1,26,-1,-1,-1,28,-1,-1,-1,-1],"split_conditions":[6.309851E-1,1.0090298E-1,6.6225815E-1,1.748833E-1,1.1257972E-1,1.4168285E-1,7.315774E-1,8.803114E-2,5.7596747E-2,1.3354975E-1,9.9430494E-2,1.4214407E-1,6.757371E-1,8.382667E-3,-5.3209852E-2,-4.7432642E-2,1.567547E-2,1.3656373E-1,1.6223584E-1,1.447286E-1,3.4583873E-1,1.5857363E-2,-4.357468E-2,-3.883839E-2,1.6260861E-1,1.4068949E-1,-5.963945E-2,-3.6856856E-2,1.3825074E-1],"split_indices":[440,1880,3226,101,3068,0,3442,0,4457,440,2321,0,4668,0,0,0,0,2330,196,0,519,0,0,0,568,0,0,0,0],"split_type":[0,0,0,0,0,0,0,0,0,0,0,0,0,0,0,0,0,0,0,0,0,0,0,0,0,0,0,0,0],"sum_hessian":[3.9486255E3,4.3465216E2,3.5139734E3,9.040037E0,4.2561215E2,2.9861633E2,3.215357E3,1.3081486E0,7.731888E0,4.6700478E0,4.2094208E2,2.238484E2,2.9915085E3,1.2706118E0,6.461276E0,3.6612585E0,1.0087894E0,3.5744975E0,4.1736758E2,1.4596243E2,2.8455461E3,1.0050967E0,2.5694008E0,1.6217712E0,4.1574582E2,1.0125985E2,2.7442864E3,1.3455083E0,4.144003E2],"tree_param":{"num_deleted":"0","num_feature":"5000","num_nodes":"29","size_leaf_vector":"1"}},{"base_weights":[1.3692504E-1,1.404411E-1,-3.0903323E-2,1.4098415E-1,-2.0157865E-1,1.3035544E0,-3.664117E-1,1.3720784E0,-2.366212E-1,1.2299633E0,-5.035745E-1,1.383664E0,-1.3427284E-1,8.187895E-2,-4.1138428E-1,-5.9155572E-2,1.3321333E0,1.397199E-1,-5.9604824E-2,1.3922636E-1,-3.3477608E-2,-3.3874918E-2,1.5940372E-2,8.491586E-3,-5.4200977E-2,-2.430684E-2,1.3775639E-1],"categories":[],"categories_nodes":[],"categories_segments":[],"categories_sizes":[],"default_left":[0,0,0,0,0,0,0,1,0,1,0,0,0,0,0,0,0,0,0,0,0,0,0,0,0,0,0],"id":16,"left_children":[1,-1,3,-1,5,7,9,11,13,15,17,19,21,-1,23,-1,25,-1,-1,-1,-1,-1,-1,-1,-1,-1,-1],"loss_changes":[8.627049E2,0E0,8.811393E2,0E0,7.952865E2,3.3720642E1,6.330303E2,5.475525E0,2.9802647E0,4.33714E1,4.684544E2,4.9123535E0,2.476559E-1,0E0,8.862951E-1,0E0,1.5861603E1,0E0,0E0,0E0,0E0,0E0,0E0,0E0,0E0,0E0,0E0],"parents":[2147483647,0,0,2,2,4,4,5,5,6,6,7,7,8,8,9,9,10,10,11,11,12,12,14,14,16,16],"right_children":[2,-1,4,-1,6,8,10,12,14,16,18,20,22,-1,24,-1,26,-1,-1,-1,-1,-1,-1,-1,-1,-1,-1],"split_conditions":[6.4244294E-1,1.404411E-1,6.000454E-1,1.4098415E-1,5.606228E-1,4.1005558E-1,7.354823E-1,1.0763153E-1,2.8921416E-1,5.31788E-2,1.7889735E-1,3.569064E-1,1.3770045E-1,8.187895E-2,9.720631E-2,-5.9155572E-2,2.0393062E-1,1.397199E-1,-5.9604824E-2,1.3922636E-1,-3.3477608E-2,-3.3874918E-2,1.5940372E-2,8.491586E-3,-5.4200977E-2,-2.430684E-2,1.3775639E-1],"split_indices":[3531,0,2311,0,624,4558,712,869,712,2807,370,2807,624,0,2321,0,162,0,0,0,0,0,0,0,0,0,0],"split_type":[0,0,0,0,0,0,0,0,0,0,0,0,0,0,0,0,0,0,0,0,0,0,0,0,0,0,0],"sum_hessian":[4.0543828E3,4.732091E2,3.5811738E3,3.7853497E2,3.202639E3,3.1543274E2,2.887206E3,3.0210107E2,1.3331653E1,2.2781413E2,2.659392E3,2.9987613E2,2.2249517E0,1.3704195E0,1.1961233E1,1.1845143E1,2.1596898E2,1.22724E2,2.536668E3,2.985718E2,1.304319E0,1.2211984E0,1.0037532E0,2.565139E0,9.396093E0,5.93223E0,2.1003676E2],"tree_param":{"num_deleted":"0","num_feature":"5000","num_nodes":"27","size_leaf_vector":"1"}},{"base_weights":[-4.2650637E-1,1.3988613E-1,-4.791407E-1,1.2998857E0,-5.316181E-1,-4.0837184E-2,1.3398118E0,1.3943438E-1,-5.657568E-1,-3.2627188E-2,1.3632672E0,1.3918166E-1,-5.9575254E-1,1.3768088E0,1.07394345E-2,-5.9243506E-3,-5.9604403E-2,1.1032074E-2,1.3906388E-1],"categories":[],"categories_nodes":[],"categories_segments":[],"categories_sizes":[],"default_left":[0,0,0,0,0,0,0,0,0,0,0,0,0,0,0,0,0,0,0],"id":17,"left_children":[1,-1,3,5,7,-1,9,-1,11,-1,13,-1,15,17,-1,-1,-1,-1,-1],"loss_changes":[3.4338818E2,0E0,3.2444836E2,7.343933E0,2.223153E2,0E0,4.2593536E0,0E0,1.9526294E2,0E0,1.4924011E0,0E0,4.7473145E-1,1.5164948E0,0E0,0E0,0E0,0E0,0E0],"parents":[2147483647,0,0,2,2,3,3,4,4,6,6,8,8,10,10,12,12,13,13],"right_children":[2,-1,4,6,8,-1,10,-1,12,-1,14,-1,16,18,-1,-1,-1,-1,-1],"split_conditions":[3.3884782E-1,1.3988613E-1,1.6511591E-1,1.15516976E-1,4.6457142E-1,-4.0837184E-2,1.4853723E-1,1.3943438E-1,4.3087113E-1,-3.2627188E-2,1.2178166E-1,1.3918166E-1,1.672213E-1,1.22397766E-1,1.07394345E-2,-5.9243506E-3,-5.9604403E-2,1.1032074E-2,1.3906388E-1],"split_indices":[1011,0,2695,1509,211,0,336,0,557,0,2807,0,2695,440,0,0,0,0,0],"split_type":[0,0,0,0,0,0,0,0,0,0,0,0,0,0,0,0,0,0,0],"sum_hessian":[3.566117E3,9.922993E1,3.466887E3,9.865433E1,3.3682327E3,2.0423634E0,9.661197E1,5.79699E1,3.3102627E3,1.1620067E0,9.544996E1,4.9272278E1,3.2609905E3,9.433647E1,1.113488E0,1.8815697E0,3.259109E3,1.1160035E0,9.322047E1],"tree_param":{"num_deleted":"0","num_feature":"5000","num_nodes":"19","size_leaf_vector":"1"}},{"base_weights":[-1.4583375E-2,-1.6678226E-1,1.3236254E0,-3.463259E-1,1.3125479E0,-1.21715404E-1,1.3836313E0,1.4024805E-1,-4.6404326E-1,-4.584901E-2,1.3289912E0,-3.7279975E-1,1.1252103E-1,-3.8383905E-2,1.3918834E0,1.4032505E-1,-5.9505904E-1,-4.630017E-2,1.3445204E0,6.116825E-2,-4.9380043E-1,-3.4450307E-2,1.3984013E0,1.0178633E-2,-5.9540313E-1,-4.2728767E-2,1.3573707E0,-5.602135E-2,1.7580008E-2,1.402807E0,6.5428973E-3,-5.957451E-2,9.60262E-3,-4.2557955E-2,1.3702871E-1,1.0113984E-2,1.406388E-1],"categories":[],"categories_nodes":[],"categories_segments":[],"categories_sizes":[],"default_left":[1,1,0,0,0,1,0,0,0,0,0,0,0,0,0,0,0,0,0,0,0,0,1,0,1,0,0,0,0,0,0,0,0,0,0,0,0],"id":18,"left_children":[1,3,5,7,9,11,13,-1,15,-1,17,19,-1,-1,21,-1,23,-1,25,-1,27,-1,29,-1,31,-1,33,-1,-1,35,-1,-1,-1,-1,-1,-1,-1],"loss_changes":[8.0599054E2,9.4416376E2,3.5216675E1,6.5309814E2,1.181427E1,5.7506065E0,6.19458E0,0E0,7.2747217E2,0E0,1.1238464E1,2.0799463E0,0E0,0E0,4.856079E0,0E0,7.261963E-1,0E0,9.196899E0,0E0,7.141583E-1,0E0,2.1706543E0,0E0,7.1325684E-1,0E0,9.241577E0,0E0,0E0,1.6473389E0,0E0,0E0,0E0,0E0,0E0,0E0,0E0],"parents":[2147483647,0,0,1,1,2,2,3,3,4,4,5,5,6,6,8,8,10,10,11,11,14,14,16,16,18,18,20,20,22,22,24,24,26,26,29,29],"right_children":[2,4,6,8,10,12,14,-1,16,-1,18,20,-1,-1,22,-1,24,-1,26,-1,28,-1,30,-1,32,-1,34,-1,-1,36,-1,-1,-1,-1,-1,-1,-1],"split_conditions":[1.1743081E-1,1.1121783E-1,3.6973006E-1,3.9056754E-1,1.4050187E-1,1.2597853E-1,1.5491562E-1,1.4024805E-1,4.1339678E-1,-4.584901E-2,1.22189105E-1,1.6850068E-1,1.1252103E-1,-3.8383905E-2,2.7252752E-1,1.4032505E-1,1.974245E-1,-4.630017E-2,1.6718765E-1,6.116825E-2,1.4682855E-1,-3.4450307E-2,7.1134664E-2,1.0178633E-2,2.6645404E-1,-4.2728767E-2,1.5549614E-1,-5.602135E-2,1.7580008E-2,6.0662415E-2,6.5428973E-3,-5.957451E-2,9.60262E-3,-4.2557955E-2,1.3702871E-1,1.0113984E-2,1.406388E-1],"split_indices":[4988,4431,4457,1776,2241,2195,4381,0,1036,0,2808,3470,0,0,3531,0,1837,0,2330,0,4988,0,2807,0,419,0,3531,0,0,2807,0,0,0,0,0,0,0],"split_type":[0,0,0,0,0,0,0,0,0,0,0,0,0,0,0,0,0,0,0,0,0,0,0,0,0,0,0,0,0,0,0,0,0,0,0,0,0],"sum_hessian":[3.9551763E3,3.5520637E3,4.0311252E2,3.1682988E3,3.8376483E2,1.6027815E1,3.870847E2,1.9912906E2,2.96917E3,3.28298E0,3.8048184E2,1.3924887E1,2.1029284E0,1.5873276E0,3.8549738E2,1.9403194E2,2.775138E3,3.0213344E0,3.774605E2,1.080287E0,1.28446E1,1.2477158E0,3.8424966E2,1.2240105E0,2.773914E3,2.4856637E0,3.7497485E2,1.1834208E1,1.0103921E0,3.829316E2,1.3180435E0,2.7726812E3,1.2328534E0,2.4671266E0,3.7250772E2,1.1307971E0,3.818008E2],"tree_param":{"num_deleted":"0","num_feature":"5000","num_nodes":"37","size_leaf_vector":"1"}},{"base_weights":[2.3783953E-1,7.255696E-1,-5.958256E-2,-5.9422817E-2,8.8297725E-1,-5.9278276E-2,9.975346E-1,-6.366106E-2,1.1074613E0,-5.917104E-2,1.2163777E0,-5.9119027E-2,1.3283437E-1],"categories":[],"categories_nodes":[],"categories_segments":[],"categories_sizes":[],"default_left":[0,0,0,0,0,0,0,0,0,0,0,0,0],"id":19,"left_children":[1,3,-1,-1,5,-1,7,-1,9,-1,11,-1,-1],"loss_changes":[1.7059227E3,5.503744E2,0E0,0E0,4.0043494E2,0E0,3.950271E2,0E0,3.8142676E2,0E0,3.921057E2,0E0,0E0],"parents":[2147483647,0,0,1,1,4,4,6,6,8,8,10,10],"right_children":[2,4,-1,-1,6,-1,8,-1,10,-1,12,-1,-1],"split_conditions":[3.6973006E-1,6.028122E-1,-5.958256E-2,-5.9422817E-2,6.000454E-1,-5.9278276E-2,6.757371E-1,-6.366106E-2,3.460787E-1,-5.917104E-2,4.0298498E-1,-5.9119027E-2,1.3283437E-1],"split_indices":[4457,1174,0,0,2311,0,4668,0,4873,0,1095,0,0],"split_type":[0,0,0,0,0,0,0,0,0,0,0,0,0],"sum_hessian":[4.1934795E3,2.645738E3,1.5477413E3,2.8162814E2,2.36411E3,1.6999615E2,2.1941138E3,1.379904E2,2.0561235E3,1.2359059E2,1.9325328E3,1.12474625E2,1.8200582E3],"tree_param":{"num_deleted":"0","num_feature":"5000","num_nodes":"13","size_leaf_vector":"1"}},{"base_weights":[2.5886608E-2,1.1582553E0,-1.8695521E-1,-5.6940194E-2,1.2444025E-1,1.1677226E0,-3.6584646E-1,-2.5181654E-1,1.2232887E0,1.3019407E-1,-4.9267545E-1,9.8005705E-2,-4.8656616E-1,-3.2619464E-1,1.2440288E0,1.2350277E-1,-5.8826424E-2,9.967917E-3,-5.5341687E-2,-4.7046915E-2,1.6683953E-2,-3.2860566E-2,1.2500509E0,-3.4042493E-2,1.2557986E-1],"categories":[],"categories_nodes":[],"categories_segments":[],"categories_sizes":[],"default_left":[0,0,0,0,0,1,0,0,0,0,0,0,0,1,0,0,0,0,0,0,0,0,0,0,0],"id":20,"left_children":[1,3,5,-1,-1,7,9,11,13,-1,15,-1,17,19,21,-1,-1,-1,-1,-1,-1,-1,23,-1,-1],"loss_changes":[9.314507E2,9.171631E1,7.888364E2,0E0,0E0,3.026117E1,6.086832E2,4.8532677E0,1.215509E1,0E0,4.4203015E2,0E0,5.7952476E-1,4.783516E-1,3.8294678E0,0E0,0E0,0E0,0E0,0E0,0E0,0E0,3.7167358E0,0E0,0E0],"parents":[2147483647,0,0,1,1,2,2,5,5,6,6,7,7,8,8,10,10,12,12,13,13,14,14,22,22],"right_children":[2,4,6,-1,-1,8,10,12,14,-1,16,-1,18,20,22,-1,-1,-1,-1,-1,-1,-1,24,-1,-1],"split_conditions":[6.028122E-1,4.3087113E-1,6.309851E-1,-5.6940194E-2,1.2444025E-1,5.379735E-2,6.757371E-1,2.0049907E-1,9.537735E-2,1.3019407E-1,4.4372785E-1,9.8005705E-2,5.3310443E-2,5.93507E-2,3.63353E-1,1.2350277E-1,-5.8826424E-2,9.967917E-3,-5.5341687E-2,-4.7046915E-2,1.6683953E-2,-3.2860566E-2,1.7028387E-1,-3.4042493E-2,1.2557986E-1],"split_indices":[1174,557,440,0,0,2807,4668,1087,1880,0,2332,0,4457,4457,370,0,0,0,0,0,0,0,536,0,0],"split_type":[0,0,0,0,0,0,0,0,0,0,0,0,0,0,0,0,0,0,0,0,0,0,0,0,0],"sum_hessian":[3.8627947E3,6.104761E2,3.2523186E3,2.8728315E1,5.8174774E2,3.7873904E2,2.8735796E3,1.4133747E1,3.646053E2,2.0242664E2,2.671153E3,1.7540866E0,1.2379661E1,4.621341E0,3.5998395E2,1.3941423E2,2.5317388E3,1.2169118E0,1.1162749E1,3.6105647E0,1.0107765E0,1.1688865E0,3.5881506E2,1.0823387E0,3.5773273E2],"tree_param":{"num_deleted":"0","num_feature":"5000","num_nodes":"25","size_leaf_vector":"1"}},{"base_weights":[1.2769596E-1,1.2408723E-1,-2.9119167E-2,1.2446778E-1,-1.896991E-1,1.1489855E0,-3.5360372E-1,1.2125309E0,-2.1673414E-1,1.0772697E0,-4.8906103E-1,-4.116389E-2,1.2247664E0,8.703199E-2,-4.2351368E-1,1.2501964E-1,6.3839674E-1,1.2361964E-1,-5.878991E-2,-3.3059888E-2,1.2315275E-1,4.8037756E-2,-5.4674324E-2,1.2388223E-1,-5.986121E-2],"categories":[],"categories_nodes":[],"categories_segments":[],"categories_sizes":[],"default_left":[0,0,0,0,0,0,0,0,0,0,0,0,0,0,0,0,0,0,0,0,0,0,0,0,0],"id":21,"left_children":[1,-1,3,-1,5,7,9,11,13,15,17,-1,19,-1,21,-1,23,-1,-1,-1,-1,-1,-1,-1,-1],"loss_changes":[6.967774E2,0E0,7.160425E2,0E0,6.824805E2,2.971109E1,5.3746436E2,6.950653E0,3.950418E0,1.7407532E1,4.323791E2,0E0,3.7955322E0,0E0,1.828815E0,0E0,5.2619778E1,0E0,0E0,0E0,0E0,0E0,0E0,0E0,0E0],"parents":[2147483647,0,0,2,2,4,4,5,5,6,6,7,7,8,8,9,9,10,10,12,12,14,14,16,16],"right_children":[2,-1,4,-1,6,8,10,12,14,16,18,-1,20,-1,22,-1,24,-1,-1,-1,-1,-1,-1,-1,-1],"split_conditions":[6.4244294E-1,1.2408723E-1,6.000454E-1,1.2446778E-1,5.606228E-1,4.1005558E-1,7.354823E-1,1.6178682E-1,1.7140071E-1,6.127218E-1,3.63353E-1,-4.116389E-2,1.5767619E-1,8.703199E-2,1.6403896E-1,1.2501964E-1,3.63353E-1,1.2361964E-1,-5.878991E-2,-3.3059888E-2,1.2315275E-1,4.8037756E-2,-5.4674324E-2,1.2388223E-1,-5.986121E-2],"split_indices":[3531,0,2311,0,624,4558,712,4573,371,721,371,0,943,0,2776,0,371,0,0,0,0,0,0,0,0],"split_type":[0,0,0,0,0,0,0,0,0,0,0,0,0,0,0,0,0,0,0,0,0,0,0,0,0],"sum_hessian":[3.9903481E3,4.918639E2,3.4984844E3,3.9090305E2,3.1075813E3,3.3832388E2,2.7692573E3,3.2338913E2,1.4934766E1,2.3888594E2,2.5303716E3,2.1739368E0,3.2121518E2,1.8740153E0,1.3060751E1,1.700381E2,6.884783E1,1.364839E2,2.3938877E3,1.18295E0,3.2003223E2,1.2192546E0,1.1841496E1,4.634917E1,2.2498661E1],"tree_param":{"num_deleted":"0","num_feature":"5000","num_nodes":"25","size_leaf_vector":"1"}},{"base_weights":[-4.0968546E-1,1.23807944E-1,-4.6657398E-1,1.1746932E0,-5.199692E-1,1.2144438E0,-4.1939106E-2,1.2369938E-1,-5.564885E-1,1.2262429E0,8.7261535E-3,1.2318547E-1,-5.8789063E-2,1.2361316E-1,1.3493888E-2],"categories":[],"categories_nodes":[],"categories_segments":[],"categories_sizes":[],"default_left":[0,0,0,1,0,1,0,0,0,1,0,0,0,0,0],"id":22,"left_children":[1,-1,3,5,7,9,-1,-1,11,13,-1,-1,-1,-1,-1],"loss_changes":[3.1951056E2,0E0,2.8889203E2,7.0964203E0,2.0514905E2,1.2453003E0,0E0,0E0,1.7607043E2,9.1830444E-1,0E0,0E0,0E0,0E0,0E0],"parents":[2147483647,0,0,2,2,3,3,4,4,5,5,8,8,9,9],"right_children":[2,-1,4,6,8,10,-1,-1,12,14,-1,-1,-1,-1,-1],"split_conditions":[3.3884782E-1,1.23807944E-1,1.6511591E-1,5.1526118E-2,2.322807E-1,7.563305E-2,-4.1939106E-2,1.2369938E-1,4.3087113E-1,1.0492075E-1,8.7261535E-3,1.2318547E-1,-5.8789063E-2,1.2361316E-1,1.3493888E-2],"split_indices":[1011,0,2695,4457,212,1880,0,0,557,2353,0,0,0,0,0],"split_type":[0,0,0,0,0,0,0,0,0,0,0,0,0,0,0],"sum_hessian":[3.4013533E3,1.1281869E2,3.2885347E3,1.02953156E2,3.1855815E3,1.006807E2,2.2724545E0,6.419613E1,3.1213853E3,9.955075E1,1.1299549E0,5.3203976E1,3.0681814E3,9.852527E1,1.0254815E0],"tree_param":{"num_deleted":"0","num_feature":"5000","num_nodes":"15","size_leaf_vector":"1"}},{"base_weights":[-8.040664E-3,1.24628924E-1,-2.1018188E-1,1.244275E-1,-3.3380777E-1,-4.4659036E-1,1.1163062E0,1.2368985E-1,-5.213484E-1,-2.741264E-1,1.2021538E0,1.23573385E-1,-5.8805086E-2,-3.981841E-1,5.8654215E-2,-3.3598352E-2,1.232468E0,-4.5409244E-2,-3.5837707E-3,-3.9421465E-2,2.1676557E-2,2.4936188E-3,1.2407421E-1],"categories":[],"categories_nodes":[],"categories_segments":[],"categories_sizes":[],"default_left":[0,0,0,0,1,0,0,0,0,0,0,0,0,0,0,0,0,0,0,0,0,0,0],"id":23,"left_children":[1,-1,3,-1,5,7,9,-1,11,13,15,-1,-1,17,-1,19,21,-1,-1,-1,-1,-1,-1],"loss_changes":[9.735671E2,0E0,5.9500183E2,0E0,4.9907556E2,3.5671704E2,2.662262E1,0E0,3.1830176E2,1.6881716E0,7.82016E0,0E0,0E0,2.3701167E-1,0E0,6.222314E-1,1.9943542E0,0E0,0E0,0E0,0E0,0E0,0E0],"parents":[2147483647,0,0,2,2,4,4,5,5,6,6,8,8,9,9,10,10,13,13,15,15,16,16],"right_children":[2,-1,4,-1,6,8,10,-1,12,14,16,-1,-1,18,-1,20,22,-1,-1,-1,-1,-1,-1],"split_conditions":[6.0335636E-1,1.24628924E-1,6.694782E-1,1.244275E-1,1.1743081E-1,1.974134E-1,3.6973006E-1,1.2368985E-1,3.9056754E-1,1.4708757E-1,7.496783E-2,1.23573385E-1,-5.8805086E-2,1.4113285E-1,5.8654215E-2,9.616978E-2,1.8880485E-1,-4.5409244E-2,-3.5837707E-3,-3.9421465E-2,2.1676557E-2,2.4936188E-3,1.2407421E-1],"split_indices":[3578,0,3422,0,4988,1035,4457,0,1776,4988,2807,0,0,4988,0,4558,368,0,0,0,0,0,0],"split_type":[0,0,0,0,0,0,0,0,0,0,0,0,0,0,0,0,0,0,0,0,0,0,0],"sum_hessian":[3.837684E3,5.319089E2,3.3057751E3,2.58262E2,3.0475132E3,2.828239E3,2.1927419E2,1.1959159E2,2.7086475E3,1.2623539E1,2.0665065E2,9.8424065E1,2.6102234E3,1.150286E1,1.1206796E0,4.9453664E0,2.0170529E2,9.745912E0,1.7569479E0,1.7910409E0,3.1543255E0,1.4000058E0,2.0030528E2],"tree_param":{"num_deleted":"0","num_feature":"5000","num_nodes":"23","size_leaf_vector":"1"}},{"base_weights":[2.2929372E-1,1.0184896E0,1.2317913E-3,-5.836009E-2,1.234402E0,1.2692945E-1,-1.901699E-1,-4.5742273E-2,1.2417071E0,1.2679265E-1,-3.0510646E-1,-4.4360187E-2,1.2479558E0,1.2664522E-1,-4.3717888E-1,-4.3221135E-2,1.2536311E0,1.2664528E-1,-5.9135623E-2,-3.6923137E-2,1.2571132E-1],"categories":[],"categories_nodes":[],"categories_segments":[],"categories_sizes":[],"default_left":[0,0,0,0,0,0,0,0,0,0,0,0,0,0,0,0,0,0,0,0,0],"id":24,"left_children":[1,3,5,-1,7,-1,9,-1,11,-1,13,-1,15,-1,17,-1,19,-1,-1,-1,-1],"loss_changes":[7.465301E2,3.2237976E2,7.8148376E2,0E0,1.0699707E1,0E0,4.6922836E2,0E0,9.152466E0,0E0,5.38957E2,0E0,8.301392E0,0E0,6.294602E2,0E0,5.048584E0,0E0,0E0,0E0,0E0],"parents":[2147483647,0,0,1,1,2,2,4,4,6,6,8,8,10,10,12,12,14,14,16,16],"right_children":[2,4,6,-1,8,-1,10,-1,12,-1,14,-1,16,-1,18,-1,20,-1,-1,-1,-1],"split_conditions":[4.737715E-1,3.9544904E-1,5.1160175E-1,-5.836009E-2,2.7115193E-1,1.2692945E-1,3.5428E-1,-4.5742273E-2,2.146151E-1,1.2679265E-1,3.4486097E-1,-4.4360187E-2,1.4898102E-1,1.2664522E-1,3.5195303E-1,-4.3221135E-2,2.0000486E-1,1.2664528E-1,-5.9135623E-2,-3.6923137E-2,1.2571132E-1],"split_indices":[869,168,104,0,1174,0,489,0,4660,0,196,0,4330,0,0,0,3434,0,0,0,0],"split_type":[0,0,0,0,0,0,0,0,0,0,0,0,0,0,0,0,0,0,0,0,0],"sum_hessian":[4.14673E3,9.288902E2,3.2178396E3,1.1011603E2,8.187742E2,4.212656E2,2.796574E3,3.2552888E0,8.1551886E2,2.0360387E2,2.5929702E3,2.754025E0,8.1276483E2,2.0035176E2,2.3926184E3,2.4831223E0,8.1028174E2,1.9796185E2,2.1946565E3,1.5099611E0,8.087718E2],"tree_param":{"num_deleted":"0","num_feature":"5000","num_nodes":"21","size_leaf_vector":"1"}},{"base_weights":[6.030275E-3,1.0481024E0,-1.9456376E-1,-5.594349E-2,1.1190768E-1,1.0363194E0,-3.644049E-1,-2.4059656E-1,1.0846733E0,1.1248803E-1,-4.9087375E-1,8.9984156E-2,-4.752296E-1,-3.275864E-1,1.1040704E0,1.1727693E-1,-5.8061447E-2,1.0201304E-2,-5.405457E-2,-4.6658944E-2,1.5514282E-2,-4.0052764E-2,1.1121874E0,-3.9348815E-2,1.12025335E-1],"categories":[],"categories_nodes":[],"categories_segments":[],"categories_sizes":[],"default_left":[0,0,0,0,0,1,0,0,0,0,0,0,0,0,0,0,0,0,0,0,0,0,0,0,0],"id":25,"left_children":[1,3,5,-1,-1,7,9,11,13,-1,15,-1,17,19,21,-1,-1,-1,-1,-1,-1,-1,23,-1,-1],"loss_changes":[7.7790533E2,6.916498E1,6.5278284E2,0E0,0E0,2.3640808E1,5.172072E2,4.3435144E0,1.03611145E1,0E0,3.7826245E2,0E0,5.374241E-1,4.559902E-1,4.8457336E0,0E0,0E0,0E0,0E0,0E0,0E0,0E0,4.7963257E0,0E0,0E0],"parents":[2147483647,0,0,1,1,2,2,5,5,6,6,7,7,8,8,10,10,12,12,13,13,14,14,22,22],"right_children":[2,4,6,-1,-1,8,10,12,14,-1,16,-1,18,20,22,-1,-1,-1,-1,-1,-1,-1,24,-1,-1],"split_conditions":[6.028122E-1,4.3087113E-1,6.309851E-1,-5.594349E-2,1.1190768E-1,5.379735E-2,7.315774E-1,2.0049907E-1,9.537735E-2,1.1248803E-1,4.2136288E-1,8.9984156E-2,1.11002624E-1,1.3771814E-1,1.6260861E-1,1.1727693E-1,-5.8061447E-2,1.0201304E-2,-5.405457E-2,-4.6658944E-2,1.5514282E-2,-4.0052764E-2,1.6223584E-1,-3.9348815E-2,1.12025335E-1],"split_indices":[1174,557,440,0,0,2807,3442,1086,1880,0,1086,0,440,440,568,0,0,0,0,0,0,0,196,0,0],"split_type":[0,0,0,0,0,0,0,0,0,0,0,0,0,0,0,0,0,0,0,0,0,0,0,0,0],"sum_hessian":[3.7194639E3,5.997225E2,3.1197415E3,2.5067766E1,5.746547E2,3.7765744E2,2.742084E3,1.3634193E1,3.6402322E2,2.1401144E2,2.5280725E3,1.8426857E0,1.1791508E1,4.7168036E0,3.5930643E2,1.2877267E2,2.3992998E3,1.1414967E0,1.0650011E1,3.6882093E0,1.0285944E0,1.6685565E0,3.5763788E2,1.6510369E0,3.5598685E2],"tree_param":{"num_deleted":"0","num_feature":"5000","num_nodes":"25","size_leaf_vector":"1"}},{"base_weights":[1.16587214E-1,1.1171066E-1,-3.2292984E-2,1.12050466E-1,-1.8922181E-1,1.11944176E-1,-3.3093935E-1,9.8088884E-1,-4.6249777E-1,-5.736927E-2,1.0672289E0,1.1113521E-1,-5.221046E-1,-2.9442107E-2,1.09277606E-1,1.1097864E-1,-5.804131E-2],"categories":[],"categories_nodes":[],"categories_segments":[],"categories_sizes":[],"default_left":[0,0,0,0,0,0,0,1,0,0,0,0,0,0,0,0,0],"id":26,"left_children":[1,-1,3,-1,5,-1,7,9,11,-1,13,-1,15,-1,-1,-1,-1],"loss_changes":[5.7808545E2,0E0,6.114886E2,0E0,5.5210596E2,0E0,4.638426E2,3.350351E1,2.2957477E2,0E0,8.4096985E0,0E0,2.2450024E2,0E0,0E0,0E0,0E0],"parents":[2147483647,0,0,2,2,4,4,6,6,7,7,8,8,10,10,12,12],"right_children":[2,-1,4,-1,6,-1,8,10,12,-1,14,-1,16,-1,-1,-1,-1],"split_conditions":[6.4244294E-1,1.1171066E-1,6.000454E-1,1.12050466E-1,5.2794933E-1,1.11944176E-1,7.354823E-1,5.31788E-2,1.8667719E-1,-5.736927E-2,2.0393062E-1,1.1113521E-1,1.746838E-1,-2.9442107E-2,1.09277606E-1,1.1097864E-1,-5.804131E-2],"split_indices":[3531,0,2311,0,3282,0,712,2807,4641,0,162,0,848,0,0,0,0],"split_type":[0,0,0,0,0,0,0,0,0,0,0,0,0,0,0,0,0],"sum_hessian":[3.8796326E3,5.016813E2,3.3779512E3,4.040037E2,2.9739475E3,2.8991193E2,2.6840356E3,2.4404976E2,2.4399858E3,1.2544124E1,2.3150563E2,8.839427E1,2.3515916E3,4.069664E0,2.2743597E2,8.0503E1,2.2710886E3],"tree_param":{"num_deleted":"0","num_feature":"5000","num_nodes":"17","size_leaf_vector":"1"}},{"base_weights":[-4.0906763E-1,1.1165223E-1,-4.5811102E-1,1.0494752E0,-5.097015E-1,-4.5191627E-2,1.0991634E0,1.1147435E-1,-5.442777E-1,1.1087767E0,1.0137535E-2,1.107531E-1,-5.7938194E-1,3.6878843E-2,1.1151867E-1,7.9400375E-2,-5.802932E-2],"categories":[],"categories_nodes":[],"categories_segments":[],"categories_sizes":[],"default_left":[0,0,0,0,0,0,1,0,0,0,0,0,0,0,0,0,0],"id":27,"left_children":[1,-1,3,5,7,-1,9,-1,11,13,-1,-1,15,-1,-1,-1,-1],"loss_changes":[2.4287549E2,0E0,2.4468555E2,8.269798E0,1.7112567E2,0E0,8.57811E-1,0E0,1.730506E2,6.3453674E-2,0E0,0E0,4.1052246E0,0E0,0E0,0E0,0E0],"parents":[2147483647,0,0,2,2,3,3,4,4,6,6,8,8,9,9,12,12],"right_children":[2,-1,4,6,8,-1,10,-1,12,14,-1,-1,16,-1,-1,-1,-1],"split_conditions":[3.816054E-1,1.1165223E-1,1.6323565E-1,1.063456E-1,4.6457142E-1,-4.5191627E-2,1.0918972E-1,1.1147435E-1,3.7943298E-1,1.9417793E-1,1.0137535E-2,1.107531E-1,4.0876305E-1,3.6878843E-2,1.1151867E-1,7.9400375E-2,-5.802932E-2],"split_indices":[3505,0,2695,4457,211,0,624,0,332,1905,0,0,215,0,0,0,0],"split_type":[0,0,0,0,0,0,0,0,0,0,0,0,0,0,0,0,0],"sum_hessian":[3.2382905E3,1.0018155E2,3.138109E3,1.03194595E2,3.0349143E3,3.046474E0,1.0014812E2,6.2600666E1,2.9723137E3,9.908226E1,1.0658603E0,6.1217327E1,2.9110964E3,1.353578E0,9.772868E1,1.3531355E0,2.9097432E3],"tree_param":{"num_deleted":"0","num_feature":"5000","num_nodes":"17","size_leaf_vector":"1"}},{"base_weights":[-1.31494235E-2,1.1212776E-1,-2.0818458E-1,1.1201513E-1,-3.2863024E-1,-4.4087908E-1,1.0279089E0,1.1129612E-1,-5.1208574E-1,-2.0348555E-1,1.0889426E0,1.1124462E-1,-5.800763E-1,-4.357329E-1,8.934128E-2,-3.9264426E-2,1.1035234E0,-5.8042925E-2,2.4259018E-3,9.509514E-3,-5.2277267E-2,2.2000898E-2,1.1158574E-1],"categories":[],"categories_nodes":[],"categories_segments":[],"categories_sizes":[],"default_left":[0,0,0,0,1,0,0,0,0,1,0,0,1,0,0,0,0,0,0,0,0,0,0],"id":28,"left_children":[1,-1,3,-1,5,7,9,-1,11,13,15,-1,17,19,-1,-1,21,-1,-1,-1,-1,-1,-1],"loss_changes":[8.1553705E2,0E0,5.035744E2,0E0,4.3967368E2,2.954073E2,1.6811707E1,0E0,2.821526E2,3.2595363E0,4.980072E0,0E0,5.3601074E-1,5.1037276E-1,0E0,0E0,2.028595E0,0E0,0E0,0E0,0E0,0E0,0E0],"parents":[2147483647,0,0,2,2,4,4,5,5,6,6,8,8,9,9,10,10,12,12,13,13,16,16],"right_children":[2,-1,4,-1,6,8,10,-1,12,14,16,-1,18,20,-1,-1,22,-1,-1,-1,-1,-1,-1],"split_conditions":[6.0335636E-1,1.1212776E-1,6.694782E-1,1.1201513E-1,1.2009274E-1,1.9804767E-1,1.337982E-1,1.1129612E-1,3.9056754E-1,1.3882694E-1,2.7252752E-1,1.1124462E-1,1.1743081E-1,1.0013096E-1,8.934128E-2,-3.9264426E-2,7.9703785E-2,-5.8042925E-2,2.4259018E-3,9.509514E-3,-5.2277267E-2,2.2000898E-2,1.1158574E-1],"split_indices":[3578,0,3422,0,4988,1035,4457,0,1776,498,3531,0,4988,2321,0,0,2807,0,0,0,0,0,0],"split_type":[0,0,0,0,0,0,0,0,0,0,0,0,0,0,0,0,0,0,0,0,0,0,0],"sum_hessian":[3.6839355E3,5.397451E2,3.1441904E3,2.6070486E2,2.8834856E3,2.663745E3,2.1974055E2,1.1607946E2,2.5476655E3,1.0266839E1,2.0947372E2,1.0172554E2,2.4459402E3,8.970306E0,1.2965326E0,1.7887056E0,2.0768501E2,2.444552E3,1.3881061E0,1.2506201E0,7.719686E0,3.118765E0,2.0456625E2],"tree_param":{"num_deleted":"0","num_feature":"5000","num_nodes":"23","size_leaf_vector":"1"}},{"base_weights":[2.1445206E-1,9.1949147E-1,1.3450866E-3,-5.7580132E-2,1.1092147E0,1.13879815E-1,-1.8348266E-1,-4.4250775E-2,1.11459E0,1.1377636E-1,-2.9858452E-1,-4.3150418E-2,1.1200237E0,1.1362972E-1,-4.2864E-1,-4.2392384E-2,1.1245106E0,1.13693945E-1,-5.8331728E-2,-4.021131E-2,1.12836696E-1],"categories":[],"categories_nodes":[],"categories_segments":[],"categories_sizes":[],"default_left":[0,0,0,0,0,0,0,0,0,0,0,0,0,0,0,0,0,0,0,0,0],"id":29,"left_children":[1,3,5,-1,7,-1,9,-1,11,-1,13,-1,15,-1,17,-1,19,-1,-1,-1,-1],"loss_changes":[6.108922E2,2.6836188E2,6.568013E2,0E0,7.4815674E0,0E0,4.0904492E2,0E0,7.499634E0,0E0,4.619663E2,0E0,6.2442627E0,0E0,5.499095E2,0E0,5.342407E0,0E0,0E0,0E0,0E0],"parents":[2147483647,0,0,1,1,2,2,4,4,6,6,8,8,10,10,12,12,14,14,16,16],"right_children":[2,4,6,-1,8,-1,10,-1,12,-1,14,-1,16,-1,18,-1,20,-1,-1,-1,-1],"split_conditions":[4.737715E-1,6.4317495E-1,5.1160175E-1,-5.7580132E-2,2.8359225E-1,1.13879815E-1,3.5428E-1,-4.4250775E-2,1.4143053E-1,1.1377636E-1,3.5195303E-1,-4.3150418E-2,3.0605206E-1,1.1362972E-1,3.4486097E-1,-4.2392384E-2,3.022857E-1,1.13693945E-1,-5.8331728E-2,-4.021131E-2,1.12836696E-1],"split_indices":[869,924,460,0,2311,0,489,0,1174,0,0,0,3531,0,196,0,77,0,0,0,0],"split_type":[0,0,0,0,0,0,0,0,0,0,0,0,0,0,0,0,0,0,0,0,0],"sum_hessian":[4.0648787E3,9.4271204E2,3.1221667E3,1.0591486E2,8.367972E2,4.3569345E2,2.6864731E3,2.6080852E0,8.341891E2,2.1456871E2,2.4719045E3,2.64682E0,8.3154224E2,2.047868E2,2.2671177E3,2.1386847E0,8.2940356E2,2.0327742E2,2.0638403E3,1.8296272E0,8.27574E2],"tree_param":{"num_deleted":"0","num_feature":"5000","num_nodes":"21","size_leaf_vector":"1"}},{"base_weights":[1.4689854E-2,9.5920336E-1,-1.809472E-1,-5.5211205E-2,1.0227171E-1,9.42939E-1,-3.4791532E-1,-1.9055365E-1,9.8605436E-1,1.0582524E-1,-4.754805E-1,8.9787684E-2,-4.6739554E-1,-7.8617156E-2,1.0057516E0,1.01668976E-1,-5.735754E-2,1.06345E-2,-5.3591814E-2,7.1190886E-2,-3.7530437E-1,-4.2233564E-2,1.0140136E0,-4.90158E-2,6.300515E-3,-3.8811047E-2,1.0212767E-1],"categories":[],"categories_nodes":[],"categories_segments":[],"categories_sizes":[],"default_left":[0,0,0,0,0,1,0,0,0,0,0,0,0,0,0,0,0,0,0,0,1,0,0,0,0,0,0],"id":30,"left_children":[1,3,5,-1,-1,7,9,11,13,-1,15,-1,17,19,21,-1,-1,-1,-1,-1,23,-1,25,-1,-1,-1,-1],"loss_changes":[6.656614E2,5.9898743E1,5.603501E2,0E0,0E0,1.906607E1,4.667176E2,4.93741E0,7.8864136E0,0E0,3.4947772E2,0E0,5.5276275E-1,2.070808E0,4.7419434E0,0E0,0E0,0E0,0E0,0E0,3.4533328E-1,0E0,4.1011353E0,0E0,0E0,0E0,0E0],"parents":[2147483647,0,0,1,1,2,2,5,5,6,6,7,7,8,8,10,10,12,12,13,13,14,14,20,20,22,22],"right_children":[2,4,6,-1,-1,8,10,12,14,-1,16,-1,18,20,22,-1,-1,-1,-1,-1,24,-1,26,-1,-1,-1,-1],"split_conditions":[6.028122E-1,2.1543057E-1,6.309851E-1,-5.5211205E-2,1.0227171E-1,5.408477E-2,6.757371E-1,2.0049907E-1,9.871662E-2,1.0582524E-1,4.4372785E-1,8.9787684E-2,5.3310443E-2,2.933503E-1,1.7028387E-1,1.01668976E-1,-5.735754E-2,1.06345E-2,-5.3591814E-2,7.1190886E-2,1.0897842E-1,-4.2233564E-2,1.6260861E-1,-4.90158E-2,6.300515E-3,-3.8811047E-2,1.0212767E-1],"split_indices":[1174,557,440,0,0,2807,4668,1086,1880,0,2332,0,4457,77,536,0,0,0,0,0,869,0,568,0,0,0,0],"split_type":[0,0,0,0,0,0,0,0,0,0,0,0,0,0,0,0,0,0,0,0,0,0,0,0,0,0,0],"sum_hessian":[3.6004783E3,6.17132E2,2.9833464E3,2.4579046E1,5.92553E2,3.852857E2,2.5980605E3,1.3993028E1,3.712927E2,2.1548174E2,2.3825789E3,2.3825438E0,1.1610484E1,6.6900883E0,3.646026E2,1.4639081E2,2.236188E3,1.1798242E0,1.043066E1,1.4437296E0,5.246359E0,1.8089334E0,3.6279367E2,4.063323E0,1.1830359E0,1.5993891E0,3.6119427E2],"tree_param":{"num_deleted":"0","num_feature":"5000","num_nodes":"27","size_leaf_vector":"1"}},{"base_weights":[1.0791902E-1,1.0210297E-1,-3.693575E-2,1.02302514E-1,-1.9113538E-1,9.5447093E-1,-3.4811905E-1,9.9928313E-1,-2.2175512E-1,8.9639294E-1,-4.794164E-1,-3.9882716E-2,1.0092988E0,7.370212E-2,-4.543377E-1,1.0294354E-1,5.2866864E-1,1.01788245E-1,-5.7326805E-2,-3.5804417E-2,1.0164688E-1,-5.2222174E-2,6.9893897E-3,1.0248289E-1,-5.7939507E-2],"categories":[],"categories_nodes":[],"categories_segments":[],"categories_sizes":[],"default_left":[0,0,0,0,0,0,0,0,0,0,0,0,0,0,1,0,0,0,0,0,0,0,0,0,0],"id":31,"left_children":[1,-1,3,-1,5,7,9,11,13,15,17,-1,19,-1,21,-1,23,-1,-1,-1,-1,-1,-1,-1,-1],"loss_changes":[4.952504E2,0E0,5.2850726E2,0E0,5.07966E2,1.816626E1,4.0619174E2,4.9973755E0,3.3035333E0,1.106665E1,3.1632635E2,0E0,3.560791E0,0E0,4.3978715E-1,0E0,3.6389168E1,0E0,0E0,0E0,0E0,0E0,0E0,0E0,0E0],"parents":[2147483647,0,0,2,2,4,4,5,5,6,6,7,7,8,8,9,9,10,10,12,12,14,14,16,16],"right_children":[2,-1,4,-1,6,8,10,12,14,16,18,-1,20,-1,22,-1,24,-1,-1,-1,-1,-1,-1,-1,-1],"split_conditions":[6.4244294E-1,1.0210297E-1,6.000454E-1,1.02302514E-1,5.606228E-1,4.1005558E-1,7.354823E-1,1.6178682E-1,1.7140071E-1,6.127218E-1,3.63353E-1,-3.9882716E-2,1.8413648E-1,7.370212E-2,1.1454666E-1,1.0294354E-1,3.63353E-1,1.01788245E-1,-5.7326805E-2,-3.5804417E-2,1.0164688E-1,-5.2222174E-2,6.9893897E-3,1.0248289E-1,-5.7939507E-2],"split_indices":[3531,0,2311,0,624,4558,712,4573,371,721,371,0,168,0,3068,0,371,0,0,0,0,0,0,0,0],"split_type":[0,0,0,0,0,0,0,0,0,0,0,0,0,0,0,0,0,0,0,0,0,0,0,0,0],"sum_hessian":[3.742997E3,5.1165643E2,3.2313406E3,4.0966797E2,2.8216726E3,3.3944608E2,2.4822266E3,3.271333E2,1.2312772E1,2.3632977E2,2.245897E3,2.050699E0,3.250826E2,1.9803416E0,1.0332431E1,1.7222087E2,6.4108894E1,1.3189012E2,2.1140068E3,1.4404758E0,3.2364215E2,9.151246E0,1.181184E0,4.4332947E1,1.9775951E1],"tree_param":{"num_deleted":"0","num_feature":"5000","num_nodes":"25","size_leaf_vector":"1"}},{"base_weights":[-3.982226E-1,1.0188153E-1,-4.5189226E-1,9.543821E-1,-5.0596875E-1,9.9173796E-1,-4.2428788E-2,1.0183126E-1,-5.429019E-1,-3.1005709E-2,1.0081176E0,1.01139836E-1,-5.7323594E-2,8.0639245E-3,1.0169103E0,3.148275E-2,1.02339484E-1],"categories":[],"categories_nodes":[],"categories_segments":[],"categories_sizes":[],"default_left":[0,0,0,1,0,0,0,0,0,0,0,0,0,0,0,0,0],"id":32,"left_children":[1,-1,3,5,7,9,-1,-1,11,-1,13,-1,-1,-1,15,-1,-1],"loss_changes":[2.3091583E2,0E0,2.2256494E2,6.0079803E0,1.5890698E2,2.5711823E0,0E0,0E0,1.3009485E2,0E0,7.72995E-1,0E0,0E0,0E0,1.5024567E-1,0E0,0E0],"parents":[2147483647,0,0,2,2,3,3,4,4,5,5,8,8,10,10,14,14],"right_children":[2,-1,4,6,8,10,-1,-1,12,-1,14,-1,-1,-1,16,-1,-1],"split_conditions":[3.3884782E-1,1.0188153E-1,1.712816E-1,5.1835906E-2,4.6457142E-1,1.377731E-1,-4.2428788E-2,1.0183126E-1,2.1543057E-1,-3.1005709E-2,1.3290785E-1,1.01139836E-1,-5.7323594E-2,8.0639245E-3,2.0473869E-1,3.148275E-2,1.02339484E-1],"split_indices":[1011,0,2695,4457,212,568,0,0,557,0,335,0,0,0,2055,0,0],"split_type":[0,0,0,0,0,0,0,0,0,0,0,0,0,0,0,0,0],"sum_hessian":[3.0292378E3,1.09887924E2,2.91935E3,1.07486435E2,2.8118635E3,1.0492411E2,2.562321E0,6.589066E1,2.745973E3,1.0809917E0,1.0384312E2,5.194609E1,2.6940269E3,1.0707376E0,1.02772385E2,1.393997E0,1.0137839E2],"tree_param":{"num_deleted":"0","num_feature":"5000","num_nodes":"17","size_leaf_vector":"1"}},{"base_weights":[-6.1645447E-3,1.0241928E-1,-1.950058E-1,1.0227167E-1,-3.1689644E-1,-4.3108207E-1,9.264851E-1,1.01733305E-1,-5.040307E-1,-2.5193164E-1,9.915864E-1,1.017343E-1,-5.7341453E-2,-3.7609997E-1,5.4406483E-2,-3.530888E-2,1.0019644E0,-5.253727E-2,1.7402029E-2,1.3356315E-2,1.0093569E-1],"categories":[],"categories_nodes":[],"categories_segments":[],"categories_sizes":[],"default_left":[0,0,0,0,1,0,0,0,0,1,0,0,0,1,0,0,0,0,0,0,0],"id":33,"left_children":[1,-1,3,-1,5,7,9,-1,11,13,15,-1,-1,17,-1,-1,19,-1,-1,-1,-1],"loss_changes":[6.920756E2,0E0,4.4649048E2,0E0,3.8844644E2,2.6508267E2,1.791043E1,0E0,2.5229633E2,1.4746158E0,3.401001E0,0E0,0E0,1.052753E0,0E0,0E0,1.2578888E0,0E0,0E0,0E0,0E0],"parents":[2147483647,0,0,2,2,4,4,5,5,6,6,8,8,9,9,10,10,13,13,16,16],"right_children":[2,-1,4,-1,6,8,10,-1,12,14,16,-1,-1,18,-1,-1,20,-1,-1,-1,-1],"split_conditions":[6.0335636E-1,1.0241928E-1,6.694782E-1,1.0227167E-1,1.1863536E-1,1.974134E-1,3.6973006E-1,1.01733305E-1,3.9056754E-1,1.24405846E-1,1.5237552E-1,1.017343E-1,-5.7341453E-2,8.639956E-2,5.4406483E-2,-3.530888E-2,1.902812E-1,-5.253727E-2,1.7402029E-2,1.3356315E-2,1.0093569E-1],"split_indices":[3578,0,3422,0,4988,1035,4457,0,1776,2195,3531,0,0,2321,0,0,3357,0,0,0,0],"split_type":[0,0,0,0,0,0,0,0,0,0,0,0,0,0,0,0,0,0,0,0,0],"sum_hessian":[3.55485E3,5.499244E2,3.0049258E3,2.7274402E2,2.7321816E3,2.5029749E3,2.2920676E2,1.1939572E2,2.383579E3,1.1849297E1,2.1735747E2,1.0336821E2,2.280211E3,1.0706663E1,1.1426334E0,1.4117882E0,2.1594568E2,8.456904E0,2.2497585E0,1.983704E0,2.1396198E2],"tree_param":{"num_deleted":"0","num_feature":"5000","num_nodes":"21","size_leaf_vector":"1"}},{"base_weights":[1.9872797E-1,5.694641E-1,-5.7303376E-2,-5.7083923E-2,6.7670965E-1,-5.696779E-2,7.562365E-1,-6.018092E-2,8.26346E-1,-5.689996E-2,8.994631E-1,-5.678442E-2,9.6729696E-2],"categories":[],"categories_nodes":[],"categories_segments":[],"categories_sizes":[],"default_left":[0,0,0,0,0,0,0,0,0,0,0,0,0],"id":34,"left_children":[1,3,-1,-1,5,-1,7,-1,9,-1,11,-1,-1],"loss_changes":[1.1198125E3,3.2366766E2,0E0,0E0,2.3997913E2,0E0,2.1683716E2,0E0,2.2099268E2,0E0,2.0497583E2,0E0,0E0],"parents":[2147483647,0,0,1,1,4,4,6,6,8,8,10,10],"right_children":[2,4,-1,-1,6,-1,8,-1,10,-1,12,-1,-1],"split_conditions":[3.6973006E-1,6.028122E-1,-5.7303376E-2,-5.7083923E-2,6.000454E-1,-5.696779E-2,6.757371E-1,-6.018092E-2,3.63353E-1,-5.689996E-2,6.694782E-1,-5.678442E-2,9.6729696E-2],"split_indices":[4457,1174,0,0,2311,0,4668,0,370,0,3422,0,0],"split_type":[0,0,0,0,0,0,0,0,0,0,0,0,0],"sum_hessian":[3.9116472E3,2.64251E3,1.2691372E3,2.2679182E2,2.4157183E3,1.4452245E2,2.2711958E3,1.1112277E2,2.160073E3,1.07215904E2,2.052857E3,9.0384636E1,1.9624724E3],"tree_param":{"num_deleted":"0","num_feature":"5000","num_nodes":"13","size_leaf_vector":"1"}},{"base_weights":[1.0029903E-2,8.9827514E-1,-1.2990533E-1,-5.0963752E-2,9.315041E-1,9.645241E-2,-2.610938E-1,8.226513E-2,-3.393563E-1,-4.348255E-2,9.4162536E-1,9.409539E-2,-3.8843465E-1,3.8075063E-2,-4.5568696E-1,-4.086635E-2,9.4773513E-1,9.426666E-2,-4.9215567E-1,1.1103219E-2,-5.2392613E-2,-3.5944484E-2,9.5237905E-1,9.433667E-2,-5.6718368E-2,-3.3159457E-2,9.5649295E-2],"categories":[],"categories_nodes":[],"categories_segments":[],"categories_sizes":[],"default_left":[0,1,0,0,0,0,0,0,0,0,0,0,0,0,0,0,0,0,0,0,0,0,0,0,0,0,0],"id":35,"left_children":[1,3,5,7,9,-1,11,-1,13,-1,15,-1,17,-1,19,-1,21,-1,23,-1,-1,-1,25,-1,-1,-1,-1],"loss_changes":[4.3013342E2,1.4903076E1,4.2949097E2,4.5313497E0,6.7030334E0,0E0,4.0912317E2,0E0,1.2957506E0,0E0,4.116852E0,0E0,3.3392984E2,0E0,5.218053E-1,0E0,3.0760498E0,0E0,2.4194073E2,0E0,0E0,0E0,2.6889038E0,0E0,0E0,0E0,0E0],"parents":[2147483647,0,0,1,1,2,2,3,3,4,4,6,6,8,8,10,10,12,12,14,14,16,16,18,18,22,22],"right_children":[2,4,6,8,10,-1,12,-1,14,-1,16,-1,18,-1,20,-1,22,-1,24,-1,-1,-1,26,-1,-1,-1,-1],"split_conditions":[6.309851E-1,5.379735E-2,6.757371E-1,2.1969472E-1,9.375466E-2,9.645241E-2,6.6225815E-1,8.226513E-2,1.425685E-1,-4.348255E-2,1.7028387E-1,9.409539E-2,7.315774E-1,3.8075063E-2,1.11002624E-1,-4.086635E-2,1.6223584E-1,9.426666E-2,1.6855016E-1,1.1103219E-2,-5.2392613E-2,-3.5944484E-2,1.6260861E-1,9.433667E-2,-5.6718368E-2,-3.3159457E-2,9.5649295E-2],"split_indices":[440,2807,4668,3186,1880,0,3226,0,2241,0,536,0,3442,0,440,0,196,0,336,0,0,0,568,0,0,0,0],"split_type":[0,0,0,0,0,0,0,0,0,0,0,0,0,0,0,0,0,0,0,0,0,0,0,0,0,0,0],"sum_hessian":[3.4585962E3,4.6997693E2,2.9886191E3,1.5877464E1,4.540995E2,3.1921783E2,2.6694014E3,3.4807723E0,1.2396692E1,3.0305405E0,4.5106894E2,2.5508734E2,2.414314E3,1.4079894E0,1.0988703E1,1.7350022E0,4.4933392E2,1.7394223E2,2.2403718E3,1.1135645E0,9.875138E0,1.320205E0,4.4801373E2,1.10702934E2,2.129669E3,1.1766313E0,4.468371E2],"tree_param":{"num_deleted":"0","num_feature":"5000","num_nodes":"27","size_leaf_vector":"1"}},{"base_weights":[1.0779655E-1,9.441448E-2,-3.2857914E-2,8.8457984E-1,-1.7890213E-1,-4.7348723E-2,8.9792943E-1,6.092975E-1,-3.0577642E-1,-2.3978265E-1,9.14551E-1,-5.4743033E-2,7.057218E-1,9.4041646E-2,-3.8752592E-1,-4.4089396E-2,7.542872E-2,-3.8524162E-2,9.212908E-1,8.1835556E-1,-4.476062E-1,9.390662E-2,-4.7430453E-1,4.561748E-2,-3.32005E-2,-3.7859928E-2,9.2750356E-2,-5.2212168E-2,8.8008076E-2,6.578557E-2,-5.458671E-2,9.41977E-2,-5.670355E-2],"categories":[],"categories_nodes":[],"categories_segments":[],"categories_sizes":[],"default_left":[0,0,0,0,0,0,0,0,0,0,0,0,1,0,0,0,0,0,0,0,0,0,0,0,0,0,0,0,0,0,0,0,0],"id":36,"left_children":[1,-1,3,5,7,-1,9,11,13,15,17,-1,19,-1,21,-1,23,-1,25,27,29,-1,31,-1,-1,-1,-1,-1,-1,-1,-1,-1,-1],"loss_changes":[4.2546225E2,0E0,4.1508997E2,8.138306E0,2.6742978E2,0E0,8.192871E0,4.1750443E1,2.3493492E2,4.683631E-1,3.9973145E0,0E0,4.48918E1,0E0,2.492746E2,0E0,6.9864845E-1,0E0,3.6940308E0,2.632573E1,3.7418504E0,0E0,2.6706613E2,0E0,0E0,0E0,0E0,0E0,0E0,0E0,0E0,0E0,0E0],"parents":[2147483647,0,0,2,2,3,3,4,4,6,6,7,7,8,8,9,9,10,10,12,12,14,14,16,16,18,18,19,19,20,20,22,22],"right_children":[2,-1,4,6,8,-1,10,12,14,16,18,-1,20,-1,22,-1,24,-1,26,28,30,-1,32,-1,-1,-1,-1,-1,-1,-1,-1,-1,-1],"split_conditions":[6.4244294E-1,9.441448E-2,7.354823E-1,1.4338233E-1,4.7279269E-1,-4.7348723E-2,1.2245957E-1,1.5702431E-1,1.7889735E-1,1.3235849E-1,1.4381701E-1,-5.4743033E-2,1.1616196E-1,9.4041646E-2,3.6118364E-1,-4.4089396E-2,6.60534E-2,-3.8524162E-2,1.3966109E-1,2.0574573E-1,1.7228611E-1,9.390662E-2,1.8813784E-1,4.561748E-2,-3.32005E-2,-3.7859928E-2,9.2750356E-2,-5.2212168E-2,8.8008076E-2,6.578557E-2,-5.458671E-2,9.41977E-2,-5.670355E-2],"split_indices":[3531,0,712,2195,4660,0,162,1174,370,2808,2241,0,440,0,119,0,2807,0,3510,1086,848,0,536,0,0,0,0,0,0,0,0,0,0],"split_type":[0,0,0,0,0,0,0,0,0,0,0,0,0,0,0,0,0,0,0,0,0,0,0,0,0,0,0,0,0,0,0,0,0],"sum_hessian":[3.615502E3,5.196843E2,3.0958176E3,4.2444324E2,2.6713743E3,3.796089E0,4.2064716E2,3.6985672E2,2.3015176E3,5.8636913E0,4.1478348E2,2.8098867E1,3.4175787E2,1.410372E2,2.1604805E3,3.336324E0,2.5273676E0,1.8499796E0,4.1293347E2,3.1161597E2,3.0141907E1,1.3204688E2,2.0284336E3,1.2446318E0,1.2827358E0,1.6790854E0,4.112544E2,1.3389046E1,2.982269E2,1.9956223E0,2.8146284E1,1.24087364E2,1.9043462E3],"tree_param":{"num_deleted":"0","num_feature":"5000","num_nodes":"33","size_leaf_vector":"1"}},{"base_weights":[-3.8946187E-1,9.423802E-2,-4.435264E-1,8.922095E-1,-4.9883565E-1,-2.2139536E-1,9.2777216E-1,9.394611E-2,-5.335954E-1,9.934354E-3,-3.8804017E-2,2.8217895E-2,9.336179E-1,9.377866E-2,-5.6646246E-1,2.906996E-2,9.393292E-2,-1.2610378E-3,-5.6682408E-2],"categories":[],"categories_nodes":[],"categories_segments":[],"categories_sizes":[],"default_left":[0,0,0,0,0,0,0,0,0,0,0,0,0,0,0,0,0,0,0],"id":37,"left_children":[1,-1,3,5,7,9,11,-1,13,-1,-1,-1,15,-1,17,-1,-1,-1,-1],"loss_changes":[2.068486E2,0E0,2.0403375E2,4.558876E0,1.3282709E2,2.635312E-1,1.3932037E-1,0E0,1.2554065E2,0E0,0E0,0E0,1.1367798E-1,0E0,4.9938965E-1,0E0,0E0,0E0,0E0],"parents":[2147483647,0,0,2,2,3,3,4,4,5,5,6,6,8,8,12,12,14,14],"right_children":[2,-1,4,6,8,10,12,-1,14,-1,-1,-1,16,-1,18,-1,-1,-1,-1],"split_conditions":[3.3884782E-1,9.423802E-2,1.6511591E-1,1.063456E-1,4.6457142E-1,1.5196674E-1,2.076598E-1,9.394611E-2,4.3087113E-1,9.934354E-3,-3.8804017E-2,2.8217895E-2,1.9865395E-1,9.377866E-2,1.672213E-1,2.906996E-2,9.393292E-2,-1.2610378E-3,-5.6682408E-2],"split_indices":[1011,0,2695,4457,211,2695,4027,0,557,0,0,0,4622,0,2695,0,0,0,0],"split_type":[0,0,0,0,0,0,0,0,0,0,0,0,0,0,0,0,0,0,0],"sum_hessian":[2.8658774E3,1.1115754E2,2.75472E3,1.0892864E2,2.6457913E3,3.2092457E0,1.057194E2,6.1818584E1,2.5839727E3,1.2353827E0,1.973863E0,1.3908203E0,1.04328575E2,5.5856956E1,2.5281157E3,1.3756163E0,1.02952965E2,1.6730286E0,2.5264426E3],"tree_param":{"num_deleted":"0","num_feature":"5000","num_nodes":"19","size_leaf_vector":"1"}},{"base_weights":[-6.679791E-3,9.4719805E-2,-1.9309476E-1,9.4506614E-2,-3.12739E-1,9.4419055E-2,-3.9062008E-1,-4.774549E-1,8.365186E-1,9.481283E-2,-5.671672E-2,-4.2431813E-2,8.6273664E-1,-2.6837487E-2,8.8948034E-2],"categories":[],"categories_nodes":[],"categories_segments":[],"categories_sizes":[],"default_left":[0,0,0,0,0,0,1,0,0,0,0,0,0,0,0],"id":38,"left_children":[1,-1,3,-1,5,-1,7,9,11,-1,-1,-1,13,-1,-1],"loss_changes":[6.0646124E2,0E0,3.8880072E2,0E0,2.5315947E2,0E0,2.595923E2,2.9114673E2,5.6918488E0,0E0,0E0,0E0,5.023018E0,0E0,0E0],"parents":[2147483647,0,0,2,2,4,4,6,6,7,7,8,8,12,12],"right_children":[2,-1,4,-1,6,-1,8,10,12,-1,-1,-1,14,-1,-1],"split_conditions":[6.0335636E-1,9.4719805E-2,6.694782E-1,9.4506614E-2,4.5160574E-1,9.4419055E-2,1.3768506E-1,4.2913705E-1,1.2348662E-1,9.481283E-2,-5.671672E-2,-4.2431813E-2,1.0299314E-1,-2.6837487E-2,8.8948034E-2],"split_indices":[3578,0,3422,0,2555,0,3470,2221,3068,0,0,0,4558,0,0],"split_type":[0,0,0,0,0,0,0,0,0,0,0,0,0,0,0],"sum_hessian":[3.4085613E3,5.5656415E2,2.8519973E3,2.7062985E2,2.5813674E3,1.4996388E2,2.4314036E3,2.2712932E3,1.6011037E2,1.339043E2,2.137389E3,2.9522283E0,1.5715814E2,3.4212976E0,1.5373685E2],"tree_param":{"num_deleted":"0","num_feature":"5000","num_nodes":"15","size_leaf_vector":"1"}},{"base_weights":[1.9553274E-1,7.9656047E-1,3.4720526E-4,-5.6106765E-2,9.4121236E-1,9.607935E-2,-1.6953565E-1,-4.2120054E-2,9.4573027E-1,9.595535E-2,-2.8160882E-1,-4.0203165E-2,9.494E-1,9.591569E-2,-4.1172695E-1,-3.670226E-2,9.5250905E-1,9.5954075E-2,-5.701203E-2,9.549051E-2,-3.4888666E-2],"categories":[],"categories_nodes":[],"categories_segments":[],"categories_sizes":[],"default_left":[0,0,0,0,0,0,0,0,0,0,0,0,0,0,0,0,1,0,0,0,0],"id":39,"left_children":[1,3,5,-1,7,-1,9,-1,11,-1,13,-1,15,-1,17,-1,19,-1,-1,-1,-1],"loss_changes":[4.4519623E2,1.8322552E2,4.6773544E2,0E0,5.5756226E0,0E0,3.0850098E2,0E0,4.52948E0,0E0,3.5826447E2,0E0,3.7738647E0,0E0,4.3645715E2,0E0,2.9367676E0,0E0,0E0,0E0,0E0],"parents":[2147483647,0,0,1,1,2,2,4,4,6,6,8,8,10,10,12,12,14,14,16,16],"right_children":[2,4,6,-1,8,-1,10,-1,12,-1,14,-1,16,-1,18,-1,20,-1,-1,-1,-1],"split_conditions":[4.737715E-1,6.4317495E-1,5.1160175E-1,-5.6106765E-2,2.146151E-1,9.607935E-2,3.5428E-1,-4.2120054E-2,2.8359225E-1,9.595535E-2,3.5195303E-1,-4.0203165E-2,2.7115193E-1,9.591569E-2,3.4486097E-1,-3.670226E-2,1.0315675E-1,9.5954075E-2,-5.701203E-2,9.549051E-2,-3.4888666E-2],"split_indices":[869,924,104,0,4660,0,489,0,2311,0,0,0,1174,0,196,0,2321,0,0,0,0],"split_type":[0,0,0,0,0,0,0,0,0,0,0,0,0,0,0,0,0,0,0,0,0],"sum_hessian":[3.793981E3,9.293098E2,2.8646711E3,8.9204384E1,8.401054E2,4.2984613E2,2.434825E3,2.4718435E0,8.3763354E2,2.1917445E2,2.2156504E3,1.9797696E0,8.356538E2,2.0969481E2,2.0059557E3,1.6931728E0,8.3396063E2,2.0718896E2,1.7987667E3,8.326938E2,1.2668549E0],"tree_param":{"num_deleted":"0","num_feature":"5000","num_nodes":"21","size_leaf_vector":"1"}},{"base_weights":[1.217192E-2,8.312012E-1,-1.685799E-1,-5.3704735E-2,8.833244E-2,8.2565004E-1,-3.3444047E-1,8.606262E-1,-2.6595524E-1,8.880859E-2,-4.6291217E-1,-1.24881215E-1,8.757837E-1,7.278051E-2,-5.17579E-2,9.107927E-2,-5.611939E-2,3.9855782E-2,-3.2118082E-1,-3.9494324E-2,8.8258266E-1,-4.575361E-2,4.4647227E-3,-3.6783006E-2,8.8869385E-2],"categories":[],"categories_nodes":[],"categories_segments":[],"categories_sizes":[],"default_left":[0,0,0,0,0,0,0,0,0,0,0,0,0,0,0,0,0,0,0,0,0,0,0,0,0],"id":40,"left_children":[1,3,5,-1,-1,7,9,11,13,-1,15,17,19,-1,-1,-1,-1,-1,21,-1,23,-1,-1,-1,-1],"loss_changes":[4.8587302E2,4.2791138E1,4.436542E2,0E0,0E0,1.4916779E1,3.624364E2,5.6809998E0,3.5542316E0,0E0,2.8220663E2,7.98462E-1,3.523407E0,0E0,0E0,0E0,0E0,0E0,2.8476375E-1,0E0,3.1223145E0,0E0,0E0,0E0,0E0],"parents":[2147483647,0,0,1,1,2,2,5,5,6,6,7,7,8,8,10,10,11,11,12,12,18,18,20,20],"right_children":[2,4,6,-1,-1,8,10,12,14,-1,16,18,20,-1,-1,-1,-1,-1,22,-1,24,-1,-1,-1,-1],"split_conditions":[6.028122E-1,2.1543057E-1,6.309851E-1,-5.3704735E-2,8.833244E-2,3.569064E-1,7.315774E-1,9.7310945E-2,2.0049907E-1,8.880859E-2,4.2136288E-1,1.1051543E-1,3.63353E-1,7.278051E-2,-5.17579E-2,9.107927E-2,-5.611939E-2,3.9855782E-2,9.479047E-2,-3.9494324E-2,1.6260861E-1,-4.575361E-2,4.4647227E-3,-3.6783006E-2,8.8869385E-2],"split_indices":[1174,557,440,0,0,2807,3442,1880,1087,0,1087,162,370,0,0,0,0,0,4558,0,568,0,0,0,0],"split_type":[0,0,0,0,0,0,0,0,0,0,0,0,0,0,0,0,0,0,0,0,0,0,0,0,0],"sum_hessian":[3.280069E3,5.9235767E2,2.6877114E3,2.1396267E1,5.709614E2,3.8369897E2,2.3040125E3,3.7199158E2,1.1707411E1,2.185353E2,2.085477E3,5.5250325E0,3.6646655E2,1.9830679E0,9.724342E0,1.3869136E2,1.9467858E3,1.2258666E0,4.299166E0,1.6465222E0,3.6482E2,2.949217E0,1.3499491E0,1.4864545E0,3.6333356E2],"tree_param":{"num_deleted":"0","num_feature":"5000","num_nodes":"25","size_leaf_vector":"1"}},{"base_weights":[1.0099837E-1,8.8195376E-2,-2.9372886E-2,8.835958E-2,-1.7403321E-1,8.369355E-1,-3.2819778E-1,8.7279767E-1,-2.0100236E-1,7.89357E-1,-4.70026E-1,-3.4872856E-2,8.7963325E-1,5.8018815E-2,-3.6563453E-1,8.878494E-2,4.9976233E-1,8.794541E-2,-5.6097317E-2,-2.9591132E-2,8.842065E-2,3.9144304E-2,-5.0601553E-2,8.8463545E-2,-5.6826264E-2],"categories":[],"categories_nodes":[],"categories_segments":[],"categories_sizes":[],"default_left":[0,0,0,0,0,0,0,0,0,0,0,0,0,0,0,0,0,0,0,0,0,0,0,0,0],"id":41,"left_children":[1,-1,3,-1,5,7,9,11,13,15,17,-1,19,-1,21,-1,23,-1,-1,-1,-1,-1,-1,-1,-1],"loss_changes":[3.5205594E2,0E0,3.9159897E2,0E0,3.9916385E2,1.2791031E1,3.5246936E2,3.0437317E0,1.7724137E0,6.7025146E0,2.4250555E2,0E0,2.015625E0,0E0,1.3282124E0,0E0,2.7580181E1,0E0,0E0,0E0,0E0,0E0,0E0,0E0,0E0],"parents":[2147483647,0,0,2,2,4,4,5,5,6,6,7,7,8,8,9,9,10,10,12,12,14,14,16,16],"right_children":[2,-1,4,-1,6,8,10,12,14,16,18,-1,20,-1,22,-1,24,-1,-1,-1,-1,-1,-1,-1,-1],"split_conditions":[6.4244294E-1,8.8195376E-2,6.000454E-1,8.835958E-2,5.606228E-1,4.1005558E-1,7.354823E-1,1.6178682E-1,1.6718487E-1,3.0323365E-1,1.7889735E-1,-3.4872856E-2,1.7926648E-1,5.8018815E-2,1.6403896E-1,8.878494E-2,3.63353E-1,8.794541E-2,-5.6097317E-2,-2.9591132E-2,8.842065E-2,3.9144304E-2,-5.0601553E-2,8.8463545E-2,-5.6826264E-2],"split_indices":[3531,0,2311,0,624,4558,712,4573,370,4230,370,0,168,0,2776,0,370,0,0,0,0,0,0,0,0],"split_type":[0,0,0,0,0,0,0,0,0,0,0,0,0,0,0,0,0,0,0,0,0,0,0,0,0],"sum_hessian":[3.4565754E3,4.936611E2,2.9629143E3,4.0456268E2,2.5583516E3,3.3792218E2,2.2204294E3,3.2679025E2,1.1131933E1,2.4954443E2,1.970885E3,1.5401902E0,3.2525006E2,1.4982919E0,9.633641E0,1.8467117E2,6.487327E1,1.2389236E2,1.8469927E3,1.0135655E0,3.2423648E2,1.2271519E0,8.406489E0,4.7814545E1,1.7058725E1],"tree_param":{"num_deleted":"0","num_feature":"5000","num_nodes":"25","size_leaf_vector":"1"}},{"base_weights":[-3.8270444E-1,8.792044E-2,-4.348372E-1,8.348031E-1,-4.8958185E-1,-1.8155168E-1,8.6409634E-1,8.794304E-2,-5.27794E-1,9.826017E-3,-3.5284948E-2,8.810324E-2,-3.355114E-2,8.750378E-2,-5.605047E-1,-6.2505654E-3,-5.6088503E-2],"categories":[],"categories_nodes":[],"categories_segments":[],"categories_sizes":[],"default_left":[0,0,0,0,0,0,1,0,0,0,0,0,0,0,0,0,0],"id":42,"left_children":[1,-1,3,5,7,9,11,-1,13,-1,-1,-1,-1,-1,15,-1,-1],"loss_changes":[1.7680185E2,0E0,1.7945374E2,3.3380432E0,1.2968292E2,2.1775362E-1,2.4091263E0,0E0,1.1078888E2,0E0,0E0,0E0,0E0,0E0,4.099121E-1,0E0,0E0],"parents":[2147483647,0,0,2,2,3,3,4,4,5,5,6,6,8,8,14,14],"right_children":[2,-1,4,6,8,10,12,-1,14,-1,-1,-1,-1,-1,16,-1,-1],"split_conditions":[3.3884782E-1,8.792044E-2,1.6511591E-1,5.4379966E-2,4.6457142E-1,1.5196674E-1,7.761453E-2,8.794304E-2,2.1543057E-1,9.826017E-3,-3.5284948E-2,8.810324E-2,-3.355114E-2,8.750378E-2,1.672213E-1,-6.2505654E-3,-5.6088503E-2],"split_indices":[1011,0,2695,4457,211,2695,4558,0,759,0,0,0,0,0,2695,0,0],"split_type":[0,0,0,0,0,0,0,0,0,0,0,0,0,0,0,0,0],"sum_hessian":[2.6806865E3,1.0572306E2,2.5749634E3,1.05849464E2,2.469114E3,2.8196998E0,1.0302976E2,6.644918E1,2.4026648E3,1.2326182E0,1.5870817E0,1.0185731E2,1.1724583E0,5.4161068E1,2.3485037E3,1.9182695E0,2.3465854E3],"tree_param":{"num_deleted":"0","num_feature":"5000","num_nodes":"17","size_leaf_vector":"1"}},{"base_weights":[-7.7870446E-3,-1.3938798E-1,8.399381E-1,-3.987877E-1,3.8301903E-1,-1.3982166E-1,8.689714E-1,8.810606E-2,-5.4915226E-1,-5.013045E-1,6.6567737E-1,-3.0242488E-1,7.088476E-2,-3.6724176E-2,8.7453544E-1,8.038524E-2,-5.544242E-1,7.68397E-2,-5.246485E-1,-5.561651E-2,8.7338287E-1,-4.3393257E-1,2.4623988E-2,8.8038933E-1,2.6829126E-1,7.336589E-2,-5.5865574E-1,7.1705244E-2,-5.419923E-1,-3.119216E-2,8.7631583E-1,8.005428E-3,-5.0857164E-2,2.1936422E-2,8.8238195E-2,-3.2030623E-2,4.9502695E-1,6.142051E-2,-5.60412E-2,5.273391E-2,-5.5160876E-2,-3.0160114E-2,8.790924E-2,1.8098401E-3,7.068621E-2],"categories":[],"categories_nodes":[],"categories_segments":[],"categories_sizes":[],"default_left":[1,1,0,0,0,1,0,0,0,0,0,1,0,0,1,0,0,0,0,0,0,0,0,0,0,0,0,0,0,0,0,0,0,0,0,0,0,0,0,0,0,0,0,0,0],"id":43,"left_children":[1,3,5,7,9,11,13,-1,15,17,19,21,-1,-1,23,-1,25,-1,27,-1,29,31,-1,33,35,-1,37,-1,39,-1,41,-1,-1,-1,-1,-1,43,-1,-1,-1,-1,-1,-1,-1,-1],"loss_changes":[3.6177704E2,3.805395E2,1.2517334E1,3.615391E2,2.3326497E2,2.063943E0,3.2332153E0,0E0,1.2425751E1,7.1100845E0,1.7980594E2,9.690081E-1,0E0,0E0,1.2606201E0,0E0,9.53186E0,0E0,5.1866226E0,0E0,2.374237E0,4.2437363E-1,0E0,3.560791E-1,8.888237E-1,0E0,3.7814941E0,0E0,2.5561523E0,0E0,2.2374573E0,0E0,0E0,0E0,0E0,0E0,4.259919E-1,0E0,0E0,0E0,0E0,0E0,0E0,0E0,0E0],"parents":[2147483647,0,0,1,1,2,2,3,3,4,4,5,5,6,6,8,8,9,9,10,10,11,11,14,14,16,16,18,18,20,20,21,21,23,23,24,24,26,26,28,28,30,30,36,36],"right_children":[2,4,6,8,10,12,14,-1,16,18,20,22,-1,-1,24,-1,26,-1,28,-1,30,32,-1,34,36,-1,38,-1,40,-1,42,-1,-1,-1,-1,-1,44,-1,-1,-1,-1,-1,-1,-1,-1],"split_conditions":[1.1743081E-1,8.1343204E-2,3.6973006E-1,4.0298498E-1,3.6973006E-1,1.3882694E-1,2.7252752E-1,8.810606E-2,2.602485E-1,3.087174E-1,6.127218E-1,8.639956E-2,7.088476E-2,-3.6724176E-2,6.5962635E-2,8.038524E-2,1.47951E-1,7.68397E-2,1.9269393E-1,-5.561651E-2,1.271721E-1,1.2245759E-1,2.4623988E-2,6.0662415E-2,2.7874625E-1,7.336589E-2,1.4302146E-1,7.1705244E-2,1.8036279E-1,-3.119216E-2,1.3356024E-1,8.005428E-3,-5.0857164E-2,2.1936422E-2,8.8238195E-2,-3.2030623E-2,1.0253183E-1,6.142051E-2,-5.60412E-2,5.273391E-2,-5.5160876E-2,-3.0160114E-2,8.790924E-2,1.8098401E-3,7.068621E-2],"split_indices":[4988,1880,4457,1094,4457,498,3531,0,943,943,721,2321,0,0,2807,0,1776,0,1035,0,2808,2240,0,2807,712,0,1035,0,1094,0,4660,0,0,0,0,0,2321,0,0,0,0,0,0,0,0],"split_type":[0,0,0,0,0,0,0,0,0,0,0,0,0,0,0,0,0,0,0,0,0,0,0,0,0,0,0,0,0,0,0,0,0,0,0,0,0,0,0,0,0,0,0,0,0],"sum_hessian":[3.2408013E3,2.8060286E3,4.3477255E2,1.8751598E3,9.308688E2,1.2403035E1,4.2236954E2,1.9663283E2,1.678527E3,2.2528128E2,7.055875E2,1.0948898E1,1.4541372E0,1.6012521E0,4.2076828E2,5.927096E0,1.6726E3,3.4909086E0,2.2179037E2,1.0227425E2,6.0331323E2,9.000669E0,1.94823E0,4.1629633E2,4.47194E0,4.9122267E0,1.6676877E3,2.4995046E0,2.1929086E2,1.2291398E0,6.020841E2,1.1321042E0,7.868564E0,1.5849903E0,4.1471133E2,1.1288365E0,3.3431034E0,1.9721105E0,1.6657156E3,1.4746438E0,2.1781622E2,1.1627457E0,6.009214E2,1.3620353E0,1.9810681E0],"tree_param":{"num_deleted":"0","num_feature":"5000","num_nodes":"45","size_leaf_vector":"1"}},{"base_weights":[1.805891E-1,7.4391097E-1,-1.0326811E-2,-5.553621E-2,8.7369406E-1,8.955226E-2,-1.7739154E-1,-4.333789E-2,8.781564E-1,8.9454606E-2,-2.8700978E-1,-4.2233713E-2,8.826738E-1,8.942313E-2,-4.1325513E-1,8.860169E-1,-4.0406406E-2,8.935042E-2,-5.6398433E-2,8.886821E-2,-3.6649898E-2],"categories":[],"categories_nodes":[],"categories_segments":[],"categories_sizes":[],"default_left":[0,0,0,0,0,0,0,0,0,0,0,0,1,0,0,1,0,0,0,0,0],"id":44,"left_children":[1,3,5,-1,7,-1,9,-1,11,-1,13,-1,15,-1,17,19,-1,-1,-1,-1,-1],"loss_changes":[3.9491064E2,1.5721472E2,4.1533945E2,0E0,5.3117065E0,0E0,2.725244E2,0E0,5.324646E0,0E0,3.1396472E2,0E0,3.9726562E0,0E0,3.7484384E2,3.1245728E0,0E0,0E0,0E0,0E0,0E0],"parents":[2147483647,0,0,1,1,2,2,4,4,6,6,8,8,10,10,12,12,14,14,15,15],"right_children":[2,4,6,-1,8,-1,10,-1,12,-1,14,-1,16,-1,18,20,-1,-1,-1,-1,-1],"split_conditions":[4.737715E-1,6.4317495E-1,5.1160175E-1,-5.553621E-2,3.1604356E-1,8.955226E-2,3.5428E-1,-4.333789E-2,2.146151E-1,8.9454606E-2,3.4486097E-1,-4.2233713E-2,1.2976E-1,8.942313E-2,3.5195303E-1,1.0315675E-1,-4.0406406E-2,8.935042E-2,-5.6398433E-2,8.886821E-2,-3.6649898E-2],"split_indices":[869,924,104,0,4668,0,490,0,4660,0,196,0,4979,0,1083,2321,0,0,0,0,0],"split_type":[0,0,0,0,0,0,0,0,0,0,0,0,0,0,0,0,0,0,0,0,0],"sum_hessian":[3.670908E3,9.284628E2,2.742445E3,8.4022736E1,8.4444006E2,4.2635043E2,2.3160947E3,2.5460918E0,8.41894E2,2.1421016E2,2.1018845E3,2.5940926E0,8.3929987E2,2.0236168E2,1.8995228E3,8.3743555E2,1.8643558E0,1.959335E2,1.7035894E3,8.3594727E2,1.4882859E0],"tree_param":{"num_deleted":"0","num_feature":"5000","num_nodes":"21","size_leaf_vector":"1"}},{"base_weights":[9.672487E-3,7.870271E-1,-1.6917819E-1,-5.2847277E-2,8.3159976E-2,-3.3400017E-1,7.8263867E-1,8.517367E-2,-4.5995483E-1,8.137378E-1,-1.9389491E-1,8.292552E-2,-5.557173E-2,-4.046855E-2,8.206607E-1,7.425034E-2,-5.068518E-2,-1.8884112E-1,8.288902E-1,-3.5712127E-2,1.2576841E-2,-3.5612732E-2,8.346149E-2],"categories":[],"categories_nodes":[],"categories_segments":[],"categories_sizes":[],"default_left":[0,0,1,0,0,0,0,0,0,0,0,0,0,0,0,0,0,0,0,0,0,0,0],"id":45,"left_children":[1,3,5,-1,-1,7,9,-1,11,13,15,-1,-1,-1,17,-1,-1,19,21,-1,-1,-1,-1],"loss_changes":[4.3181827E2,3.450284E1,3.9638934E2,0E0,0E0,3.21944E2,1.1485794E1,0E0,2.4082486E2,3.3829346E0,3.9867263E0,0E0,0E0,0E0,3.1470795E0,0E0,0E0,2.4213819E-1,2.7207947E0,0E0,0E0,0E0,0E0],"parents":[2147483647,0,0,1,1,2,2,5,5,6,6,8,8,9,9,10,10,14,14,17,17,18,18],"right_children":[2,4,6,-1,-1,8,10,-1,12,14,16,-1,-1,-1,18,-1,-1,20,22,-1,-1,-1,-1],"split_conditions":[6.028122E-1,2.1543057E-1,1.11002624E-1,-5.2847277E-2,8.3159976E-2,6.757371E-1,3.569064E-1,8.517367E-2,4.4372785E-1,1.7028387E-1,2.0049907E-1,8.292552E-2,-5.557173E-2,-4.046855E-2,9.537735E-2,7.425034E-2,-5.068518E-2,1.3771814E-1,1.6260861E-1,-3.5712127E-2,1.2576841E-2,-3.5612732E-2,8.346149E-2],"split_indices":[1174,557,440,0,0,4668,2807,0,2332,536,1087,0,0,0,1880,0,0,440,568,0,0,0,0],"split_type":[0,0,0,0,0,0,0,0,0,0,0,0,0,0,0,0,0,0,0,0,0,0,0],"sum_hessian":[3.1039695E3,5.79937E2,2.5240325E3,1.8650019E1,5.61287E2,2.1520247E3,3.720077E2,2.06094E2,1.9459308E3,3.6068774E2,1.131994E1,1.3401968E2,1.811911E3,1.7131746E0,3.5897458E2,2.4917705E0,8.828169E0,2.7252398E0,3.5624933E2,1.6874965E0,1.0377431E0,1.4184717E0,3.5483084E2],"tree_param":{"num_deleted":"0","num_feature":"5000","num_nodes":"23","size_leaf_vector":"1"}},{"base_weights":[1.0097181E-1,8.307028E-2,-2.9783899E-2,8.323427E-2,-1.7087068E-1,7.8547263E-1,-3.2147434E-1,8.0842733E-1,-4.7264468E-2,7.359424E-1,-4.5668003E-1,-4.025183E-2,8.186875E-1,7.9083854E-1,-5.3034663E-2,8.2977325E-2,-5.554825E-2,-3.2922357E-2,8.243301E-2,-4.3877304E-2,8.1248716E-2],"categories":[],"categories_nodes":[],"categories_segments":[],"categories_sizes":[],"default_left":[0,0,0,0,0,0,0,0,0,0,0,0,0,0,0,0,0,0,0,0,0],"id":46,"left_children":[1,-1,3,-1,5,7,9,11,-1,13,15,-1,17,19,-1,-1,-1,-1,-1,-1,-1],"loss_changes":[3.1287503E2,0E0,3.3847165E2,0E0,3.4465027E2,9.785828E0,2.9578894E2,4.307251E0,0E0,1.6731995E1,2.3343008E2,0E0,2.3297882E0,6.3542633E0,0E0,0E0,0E0,0E0,0E0,0E0,0E0],"parents":[2147483647,0,0,2,2,4,4,5,5,6,6,7,7,9,9,10,10,12,12,13,13],"right_children":[2,-1,4,-1,6,8,10,12,-1,14,16,-1,18,20,-1,-1,-1,-1,-1,-1,-1],"split_conditions":[6.4244294E-1,8.307028E-2,6.000454E-1,8.323427E-2,5.606228E-1,3.569064E-1,7.354823E-1,1.2892243E-1,-4.7264468E-2,3.569064E-1,3.63353E-1,-4.025183E-2,1.2816373E-1,1.3235849E-1,-5.3034663E-2,8.2977325E-2,-5.554825E-2,-3.2922357E-2,8.243301E-2,-4.3877304E-2,8.1248716E-2],"split_indices":[3531,0,2311,0,624,2807,712,2808,0,2807,370,0,2195,2808,0,0,0,0,0,0,0],"split_type":[0,0,0,0,0,0,0,0,0,0,0,0,0,0,0,0,0,0,0,0,0],"sum_hessian":[3.2777861E3,4.9726434E2,2.780522E3,3.9034927E2,2.3901726E3,3.246171E2,2.0655554E3,3.1915152E2,5.4655695E0,2.33665E2,1.8318905E3,2.3602066E0,3.1679132E2,2.2431593E2,9.349066E0,1.3013074E2,1.7017598E3,1.2690593E0,3.1552225E2,3.5476186E0,2.2076831E2],"tree_param":{"num_deleted":"0","num_feature":"5000","num_nodes":"21","size_leaf_vector":"1"}},{"base_weights":[-3.7353456E-1,8.2980044E-2,-4.250642E-1,7.783915E-1,-4.8216516E-1,8.067734E-1,-3.989267E-2,8.272166E-2,-5.201319E-1,8.255134E-1,-3.5717286E-2,8.224128E-2,-5.549893E-1,3.829794E-3,8.327818E-2,5.4640616E-3,-5.5539954E-2],"categories":[],"categories_nodes":[],"categories_segments":[],"categories_sizes":[],"default_left":[0,0,0,1,0,1,0,0,0,0,0,0,0,0,0,0,0],"id":47,"left_children":[1,-1,3,5,7,9,-1,-1,11,13,-1,-1,15,-1,-1,-1,-1],"loss_changes":[1.5673569E2,0E0,1.6661209E2,3.9962234E0,1.1527399E2,2.644165E0,0E0,0E0,1.0554761E2,5.763321E-1,0E0,0E0,5.780029E-1,0E0,0E0,0E0,0E0],"parents":[2147483647,0,0,2,2,3,3,4,4,5,5,8,8,9,9,12,12],"right_children":[2,-1,4,6,8,10,-1,-1,12,14,-1,-1,16,-1,-1,-1,-1],"split_conditions":[3.816054E-1,8.2980044E-2,1.6511591E-1,5.1526118E-2,2.3020028E-1,7.761453E-2,-3.989267E-2,8.272166E-2,3.7943298E-1,1.0653586E-1,-3.5717286E-2,8.224128E-2,1.672213E-1,3.829794E-3,8.327818E-2,5.4640616E-3,-5.5539954E-2],"split_indices":[3505,0,2695,4457,211,4558,0,0,332,2726,0,0,2695,0,0,0,0],"split_type":[0,0,0,0,0,0,0,0,0,0,0,0,0,0,0,0,0],"sum_hessian":[2.521002E3,1.0290205E2,2.4180999E3,1.08963356E2,2.3091365E3,1.067057E2,2.257648E0,6.448308E1,2.2446536E3,1.0530108E2,1.4046261E0,5.623277E1,2.1884207E3,1.0207027E0,1.0428037E2,1.3829428E0,2.1870378E3],"tree_param":{"num_deleted":"0","num_feature":"5000","num_nodes":"17","size_leaf_vector":"1"}},{"base_weights":[-1.236806E-2,8.32743E-2,-1.8625942E-1,-3.0552787E-1,7.7479404E-1,8.2976654E-2,-3.8218778E-1,-5.837517E-2,8.1157553E-1,8.303573E-2,-4.6329796E-1,-2.1804996E-1,6.98255E-2,-3.7656482E-2,8.208741E-1,8.284051E-2,-5.551612E-1,6.860312E-2,-4.1920373E-1,8.283541E-1,-3.508165E-2,-5.556057E-2,1.2295548E-2,1.0193201E-2,-5.03184E-2,-4.2247875E-3,8.328092E-2],"categories":[],"categories_nodes":[],"categories_segments":[],"categories_sizes":[],"default_left":[0,0,1,0,0,0,0,1,0,0,0,0,0,0,1,0,1,0,0,0,0,0,0,0,0,0,0],"id":48,"left_children":[1,-1,3,5,7,-1,9,11,13,-1,15,17,-1,-1,19,-1,21,-1,23,25,-1,-1,-1,-1,-1,-1,-1],"loss_changes":[4.4960397E2,0E0,2.9106732E2,1.9682326E2,8.640305E0,0E0,2.0846707E2,1.6972566E0,3.2767334E0,0E0,2.3584897E2,2.3465545E0,0E0,0E0,2.6292572E0,0E0,6.2677E-1,0E0,4.837731E-1,1.0647278E0,0E0,0E0,0E0,0E0,0E0,0E0,0E0],"parents":[2147483647,0,0,2,2,3,3,4,4,6,6,7,7,8,8,10,10,11,11,14,14,16,16,18,18,19,19],"right_children":[2,-1,4,6,8,-1,10,12,14,-1,16,18,-1,-1,20,-1,22,-1,24,26,-1,-1,-1,-1,-1,-1,-1],"split_conditions":[6.0335636E-1,8.32743E-2,1.1863536E-1,1.9804767E-1,1.337982E-1,8.2976654E-2,3.9056754E-1,1.3882694E-1,2.7252752E-1,8.303573E-2,4.0298498E-1,2.1574056E-1,6.98255E-2,-3.7656482E-2,7.100746E-2,8.284051E-2,1.783461E-1,6.860312E-2,8.904546E-2,1.0181306E-1,-3.508165E-2,-5.556057E-2,1.2295548E-2,1.0193201E-2,-5.03184E-2,-4.2247875E-3,8.328092E-2],"split_indices":[3578,0,4988,1088,4457,0,1776,498,3531,0,1093,2555,0,0,2807,0,4370,0,2321,4558,0,0,0,0,0,0,0],"split_type":[0,0,0,0,0,0,0,0,0,0,0,0,0,0,0,0,0,0,0,0,0,0,0,0,0,0,0],"sum_hessian":[3.0573594E3,5.210876E2,2.5362717E3,2.2568718E3,2.7939975E2,1.4213283E2,2.114739E3,1.178819E1,2.6761154E2,1.3201169E2,1.9827274E3,1.032176E1,1.4664294E0,1.7713931E0,2.6584015E2,1.3111273E2,1.8516146E3,1.4398602E0,8.8819E0,2.6444498E2,1.3951806E0,1.8505822E3,1.032494E0,1.2029976E0,7.6789026E0,1.3031427E0,2.6314185E2],"tree_param":{"num_deleted":"0","num_feature":"5000","num_nodes":"27","size_leaf_vector":"1"}},{"base_weights":[1.712096E-1,4.7659537E-1,-5.5524062E-2,-4.5186397E-1,5.559428E-1,5.4064673E-1,-4.9504456E-1,-5.6961324E-2,6.210513E-1,7.0050344E-2,1.4303404E-1,6.270602E-2,-5.1624733E-1,-5.5113014E-2,6.808821E-1,5.0061107E-2,-3.08988E-2,5.5562526E-2,-5.307566E-1,-5.6810986E-2,7.327891E-1,4.985943E-2,-5.418375E-2,-5.493319E-2,7.8458935E-2],"categories":[],"categories_nodes":[],"categories_segments":[],"categories_sizes":[],"default_left":[0,0,0,0,0,0,0,0,0,0,0,0,0,0,0,0,0,0,0,0,0,0,0,0,0],"id":49,"left_children":[1,3,-1,5,7,9,11,-1,13,-1,15,-1,17,-1,19,-1,-1,-1,21,-1,23,-1,-1,-1,-1],"loss_changes":[7.715758E2,1.8061987E2,0E0,8.552517E0,1.6568036E2,4.424703E-1,4.7436523E0,0E0,1.499754E2,0E0,7.535001E-1,0E0,3.1390533E0,0E0,1.3202179E2,0E0,0E0,0E0,2.3340683E0,0E0,1.298988E2,0E0,0E0,0E0,0E0],"parents":[2147483647,0,0,1,1,3,3,4,4,5,5,6,6,8,8,10,10,12,12,14,14,18,18,20,20],"right_children":[2,4,-1,6,8,10,12,-1,14,-1,16,-1,18,-1,20,-1,-1,-1,22,-1,24,-1,-1,-1,-1],"split_conditions":[3.6973006E-1,5.3217506E-1,-5.5524062E-2,2.1409492E-1,6.757371E-1,1.7036633E-1,1.6455363E-1,-5.6961324E-2,3.460787E-1,7.0050344E-2,1.5383829E-1,6.270602E-2,1.6209456E-1,-5.5113014E-2,3.7275094E-1,5.0061107E-2,-3.08988E-2,5.5562526E-2,1.2857871E-1,-5.6810986E-2,6.694782E-1,4.985943E-2,-5.418375E-2,-5.493319E-2,7.8458935E-2],"split_indices":[4457,2726,0,2941,4668,878,0,0,4873,0,455,0,489,0,78,0,0,0,104,0,3422,0,0,0,0],"split_type":[0,0,0,0,0,0,0,0,0,0,0,0,0,0,0,0,0,0,0,0,0,0,0,0,0],"sum_hessian":[3.475762E3,2.4473054E3,1.0284565E3,1.9231345E2,2.2549922E3,7.537714E0,1.8477573E2,1.2288492E2,2.1321072E3,4.832911E0,2.7048028E0,2.8967736E0,1.8187895E2,1.0314372E2,2.0289634E3,1.4501516E0,1.2546511E0,1.9310099E0,1.7994794E2,8.056064E1,1.9484028E3,1.4479284E0,1.7850002E2,7.528943E1,1.8731134E3],"tree_param":{"num_deleted":"0","num_feature":"5000","num_nodes":"25","size_leaf_vector":"1"}},{"base_weights":[1.5055333E-3,7.451768E-1,-1.7258555E-1,-5.2528143E-2,7.913618E-2,8.025698E-2,-2.9812726E-1,8.08646E-2,-4.145124E-1,7.844156E-2,-5.0032836E-1,7.8422666E-2,-5.511657E-2],"categories":[],"categories_nodes":[],"categories_segments":[],"categories_sizes":[],"default_left":[0,0,0,0,0,0,0,0,0,0,0,0,0],"id":50,"left_children":[1,3,5,-1,-1,-1,7,-1,9,-1,11,-1,-1],"loss_changes":[3.7723267E2,3.2846558E1,2.8928445E2,0E0,0E0,0E0,2.6987152E2,0E0,1.9526474E2,0E0,1.1589737E2,0E0,0E0],"parents":[2147483647,0,0,1,1,2,2,6,6,8,8,10,10],"right_children":[2,4,6,-1,-1,-1,8,-1,10,-1,12,-1,-1],"split_conditions":[6.028122E-1,4.3087113E-1,6.757371E-1,-5.2528143E-2,7.913618E-2,8.025698E-2,6.1307675E-1,8.08646E-2,6.4317495E-1,7.844156E-2,4.4372785E-1,7.8422666E-2,-5.511657E-2],"split_indices":[1174,760,4668,0,0,0,77,0,924,0,2852,0,0],"split_type":[0,0,0,0,0,0,0,0,0,0,0,0,0],"sum_hessian":[2.9117532E3,5.517106E2,2.3600427E3,1.8988903E1,5.327216E2,2.6856326E2,2.0914795E3,1.9844102E2,1.8930383E3,1.25903946E2,1.7671344E3,6.672424E1,1.7004102E3],"tree_param":{"num_deleted":"0","num_feature":"5000","num_nodes":"13","size_leaf_vector":"1"}},{"base_weights":[9.663639E-2,7.8815475E-2,-2.897426E-2,7.8929245E-2,-1.6577493E-1,7.410778E-1,-3.153019E-1,7.700272E-1,-1.2653352E-1,6.98716E-1,-4.528215E-1,-3.2916717E-2,7.760985E-1,5.7389565E-2,-3.3847877E-1,-3.483797E-1,7.2464865E-1,7.870625E-2,-5.5051643E-2,-1.8530207E-2,7.830804E-2,-4.811216E-2,1.782193E-2,9.141001E-3,-4.5316022E-2,-2.0700147E-2,7.447194E-2],"categories":[],"categories_nodes":[],"categories_segments":[],"categories_sizes":[],"default_left":[0,0,0,0,0,0,0,0,0,0,0,0,0,0,1,0,0,0,0,0,0,0,0,0,0,0,0],"id":51,"left_children":[1,-1,3,-1,5,7,9,11,13,15,17,-1,19,-1,21,23,25,-1,-1,-1,-1,-1,-1,-1,-1,-1,-1],"loss_changes":[2.684286E2,0E0,2.9296252E2,0E0,3.0426068E2,8.076096E0,2.688144E2,2.3078308E0,1.8444452E0,6.506958E0,2.0588364E2,0E0,2.2001343E0,0E0,7.6106846E-1,3.290633E-1,4.363167E0,0E0,0E0,0E0,0E0,0E0,0E0,0E0,0E0,0E0,0E0],"parents":[2147483647,0,0,2,2,4,4,5,5,6,6,7,7,8,8,9,9,10,10,12,12,14,14,15,15,16,16],"right_children":[2,-1,4,-1,6,8,10,12,14,16,18,-1,20,-1,22,24,26,-1,-1,-1,-1,-1,-1,-1,-1,-1,-1],"split_conditions":[6.4244294E-1,7.8815475E-2,6.000454E-1,7.8929245E-2,5.606228E-1,4.1005558E-1,7.354823E-1,1.6178682E-1,1.7140071E-1,2.0393062E-1,3.63353E-1,-3.2916717E-2,6.034801E-1,5.7389565E-2,1.0937344E-1,1.0377664E-1,4.737715E-1,7.870625E-2,-5.5051643E-2,-1.8530207E-2,7.830804E-2,-4.811216E-2,1.782193E-2,9.141001E-3,-4.5316022E-2,-2.0700147E-2,7.447194E-2],"split_indices":[3531,0,2311,0,624,4558,712,4573,370,162,370,0,162,0,3068,2321,869,0,0,0,0,0,0,0,0,0,0],"split_type":[0,0,0,0,0,0,0,0,0,0,0,0,0,0,0,0,0,0,0,0,0,0,0,0,0,0,0],"sum_hessian":[3.0890227E3,4.7403973E2,2.6149832E3,3.7387827E2,2.2411047E3,3.1666083E2,1.924444E3,3.0654486E2,1.0115961E1,2.2933476E2,1.6951093E3,1.391526E0,3.0515335E2,1.9532326E0,8.162729E0,5.2419987E0,2.2409277E2,1.23293076E2,1.5718162E3,2.0159588E0,3.031374E2,6.450749E0,1.7119797E0,1.0331631E0,4.2088356E0,4.5294733E0,2.195633E2],"tree_param":{"num_deleted":"0","num_feature":"5000","num_nodes":"27","size_leaf_vector":"1"}},{"base_weights":[-3.771824E-1,7.846772E-2,-4.2838398E-1,7.32847E-1,-4.8255974E-1,-2.1526086E-1,7.6590973E-1,7.82336E-2,-5.1799524E-1,1.3962271E-2,-3.8908E-2,7.7996396E-2,3.3242822E-1,7.8256205E-2,-5.5000687E-1,-1.1315861E-2,5.6016278E-2,-5.327031E-3,-5.5043407E-2],"categories":[],"categories_nodes":[],"categories_segments":[],"categories_sizes":[],"default_left":[0,0,0,0,0,0,0,0,0,0,0,0,1,0,0,0,0,0,0],"id":52,"left_children":[1,-1,3,5,7,9,11,-1,13,-1,-1,-1,15,-1,17,-1,-1,-1,-1],"loss_changes":[1.3965765E2,0E0,1.415102E2,3.3124619E0,9.651999E1,3.111946E-1,3.3317184E-1,0E0,8.729828E1,0E0,0E0,0E0,5.50134E-1,0E0,4.029541E-1,0E0,0E0,0E0,0E0],"parents":[2147483647,0,0,2,2,3,3,4,4,5,5,6,6,8,8,12,12,14,14],"right_children":[2,-1,4,6,8,10,12,-1,14,-1,-1,-1,16,-1,18,-1,-1,-1,-1],"split_conditions":[3.3884782E-1,7.846772E-2,1.6511591E-1,1.063456E-1,4.6457142E-1,9.37398E-2,5.9929658E-2,7.82336E-2,4.3087113E-1,1.3962271E-2,-3.8908E-2,7.7996396E-2,9.5894895E-2,7.8256205E-2,1.672213E-1,-1.1315861E-2,5.6016278E-2,-5.327031E-3,-5.5043407E-2],"split_indices":[1011,0,2695,4457,211,162,2807,0,557,0,0,0,162,0,2695,0,0,0,0],"split_type":[0,0,0,0,0,0,0,0,0,0,0,0,0,0,0,0,0,0,0],"sum_hessian":[2.3409697E3,9.820433E1,2.2427654E3,9.941105E1,2.1433542E3,3.164187E0,9.6246864E1,5.7834427E1,2.0855198E3,1.1049551E0,2.0592318E0,9.245017E1,3.7966912E0,4.9536133E1,2.0359836E3,1.4543036E0,2.3423877E0,1.857393E0,2.0341263E3],"tree_param":{"num_deleted":"0","num_feature":"5000","num_nodes":"19","size_leaf_vector":"1"}},{"base_weights":[-1.0629021E-2,7.900345E-2,-1.8317157E-1,-3.0399114E-1,7.33247E-1,7.863041E-2,-3.7826443E-1,-1.7055494E-1,7.709937E-1,7.871974E-2,-4.6242967E-1,-3.533497E-1,6.7551725E-2,3.0482069E-4,7.829708E-1,7.852441E-2,-5.50146E-1,4.7845878E-2,-5.0405186E-2,2.0935005E-1,-3.393365E-2,-2.9771153E-2,7.8829154E-2,-5.506107E-2,1.17964065E-2,-2.9157787E-3,3.7711598E-2],"categories":[],"categories_nodes":[],"categories_segments":[],"categories_sizes":[],"default_left":[0,0,1,0,0,0,0,1,0,0,0,0,0,0,0,0,1,0,0,0,0,0,0,0,0,0,0],"id":53,"left_children":[1,-1,3,5,7,-1,9,11,13,-1,15,17,-1,19,21,-1,23,-1,-1,25,-1,-1,-1,-1,-1,-1,-1],"loss_changes":[4.0237076E2,0E0,2.655291E2,1.7179329E2,9.663498E0,0E0,1.9491547E2,2.0976987E0,2.4771118E0,0E0,2.0294394E2,1.5625556E0,0E0,4.336698E-1,1.7542572E0,0E0,6.019287E-1,0E0,0E0,1.6224658E-1,0E0,0E0,0E0,0E0,0E0,0E0,0E0],"parents":[2147483647,0,0,2,2,3,3,4,4,6,6,7,7,8,8,10,10,11,11,13,13,14,14,16,16,19,19],"right_children":[2,-1,4,6,8,-1,10,12,14,-1,16,18,-1,20,22,-1,24,-1,-1,26,-1,-1,-1,-1,-1,-1,-1],"split_conditions":[6.0335636E-1,7.900345E-2,1.1863536E-1,4.1339678E-1,1.337982E-1,7.863041E-2,3.9056754E-1,1.3882694E-1,7.9703785E-2,7.871974E-2,4.0298498E-1,1.6850068E-1,6.7551725E-2,7.100746E-2,2.7252752E-1,7.852441E-2,1.7836818E-1,4.7845878E-2,-5.0405186E-2,6.847692E-2,-3.393365E-2,-2.9771153E-2,7.8829154E-2,-5.506107E-2,1.17964065E-2,-2.9157787E-3,3.7711598E-2],"split_indices":[3578,0,4988,1035,4457,0,1778,498,2807,0,1094,3470,0,2807,3531,0,4370,0,0,2807,0,0,0,0,0,0,0],"split_type":[0,0,0,0,0,0,0,0,0,0,0,0,0,0,0,0,0,0,0,0,0,0,0,0,0,0,0],"sum_hessian":[2.9105479E3,5.153851E2,2.3951628E3,2.11676E3,2.784029E2,1.343903E2,1.9823698E3,1.1020138E1,2.6738275E2,1.3295454E2,1.8494152E3,9.541132E0,1.4790063E0,4.107432E0,2.632753E2,1.2095815E2,1.728457E3,1.1298736E0,8.411258E0,2.7799933E0,1.3274387E0,1.0206406E0,2.6225467E2,1.7274313E3,1.0256847E0,1.4891344E0,1.2908589E0],"tree_param":{"num_deleted":"0","num_feature":"5000","num_nodes":"27","size_leaf_vector":"1"}},{"base_weights":[1.7157853E-1,4.5521894E-1,-5.5018455E-2,-5.5028733E-2,5.3715014E-1,-5.4587524E-2,5.87766E-1,-5.6038123E-2,6.4002234E-1,-5.4479476E-2,6.953244E-1,-5.4344416E-2,7.42574E-2],"categories":[],"categories_nodes":[],"categories_segments":[],"categories_sizes":[],"default_left":[0,0,0,0,0,0,0,0,0,0,0,0,0],"id":54,"left_children":[1,3,-1,-1,5,-1,7,-1,9,-1,11,-1,-1],"loss_changes":[6.8353827E2,1.9773251E2,0E0,0E0,1.2182733E2,0E0,1.2743732E2,0E0,1.3314844E2,0E0,1.1374304E2,0E0,0E0],"parents":[2147483647,0,0,1,1,4,4,6,6,8,8,10,10],"right_children":[2,4,-1,-1,6,-1,8,-1,10,-1,12,-1,-1],"split_conditions":[3.6973006E-1,6.028122E-1,-5.5018455E-2,-5.5028733E-2,3.460787E-1,-5.4587524E-2,6.1307675E-1,-5.6038123E-2,3.6118364E-1,-5.4479476E-2,4.0298498E-1,-5.4344416E-2,7.42574E-2],"split_indices":[4457,1174,0,0,4873,0,77,0,119,0,1093,0,0],"split_type":[0,0,0,0,0,0,0,0,0,0,0,0,0],"sum_hessian":[3.3366511E3,2.3955935E3,9.410575E2,1.800614E2,2.2155322E3,9.8484215E1,2.1170479E3,9.173677E1,2.0253112E3,8.99223E1,1.9353888E3,7.0722305E1,1.8646665E3],"tree_param":{"num_deleted":"0","num_feature":"5000","num_nodes":"13","size_leaf_vector":"1"}},{"base_weights":[1.2706488E-2,7.1388406E-1,-1.6046552E-1,-5.1821966E-2,7.548567E-2,7.019552E-1,-3.205019E-1,-1.7062469E-1,7.289588E-1,7.74942E-2,-4.4964203E-1,6.1605074E-2,-4.063817E-1,-3.8743235E-2,7.3766446E-1,7.507595E-2,-5.461399E-2,1.3059951E-2,-4.9018186E-2,-3.7938315E-2,7.440171E-1,-3.444225E-2,7.491657E-2],"categories":[],"categories_nodes":[],"categories_segments":[],"categories_sizes":[],"default_left":[0,0,0,0,0,1,0,0,0,0,0,0,0,0,0,0,0,0,0,0,0,0,0],"id":55,"left_children":[1,3,5,-1,-1,7,9,11,13,-1,15,-1,17,-1,19,-1,-1,-1,-1,-1,21,-1,-1],"loss_changes":[3.3459116E2,2.7942291E1,3.0522598E2,0E0,0E0,8.281891E0,2.6413263E2,2.328031E0,3.551361E0,0E0,1.936994E2,0E0,4.7899842E-1,0E0,2.650589E0,0E0,0E0,0E0,0E0,0E0,2.119629E0,0E0,0E0],"parents":[2147483647,0,0,1,1,2,2,5,5,6,6,7,7,8,8,10,10,12,12,14,14,20,20],"right_children":[2,4,6,-1,-1,8,10,12,14,-1,16,-1,18,-1,20,-1,-1,-1,-1,-1,22,-1,-1],"split_conditions":[6.028122E-1,4.3087113E-1,6.309851E-1,-5.1821966E-2,7.548567E-2,5.379735E-2,6.757371E-1,2.0049907E-1,9.375466E-2,7.74942E-2,4.4372785E-1,6.1605074E-2,5.3643826E-2,-3.8743235E-2,3.63353E-1,7.507595E-2,-5.461399E-2,1.3059951E-2,-4.9018186E-2,-3.7938315E-2,1.7028387E-1,-3.444225E-2,7.491657E-2],"split_indices":[1174,761,440,0,0,2807,4668,1086,1880,0,2332,0,4457,0,590,0,0,0,0,0,536,0,0],"split_type":[0,0,0,0,0,0,0,0,0,0,0,0,0,0,0,0,0,0,0,0,0,0,0],"sum_hessian":[2.7536094E3,5.447562E2,2.208853E3,